[array([[[[ 9.19112042e-02, -7.66941085e-02, -2.01233495e-02,
          -7.23010302e-02,  2.59579986e-01,  6.42383248e-02]],

        [[-1.21359400e-01, -7.76004940e-02, -2.32999325e-01,
          -1.90600857e-01,  2.87365645e-01,  1.44198716e-01]],

        [[ 1.53713092e-01,  8.84727016e-02,  2.44167950e-02,
          -1.19992919e-01,  8.26849714e-02,  9.07510146e-02]],

        [[ 2.39276454e-01,  9.20002013e-02, -4.88847010e-02,
          -1.26431346e-01,  2.35976130e-01,  2.17190459e-01]],

        [[ 3.64259571e-01,  2.11127713e-01, -1.91871718e-01,
          -4.36357744e-02,  1.78617477e-01, -6.11115843e-02]]],


       [[[ 2.97405999e-02, -1.21170551e-01,  6.45002425e-02,
           7.79945105e-02,  3.45004648e-02,  1.27017304e-01]],

        [[-1.59694612e-01,  1.14530576e-02, -1.35606721e-01,
          -1.69163227e-01, -3.69260572e-02,  1.30765280e-02]],

        [[ 1.93485305e-01,  5.12989387e-02, -2.35408656e-02,
           9.29399207e-02,  2.59880543e-01,  2.63117820e-01]],

        [[ 5.48092648e-03,  5.82408756e-02,  2.12697715e-01,
           2.32140988e-01,  1.83192819e-01,  1.48115948e-01]],

        [[ 1.97434202e-02,  1.36692986e-01,  3.83495577e-02,
           2.20107347e-01,  2.78742254e-01, -5.51271625e-02]]],


       [[[-2.11103469e-01, -3.44540039e-03,  2.23672882e-01,
           6.87285513e-02,  8.44865516e-02,  1.88391998e-01]],

        [[-1.30282357e-01, -2.07397968e-01,  9.60059762e-02,
           2.63037503e-01, -1.14220224e-01,  1.30350083e-01]],

        [[-1.64501499e-02, -2.15319023e-01,  6.53740168e-02,
           3.19866240e-01, -2.48349965e-01,  8.41705948e-02]],

        [[ 2.48570427e-01, -4.80533354e-02,  4.97508459e-02,
           1.67106092e-01,  8.41385219e-04,  9.08667222e-02]],

        [[ 3.00115019e-01,  4.73078489e-02,  1.18871272e-01,
           6.49496391e-02, -2.11596052e-05, -1.56703398e-01]]],


       [[[-1.92870468e-01,  6.76184967e-02, -4.31903638e-02,
           1.81733772e-01, -1.80041149e-01,  2.16949761e-01]],

        [[ 7.63758346e-02, -5.08803315e-02,  1.84105709e-01,
           1.18217885e-01, -2.52233863e-01, -5.27731739e-02]],

        [[ 1.11157738e-01, -2.87003785e-01,  3.55818152e-01,
           1.18352264e-01, -3.99156302e-01, -1.49650335e-01]],

        [[ 6.94923773e-02, -2.26326793e-01,  1.05667926e-01,
           2.20943719e-01, -4.04054433e-01, -9.41257849e-02]],

        [[ 7.63126463e-02, -1.74943238e-01,  1.94597438e-01,
           2.38508984e-01, -2.16891989e-01, -1.64755926e-01]]],


       [[[-3.39677408e-02,  8.55908543e-02,  2.10231602e-01,
           2.25828007e-01, -3.38916749e-01, -7.62023777e-02]],

        [[-1.07704654e-01, -1.65095106e-01,  2.52056837e-01,
           1.05146483e-01, -3.30323964e-01, -9.26027894e-02]],

        [[ 2.08841473e-01, -9.78093073e-02,  2.26017043e-01,
           2.51341224e-01, -2.45686963e-01, -9.55991670e-02]],

        [[ 1.85508970e-02, -1.22867331e-01,  2.65425090e-02,
           1.14260420e-01, -2.35098556e-01, -3.14683467e-01]],

        [[ 1.00586526e-02, -1.68610156e-01, -1.66625634e-01,
           4.27382365e-02, -2.95401543e-01, -2.07247734e-01]]]],
      dtype=float32), array([ 0.00077677,  0.184901  , -0.11952164, -0.23405322, -0.01198738,
        0.06895475], dtype=float32)]
[]
[array([[[[ 7.10227154e-03,  5.53973541e-02, -8.02655369e-02, ...,
          -1.29295243e-02,  3.68925817e-02,  4.10465300e-02],
         [ 6.09676936e-04,  1.08180389e-01,  8.48482475e-02, ...,
           8.76164362e-02,  2.55679972e-02,  5.28376922e-02],
         [-1.90190319e-02, -1.07793204e-01,  7.92570189e-02, ...,
          -6.60473332e-02,  5.58682391e-03,  1.48090208e-02],
         [ 1.41952649e-01,  6.74363822e-02, -8.00514743e-02, ...,
           1.10304773e-01,  8.23570415e-02, -5.18363081e-02],
         [-1.15929972e-02,  1.95711721e-02,  4.29097824e-02, ...,
           5.95777929e-02, -9.28293392e-02,  2.55905222e-02],
         [-1.01837367e-01, -4.28492092e-02,  9.78513658e-02, ...,
           4.26011570e-02, -7.39357471e-02,  4.72621992e-02]],

        [[-2.44094282e-02, -1.01305611e-01, -1.19437382e-01, ...,
           8.07202160e-02,  8.77931416e-02, -1.19919917e-02],
         [ 2.84617115e-02,  8.16037413e-03,  1.11511007e-01, ...,
           4.70006689e-02, -1.12801827e-01,  6.20419346e-02],
         [ 8.17245245e-02, -3.86871137e-02,  2.81224586e-02, ...,
           9.05609727e-02,  8.52672681e-02, -1.32230751e-04],
         [ 6.61769360e-02, -6.50845841e-02, -8.96346122e-02, ...,
           3.60379145e-02,  1.14260383e-01, -1.00353166e-01],
         [-1.51926920e-01, -6.46717846e-02,  1.30694667e-02, ...,
          -7.60943741e-02, -1.18558444e-01, -4.92150709e-02],
         [ 2.36854833e-02,  1.01811007e-01,  3.35260816e-02, ...,
           4.51638736e-02, -9.41773951e-02, -1.07274674e-01]],

        [[ 8.22584853e-02, -1.29155502e-01,  1.29347723e-02, ...,
           1.03798024e-01, -8.48672073e-03, -7.46407919e-03],
         [-1.38749436e-01,  4.97283181e-03,  6.16947524e-02, ...,
          -8.13005194e-02, -9.89143271e-03,  4.02371660e-02],
         [ 8.55697766e-02, -4.68907841e-02,  4.20358405e-02, ...,
           1.46613687e-01, -8.64931103e-03, -4.28172983e-02],
         [ 1.34133965e-01, -5.75353168e-02, -9.85771716e-02, ...,
          -3.73746864e-02,  1.26304641e-01, -3.69086638e-02],
         [-1.29069760e-01, -2.36561541e-02,  1.00999875e-02, ...,
          -7.91241527e-02, -1.63093984e-01,  1.11104019e-01],
         [ 3.32443379e-02,  4.44656648e-02,  1.01650506e-03, ...,
          -6.84877485e-02, -8.09202641e-02, -9.61217880e-02]],

        [[-1.15195528e-01, -1.40479311e-01, -8.90082344e-02, ...,
          -4.45635542e-02, -2.85206567e-02,  7.10466579e-02],
         [-6.98316842e-02,  3.00150272e-02,  2.62778923e-02, ...,
          -3.08911465e-02, -1.27421329e-02, -8.32147002e-02],
         [ 3.73595469e-02, -8.01792070e-02, -8.51119906e-02, ...,
           3.99701893e-02, -5.51758632e-02,  4.23521996e-02],
         [ 4.28571403e-02, -9.89479013e-05,  1.72930956e-02, ...,
           8.45664516e-02,  5.07805906e-02, -1.03679761e-01],
         [-8.60697869e-03,  5.87155763e-03,  9.73466262e-02, ...,
           4.63684052e-02, -1.13717005e-01,  3.58168930e-02],
         [ 3.95619422e-02, -3.31387036e-02,  7.44558349e-02, ...,
           1.37220800e-01, -2.98582041e-03, -4.83403075e-03]],

        [[ 1.28420824e-02, -7.67075643e-02,  3.58863808e-02, ...,
          -8.30480456e-02, -4.07000594e-02,  2.75054518e-02],
         [ 8.83283168e-02,  5.93353547e-02, -7.55465543e-03, ...,
          -1.28474561e-02, -6.34633079e-02,  9.17520374e-02],
         [-1.03963958e-02, -3.76633555e-03, -1.27324253e-01, ...,
          -5.64345010e-02,  7.87691474e-02, -5.53666390e-02],
         [ 9.35256034e-02, -1.36393040e-01, -1.08161591e-01, ...,
           5.63730858e-02, -1.41519634e-02,  8.87559503e-02],
         [ 1.23032751e-02,  7.61330202e-02, -2.85828039e-02, ...,
           8.32476839e-02, -5.37141636e-02, -3.31340395e-02],
         [ 7.87368193e-02, -3.93614620e-02, -5.30626960e-02, ...,
           1.32151932e-01, -2.21447437e-03,  1.86411310e-02]]],


       [[[ 1.71175320e-02, -4.65291217e-02, -9.22298580e-02, ...,
           1.19412929e-01,  1.02761749e-03, -6.18793257e-02],
         [-1.03892297e-01, -8.76702070e-02,  1.81099847e-02, ...,
           7.92779922e-02, -1.24276936e-01, -7.89266303e-02],
         [ 3.14908437e-02,  1.57619559e-03,  2.34527662e-02, ...,
          -2.47960426e-02, -4.06920415e-04, -1.25960447e-02],
         [ 6.52617738e-02, -8.83249268e-02, -1.24314539e-01, ...,
           9.72635671e-02,  4.71192319e-03,  4.06572893e-02],
         [-6.57530352e-02, -6.99033365e-02, -1.60497800e-02, ...,
           8.35904330e-02, -4.86170128e-02,  1.02926500e-01],
         [ 9.51384827e-02,  3.89763080e-02,  3.48912962e-02, ...,
          -1.36823401e-01, -1.06864989e-01,  6.60787523e-03]],

        [[ 1.86595675e-02,  4.56906296e-02, -7.96457231e-02, ...,
           7.94041753e-02, -8.22824463e-02, -1.02681018e-01],
         [-1.04339518e-01, -7.71607906e-02,  6.26547411e-02, ...,
          -1.04526235e-02, -1.17252477e-01, -3.83185223e-02],
         [ 4.76476317e-03, -7.10648075e-02,  5.28671816e-02, ...,
          -1.84503254e-02,  7.79390037e-02,  1.60073470e-02],
         [ 3.97289954e-02, -8.88573751e-03,  6.79392517e-02, ...,
           3.07940934e-02,  5.24577126e-02,  3.92671973e-02],
         [ 1.54296607e-02, -9.54631120e-02, -9.90122631e-02, ...,
           6.33824840e-02, -1.71340808e-01,  9.01832506e-02],
         [ 9.22650918e-02,  2.71641719e-03,  8.82631391e-02, ...,
           5.25171869e-03,  1.50558632e-02, -7.76660442e-02]],

        [[-5.39337210e-02, -8.50318521e-02, -1.27288938e-01, ...,
           1.30956188e-01,  8.43419805e-02, -6.76474348e-02],
         [-7.53633231e-02, -6.34988723e-03,  2.72292178e-02, ...,
           6.91261664e-02, -8.44202787e-02, -1.02160417e-01],
         [ 3.36422585e-02,  9.02028009e-02, -3.55068147e-02, ...,
           1.11759581e-01,  5.11636958e-02, -1.52935293e-02],
         [ 7.56870955e-02, -8.50850642e-02, -9.95084792e-02, ...,
           5.84771857e-02,  2.77552269e-02,  8.87895301e-02],
         [-4.68950048e-02,  4.82464507e-02,  1.66939516e-02, ...,
           3.19234394e-02, -5.54931723e-02,  4.14942838e-02],
         [-9.60343285e-04, -8.09383839e-02, -7.40353018e-02, ...,
           7.35088810e-02, -3.23378518e-02, -7.30015412e-02]],

        [[ 2.39248276e-02, -1.27457201e-01, -1.21408202e-01, ...,
          -8.37946832e-02,  5.83466068e-02, -2.56876387e-02],
         [ 6.28676862e-02,  9.52131227e-02,  7.84856901e-02, ...,
          -3.63300135e-03, -1.32864758e-01,  1.69890504e-02],
         [ 9.23840925e-02,  7.38565996e-02,  1.62597355e-02, ...,
           8.92845839e-02,  8.95230379e-03, -4.44157347e-02],
         [ 7.99775124e-02, -7.80074522e-02, -6.93094954e-02, ...,
           1.24483764e-01,  1.58097029e-01,  1.43088065e-02],
         [-3.45444083e-02, -1.32420897e-01, -9.03512817e-03, ...,
           7.74291307e-02, -6.45467639e-02, -1.18277900e-01],
         [ 8.00856575e-02,  1.05257668e-02,  4.29368205e-02, ...,
           5.47206216e-02, -5.28870970e-02, -5.36379442e-02]],

        [[ 4.22726646e-02, -1.38797993e-02, -9.50240046e-02, ...,
           2.20904537e-02, -6.97647333e-02, -8.60358626e-02],
         [ 3.38945948e-02, -7.31579363e-02,  1.45893991e-02, ...,
           9.80405137e-02,  1.81397796e-03,  5.35987765e-02],
         [-9.96181220e-02,  7.86175206e-02, -8.57210159e-02, ...,
          -2.13778578e-03,  9.69703794e-02, -6.52668476e-02],
         [ 4.05133888e-02, -1.27122641e-01, -6.11669868e-02, ...,
           1.04716808e-01, -5.76858362e-03, -7.38238245e-02],
         [-3.66715752e-02, -3.32029983e-02, -8.10866430e-02, ...,
          -4.19626497e-02, -1.84567362e-01,  3.25553305e-02],
         [ 1.37179539e-01,  5.30442633e-02, -8.52649286e-02, ...,
          -3.03388499e-02, -2.03878270e-03,  1.22048287e-02]]],


       [[[ 4.13546674e-02, -1.31541237e-01, -1.06541149e-01, ...,
           1.20974004e-01, -3.95390466e-02, -1.32326148e-02],
         [ 8.45122188e-02, -3.86350490e-02, -1.37616834e-02, ...,
           5.56158125e-02,  1.75516196e-02,  1.45354122e-02],
         [ 2.37081312e-02,  1.74707714e-02, -1.38550373e-02, ...,
          -6.37407275e-03,  1.44287115e-02,  1.23043824e-02],
         [-3.42087783e-02,  7.69381970e-02,  5.54618845e-03, ...,
           1.29346192e-01, -2.39034817e-02,  6.98237047e-02],
         [-7.97304958e-02, -1.64681628e-01, -1.01758629e-01, ...,
          -2.02462804e-02, -5.81930913e-02,  1.10177778e-01],
         [ 1.03273526e-01, -5.14642987e-03,  9.22990032e-03, ...,
          -2.67338958e-02,  3.94296944e-02,  4.03448828e-02]],

        [[ 2.84844521e-03,  7.14837853e-03, -1.04869887e-01, ...,
           3.49445380e-02, -9.25245583e-02, -5.79143800e-02],
         [ 6.22103084e-03, -6.77159950e-02,  5.49942516e-02, ...,
          -1.01090208e-01, -1.08491853e-01, -7.79700279e-02],
         [ 4.04250547e-02, -5.09225503e-02, -9.93066728e-02, ...,
           3.19013186e-02,  1.02399617e-01, -3.58724706e-02],
         [ 1.39094265e-02,  5.92782721e-02,  6.90623298e-02, ...,
           8.28881040e-02, -4.24930453e-02, -8.11305121e-02],
         [-4.52911928e-02, -1.60260782e-01, -5.72202317e-02, ...,
           6.78255931e-02,  3.13815065e-02,  5.74299097e-02],
         [ 1.17489047e-01,  5.01709282e-02, -7.11350590e-02, ...,
          -1.81155913e-02,  2.98869293e-02,  4.28673178e-02]],

        [[ 6.23397566e-02,  6.18040785e-02, -3.76186408e-02, ...,
          -5.59960678e-02, -4.50425036e-02, -9.43230093e-02],
         [-8.59035477e-02,  1.89315528e-02, -2.10462436e-02, ...,
          -1.18137747e-02, -4.51134220e-02,  5.26143052e-03],
         [-7.84407929e-02,  3.64258401e-02, -3.87731418e-02, ...,
           1.37684971e-01,  2.32195351e-02, -2.98918169e-02],
         [ 1.50930444e-02, -3.64155546e-02, -1.96229871e-02, ...,
           5.03182262e-02,  1.01368479e-01,  6.86925789e-03],
         [-5.44682741e-02, -9.86051634e-02, -9.81487483e-02, ...,
           2.27925386e-02, -5.16371764e-02,  7.69602582e-02],
         [ 9.52887088e-02, -7.86891133e-02,  5.16144447e-02, ...,
           2.05423739e-02, -4.71756607e-02, -5.57945073e-02]],

        [[-8.04002061e-02, -1.39893696e-01, -6.40559718e-02, ...,
          -2.73739155e-02, -1.02984101e-01,  9.85223101e-04],
         [ 2.31419560e-02,  6.14042534e-03, -1.01520494e-02, ...,
           5.93925714e-02,  1.59615669e-02, -5.16941138e-02],
         [-2.84975134e-02, -7.37201571e-02,  7.72980452e-02, ...,
           1.17241964e-01,  1.24252081e-01, -8.41401443e-02],
         [-2.59179901e-02, -9.67098773e-02, -1.14482313e-01, ...,
           6.39540255e-02,  3.41265574e-02,  3.18208486e-02],
         [ 2.38243919e-02, -1.22557104e-01, -4.62645069e-02, ...,
           9.62067321e-02, -5.03893942e-02, -1.18069321e-01],
         [ 1.05754003e-01,  3.74014489e-02, -9.38101113e-02, ...,
           3.48150171e-02, -7.86816180e-02, -4.62515652e-02]],

        [[-1.71696097e-02,  2.51418017e-02, -1.17249608e-01, ...,
          -8.21012333e-02, -2.65317298e-02, -2.53723213e-03],
         [-2.86056306e-02,  8.46700668e-02, -4.83780168e-02, ...,
          -8.17918256e-02, -6.18883446e-02, -1.97071824e-02],
         [-3.91986966e-03, -9.66119021e-02,  6.39880374e-02, ...,
          -5.46647608e-02,  5.01565635e-02,  1.17754869e-01],
         [ 3.58377695e-02,  4.49593477e-02, -2.87136585e-02, ...,
           9.63727683e-02,  2.30784919e-02,  7.06776753e-02],
         [ 5.28438538e-02, -1.48222074e-01, -2.33768169e-02, ...,
           1.35554820e-01, -9.06386003e-02, -6.04471751e-02],
         [-3.26460041e-02, -1.35013551e-01, -1.40709817e-01, ...,
           1.46492779e-01, -1.51881557e-02, -7.39253014e-02]]],


       [[[ 1.03200763e-01, -9.77097638e-03, -2.40496155e-02, ...,
           1.37596846e-01,  6.81151822e-02,  7.69455656e-02],
         [-5.84414378e-02, -3.82901132e-02, -7.07270354e-02, ...,
           5.39723076e-02, -7.22492710e-02,  8.97107348e-02],
         [-3.98743637e-02,  6.27049506e-02,  7.68162385e-02, ...,
          -3.00585739e-02, -4.17113416e-02, -5.75315580e-03],
         [-4.72989455e-02,  8.03048909e-02,  5.97950332e-02, ...,
           1.45298973e-01,  1.30446389e-01,  1.05418945e-02],
         [ 3.77610363e-02, -1.32878885e-01,  3.53054553e-02, ...,
          -4.88222316e-02,  4.45901044e-02,  1.23029552e-01],
         [ 5.74341640e-02, -1.17333315e-01, -8.99345726e-02, ...,
           4.33162488e-02,  3.71944420e-02,  7.28666335e-02]],

        [[-5.54237887e-02, -1.26390129e-01, -8.53302255e-02, ...,
           1.04629442e-01, -5.12864925e-02,  6.54416680e-02],
         [-2.60989014e-02,  2.64020683e-03, -9.67640877e-02, ...,
          -6.51678219e-02, -6.22199699e-02,  7.62804523e-02],
         [ 6.30245879e-02,  2.42050719e-02, -3.82488258e-02, ...,
           9.11515504e-02, -2.86968146e-02,  8.03499892e-02],
         [-6.47736862e-02, -6.55860975e-02,  1.01952799e-01, ...,
          -3.38884257e-02,  2.86397040e-02,  3.33744846e-02],
         [ 7.57516995e-02, -2.58450247e-02, -7.81153068e-02, ...,
          -2.71163732e-02, -8.94551054e-02, -4.77693714e-02],
         [-3.84834968e-02,  4.70530288e-03, -3.89051698e-02, ...,
           9.49791819e-02,  5.05416002e-03, -9.42056701e-02]],

        [[-9.18712318e-02, -1.11868486e-01, -2.03917809e-02, ...,
          -3.88190150e-02,  5.91100268e-02, -7.42703676e-02],
         [ 8.53103101e-02, -5.90961501e-02,  7.14588612e-02, ...,
          -3.35872732e-02,  2.47334689e-02,  4.64604497e-02],
         [ 1.75005216e-02, -3.05961035e-02,  2.67555024e-02, ...,
           1.34571278e-02,  1.02901019e-01, -1.05032876e-01],
         [-7.38877058e-02,  4.44155335e-02,  3.71022969e-02, ...,
           1.09782353e-01,  1.34179071e-01,  1.82965398e-02],
         [-2.35354286e-02, -4.37809713e-02, -1.58799902e-01, ...,
           8.36739987e-02,  8.09275433e-02, -9.40522105e-02],
         [-5.14432183e-03, -2.97249854e-03, -1.32369339e-01, ...,
          -5.31473570e-02,  2.01516896e-02, -1.27113223e-01]],

        [[-2.00232826e-02, -5.39533347e-02, -4.29714918e-02, ...,
           1.32766564e-03, -8.44765380e-02,  1.09585166e-01],
         [-6.62191659e-02, -6.96647987e-02,  1.20858764e-02, ...,
          -9.74822938e-02,  4.33303192e-02, -9.48586836e-02],
         [-7.20429197e-02,  2.30872594e-02,  1.20614998e-01, ...,
          -1.96406022e-02,  1.31831288e-01, -4.53971326e-03],
         [-8.77252147e-02,  6.57607764e-02,  7.19370171e-02, ...,
          -8.55982304e-02,  1.05564333e-01,  1.04895961e-02],
         [-5.22661507e-02, -3.35315280e-02, -9.01820080e-04, ...,
          -3.11810970e-02, -7.27331713e-02,  8.39228854e-02],
         [ 1.19592547e-01,  2.91704871e-02, -3.88493314e-02, ...,
           1.41848788e-01, -1.46493344e-02, -1.23974964e-01]],

        [[ 9.12781432e-02, -5.44458926e-02,  4.51471023e-02, ...,
          -4.94248904e-02, -9.75946188e-02,  1.06998697e-01],
         [ 7.63835907e-02,  2.96075717e-02, -1.14798516e-01, ...,
           7.99492970e-02,  6.09736666e-02,  7.68733323e-02],
         [-6.78465664e-02,  5.87537838e-03, -7.27662221e-02, ...,
           4.08724546e-02, -7.67275319e-02,  6.30831271e-02],
         [-3.90125960e-02,  2.75312532e-02,  3.86383422e-02, ...,
          -9.67685357e-02,  1.32365182e-01,  3.36488150e-02],
         [ 9.72274467e-02, -9.33093950e-02, -1.09574929e-01, ...,
          -2.89059058e-02, -3.74042429e-02, -5.56585193e-02],
         [-6.51373267e-02,  1.25139793e-02,  2.29431558e-02, ...,
           1.01794623e-01,  1.15826026e-01, -6.73143491e-02]]],


       [[[-5.11462390e-02,  5.99606298e-02, -2.08957139e-02, ...,
           1.22234277e-01, -1.08842216e-02, -8.55738446e-02],
         [ 8.46452489e-02,  4.95378189e-02,  8.46591592e-03, ...,
           4.65113781e-02, -9.34793800e-02,  1.11249641e-01],
         [-5.88434711e-02,  7.68759549e-02, -5.94497146e-03, ...,
          -4.31200899e-02,  5.08152917e-02, -1.20095059e-01],
         [-3.69323567e-02,  1.12744562e-01, -5.86315915e-02, ...,
           9.91938412e-02,  1.15527891e-01, -2.17075273e-02],
         [ 2.93638911e-02, -9.20306295e-02, -7.21483901e-02, ...,
          -2.70102341e-02,  9.79658589e-02,  1.27285108e-01],
         [-6.73878193e-02,  9.89142060e-02, -1.40994236e-01, ...,
           5.50224334e-02, -9.51444507e-02, -6.75492510e-02]],

        [[ 8.93972591e-02,  8.59743357e-02,  1.34775955e-02, ...,
           1.15583584e-01,  7.70974308e-02,  1.69118792e-02],
         [ 7.01241493e-02, -1.09769758e-02, -7.94913024e-02, ...,
          -8.95117968e-03, -7.88180977e-02, -1.49774747e-02],
         [-1.68621652e-02, -3.27983536e-02,  3.81292105e-02, ...,
           1.07987151e-01,  1.15764871e-01, -2.80284137e-02],
         [-8.78573209e-02,  2.79793702e-02,  7.20618591e-02, ...,
           9.77788568e-02,  3.94554110e-03, -5.58137149e-02],
         [ 1.18294805e-01, -3.17892842e-02, -1.79648533e-01, ...,
          -2.85365675e-02,  2.80346461e-02,  1.18294507e-01],
         [-5.02666757e-02,  6.71692193e-02, -1.15612961e-01, ...,
           8.31780434e-02, -9.30166468e-02,  5.70943020e-02]],

        [[-3.89420651e-02, -6.71967417e-02,  5.80780469e-02, ...,
           3.61309648e-02, -7.10295960e-02, -7.37096146e-02],
         [-4.69556935e-02,  1.93175499e-03,  4.80660237e-02, ...,
          -7.98466429e-02,  1.19751077e-02, -5.30523509e-02],
         [-8.82909447e-02,  1.28267100e-02,  8.18148106e-02, ...,
           1.01569742e-01, -2.64526554e-03,  9.61019769e-02],
         [-3.97208035e-02,  4.69383113e-02,  1.39833853e-01, ...,
          -4.96668480e-02,  4.37298082e-02, -8.22383016e-02],
         [ 7.05062971e-02, -5.97850718e-02, -1.92364141e-01, ...,
           1.61610842e-02,  8.57373774e-02,  8.32574721e-03],
         [ 5.75289316e-02, -5.47647588e-02,  1.43848434e-02, ...,
          -5.86268753e-02,  1.28471076e-01, -9.67299864e-02]],

        [[-1.19915586e-02, -3.16746160e-02, -9.22391564e-02, ...,
          -4.55873348e-02,  4.76407632e-02, -2.53487006e-02],
         [-3.94418836e-02, -1.04074590e-01, -1.30060658e-01, ...,
          -5.93585782e-02,  2.58536749e-02, -7.37188607e-02],
         [-1.37232896e-02,  2.43397839e-02,  1.33251455e-02, ...,
          -3.79510224e-02,  8.94340128e-02, -9.32047591e-02],
         [-1.03326082e-01,  2.05514636e-02,  4.98532988e-02, ...,
           5.58607392e-02, -7.33024999e-02,  3.16604823e-02],
         [ 1.29290149e-01,  5.46719991e-02, -1.90206125e-01, ...,
           6.03324845e-02,  8.11445862e-02,  2.37379745e-02],
         [ 8.87985062e-03,  5.63579313e-02, -9.74983945e-02, ...,
           3.92732099e-02,  1.42162681e-01,  3.88269052e-02]],

        [[ 2.51365341e-02,  1.28102163e-03, -2.57128403e-02, ...,
          -8.86684582e-02,  2.36153957e-02,  1.29810616e-01],
         [ 3.70995365e-02, -2.83256341e-02, -5.18370196e-02, ...,
           1.25653865e-02, -3.65973897e-02,  3.99228670e-02],
         [ 6.44674152e-02,  1.16740212e-01,  1.01913281e-01, ...,
           7.83478767e-02,  2.74764821e-02,  8.82411823e-02],
         [ 3.46206874e-02,  1.12425894e-01,  3.21475007e-02, ...,
          -8.56979117e-02, -9.35158283e-02, -3.90982740e-02],
         [-3.30290459e-02, -5.11847287e-02, -3.26347537e-02, ...,
           1.14658415e-01, -2.40783617e-02,  7.82699957e-02],
         [ 1.85051933e-02, -3.32704037e-02, -1.12386160e-01, ...,
           9.78812501e-02,  1.57808349e-01,  9.59190801e-02]]]],
      dtype=float32), array([-0.02448171, -0.0112472 ,  0.04355802, -0.06744573,  0.00841946,
       -0.03016045, -0.04501788, -0.00981508,  0.07499971,  0.04102251,
       -0.06855053,  0.05889999,  0.0154307 ,  0.08917206, -0.03517903,
        0.00248175], dtype=float32)]
[]
[array([[[[-7.66612124e-03, -3.25461961e-02,  2.20149923e-02, ...,
          -3.42410207e-02,  8.25556368e-03,  3.09690442e-02],
         [ 4.18299623e-02, -9.79290437e-03,  6.41568890e-03, ...,
          -2.34303363e-02, -2.46963166e-02, -3.50347981e-02],
         [-6.18215278e-03,  3.23292725e-02, -1.78001169e-02, ...,
          -3.57899442e-02, -4.25500274e-02,  1.77767389e-02],
         ...,
         [-2.65461802e-02, -2.71416418e-02, -1.50448801e-02, ...,
          -2.27954704e-02, -2.31118463e-02,  1.61841791e-02],
         [ 5.04337426e-04,  3.23090777e-02,  3.60286422e-02, ...,
          -4.51379642e-02, -1.45541038e-02,  1.10693444e-02],
         [-2.88593508e-02, -3.16525288e-02,  3.36293429e-02, ...,
           1.81716587e-02,  3.05968523e-02, -4.39829640e-02]],

        [[ 1.05174268e-02,  1.70332249e-02, -2.35814974e-02, ...,
           3.67120057e-02,  3.31189334e-02,  3.08626760e-02],
         [ 5.92198893e-02, -2.93357912e-02,  1.35706477e-02, ...,
           1.32754259e-02,  1.11624422e-02, -8.99134763e-03],
         [ 5.68132736e-02,  2.27656085e-02, -4.97535244e-03, ...,
          -2.18670089e-02, -1.03067672e-02, -2.93914583e-02],
         ...,
         [-1.92372426e-02, -1.23176416e-02, -1.44685304e-03, ...,
           1.47501873e-02,  2.21692119e-02, -3.11656613e-02],
         [-3.39820944e-02,  2.08682045e-02, -2.20967270e-02, ...,
          -2.28921957e-02, -1.33035444e-02, -2.24543847e-02],
         [ 5.72030712e-03, -3.92460637e-02,  3.68819688e-03, ...,
          -5.02723688e-03,  6.50178362e-03,  6.81378273e-03]],

        [[-3.92107815e-02, -3.41657996e-02,  3.17558758e-02, ...,
           9.67609882e-03,  4.50240001e-02, -9.29164421e-03],
         [ 3.27657983e-02,  2.19809134e-02, -3.62871289e-02, ...,
          -3.77840064e-02, -4.31592427e-02, -3.09565552e-02],
         [-8.06884095e-03, -1.44757684e-02, -1.81624778e-02, ...,
           1.00026559e-02,  2.14941502e-02, -2.05932632e-02],
         ...,
         [-3.27763408e-02,  5.47405295e-02,  1.49326604e-02, ...,
           2.72296788e-03,  3.35937366e-02,  2.24608053e-02],
         [ 1.27712144e-02, -1.25053655e-02,  4.82649915e-02, ...,
          -1.44524304e-02,  4.44111181e-03, -2.92266929e-03],
         [-3.96553874e-02,  1.97258722e-02,  2.91806720e-02, ...,
          -1.31367454e-02,  3.82113494e-02, -1.16249789e-02]],

        [[-3.32688428e-02,  1.32465316e-02, -3.60398367e-03, ...,
           2.46393234e-02, -4.35331883e-03, -2.91712694e-02],
         [-1.92522593e-02,  3.21187079e-02, -3.33521888e-02, ...,
          -1.62247953e-03, -4.47059385e-02,  3.32917944e-02],
         [ 4.05663112e-03, -1.30255818e-02, -3.25111970e-02, ...,
          -2.62587741e-02, -5.22150435e-02,  2.72282809e-02],
         ...,
         [-1.43236080e-02,  1.53826894e-02, -1.62949017e-03, ...,
           4.72264774e-02,  5.90553358e-02, -3.64635438e-02],
         [-2.37012561e-02, -1.44553883e-02,  5.16031832e-02, ...,
           6.28588870e-02,  2.17718743e-02, -1.38920052e-02],
         [ 2.28878986e-02, -5.19666867e-03,  3.56860925e-03, ...,
          -1.09293377e-02,  3.42713296e-02,  1.66454762e-02]],

        [[ 1.62184816e-02, -3.60815860e-02,  4.07017507e-02, ...,
           3.45708095e-02, -2.59411167e-02, -1.73629895e-02],
         [ 4.79370449e-03,  3.00158411e-02,  1.34778144e-02, ...,
           1.01297423e-02,  3.68908159e-02, -3.16398665e-02],
         [-2.87672766e-02, -2.71676527e-03, -2.32735854e-02, ...,
           4.01787423e-02, -2.90833935e-02,  9.48771555e-03],
         ...,
         [-3.94484447e-03, -3.91850695e-02,  2.39632744e-02, ...,
           3.63869518e-02,  4.07780111e-02,  3.13628465e-02],
         [ 1.93234123e-02, -1.65085476e-02,  2.85177049e-03, ...,
           1.02396924e-02,  4.32885848e-02, -1.93944797e-02],
         [ 4.64934260e-02,  4.57914397e-02,  3.28863002e-02, ...,
          -5.35967126e-02, -3.17839161e-02,  2.57757269e-02]]],


       [[[ 2.53812391e-02, -4.21659574e-02,  2.34997161e-02, ...,
           7.33149180e-04, -3.47054750e-02,  2.52013132e-02],
         [ 3.38615738e-02,  2.29090564e-02,  6.18097326e-03, ...,
          -8.40529054e-03,  3.52206938e-02,  9.34523437e-03],
         [ 2.76850518e-02, -2.10827067e-02, -4.16154750e-02, ...,
          -4.45235409e-02, -2.11641993e-02, -7.99025467e-04],
         ...,
         [-8.49926192e-03, -1.35956006e-02,  1.64250843e-02, ...,
          -4.17507160e-03, -1.14864670e-03,  1.95865799e-02],
         [ 6.37889979e-03, -9.52330232e-03, -1.78315844e-02, ...,
          -5.46419900e-03, -3.06243589e-03, -1.61752384e-02],
         [-2.77552288e-02, -1.25392396e-02, -3.25721912e-02, ...,
          -2.93189064e-02, -2.91206185e-02, -3.77892889e-02]],

        [[-5.36623783e-03,  2.27687415e-02,  9.04775807e-04, ...,
          -9.63267230e-04, -1.04349740e-02, -3.11319679e-02],
         [ 5.56827858e-02, -4.64492589e-02, -3.16299647e-02, ...,
          -1.23019535e-02, -1.06511610e-02, -6.25035819e-03],
         [ 4.17039916e-02, -1.55023364e-02, -7.86607154e-03, ...,
          -1.79380495e-02, -2.49548466e-03, -2.89105414e-03],
         ...,
         [ 2.57415697e-02,  1.41445063e-02, -5.14753815e-03, ...,
           4.35510688e-02,  4.41893935e-02,  2.24396661e-02],
         [-1.21124210e-02, -5.59917465e-03, -1.76151656e-02, ...,
           2.34019477e-02, -2.04036962e-02,  5.57202939e-03],
         [ 1.39465258e-02, -2.13159416e-02, -2.21885159e-03, ...,
          -9.95126832e-03, -3.77502665e-02,  3.86451147e-02]],

        [[-1.44665334e-02,  3.55667807e-02, -1.39052253e-02, ...,
           2.12086197e-02,  4.42125984e-02,  1.89600494e-02],
         [ 4.34089936e-02, -4.86357324e-03,  2.26366147e-02, ...,
           1.57967210e-02,  2.21919604e-02, -8.20101611e-03],
         [ 8.30519479e-03,  8.43060762e-03, -4.49794531e-02, ...,
          -3.79840583e-02, -1.76432673e-02,  1.78579148e-02],
         ...,
         [-2.62261350e-02, -2.21748315e-02,  4.98658270e-02, ...,
           1.33434776e-02,  4.53234352e-02, -8.68724252e-04],
         [ 4.65574935e-02, -7.75173400e-03,  9.71155614e-03, ...,
          -1.50263757e-02, -2.54436117e-02, -1.78293120e-02],
         [ 1.08872270e-02, -3.97360101e-02, -8.64471402e-03, ...,
          -4.33135182e-02, -3.94369960e-02, -6.78661745e-03]],

        [[-2.50956342e-02,  3.00152637e-02,  1.66258181e-03, ...,
          -2.26816349e-02,  9.42771614e-04,  2.72307713e-02],
         [-9.40792845e-04, -4.27123792e-02, -2.08234638e-02, ...,
          -9.53172520e-03,  1.83244143e-02, -3.44465971e-02],
         [-2.34077144e-02,  2.98097096e-02, -3.25513221e-02, ...,
           6.01322914e-04, -4.02015150e-02, -3.75401489e-02],
         ...,
         [-2.06462238e-02, -3.58984768e-02,  3.08392085e-02, ...,
           5.83878383e-02,  4.18326966e-02, -4.52301028e-04],
         [ 3.58584191e-04,  3.64748649e-02, -1.20312693e-02, ...,
           6.66119233e-02,  1.61203630e-02,  5.00279739e-02],
         [-1.71501897e-02, -3.52025069e-02, -3.65772806e-02, ...,
          -1.97260790e-02,  3.57246445e-03,  3.93851027e-02]],

        [[-4.74122502e-02,  2.43461169e-02, -1.55325150e-02, ...,
          -2.21766345e-02,  4.32722606e-02,  1.20743643e-02],
         [ 3.23615819e-02,  1.05162924e-02, -5.80705255e-02, ...,
           3.74777317e-02, -6.43426413e-03, -3.92169412e-03],
         [-2.02664156e-02,  1.87051781e-02,  3.86858429e-03, ...,
           5.41220745e-03,  2.71510910e-02,  1.74929183e-02],
         ...,
         [ 9.54838376e-03, -3.70161235e-02,  2.76984251e-03, ...,
           7.16186911e-02, -1.67456958e-02, -2.33113263e-02],
         [ 1.92013057e-03,  1.81418825e-02, -5.69945294e-03, ...,
           4.23044749e-02, -4.74774651e-03,  5.62595241e-02],
         [ 3.39858495e-02,  4.65658270e-02, -7.86718726e-03, ...,
          -4.38667573e-02, -5.94290206e-03, -3.42334807e-02]]],


       [[[-1.69359520e-02, -1.41078122e-02, -4.24796455e-02, ...,
          -5.01941377e-03, -9.95960832e-03,  2.39227172e-02],
         [-4.70122546e-02, -1.99712645e-02,  2.21378058e-02, ...,
          -8.70241690e-03, -4.00174260e-02,  3.97666693e-02],
         [-5.40718623e-02, -1.18489107e-02,  3.69237848e-02, ...,
          -3.95734645e-02, -1.03403516e-02, -2.33284812e-02],
         ...,
         [-1.33192511e-02, -8.45575985e-03,  3.93918622e-03, ...,
          -1.98361441e-03, -3.54687274e-02,  3.51073034e-02],
         [ 2.70131771e-02, -1.51715921e-02,  3.75618041e-02, ...,
          -2.97402553e-02,  2.00876072e-02,  1.65267438e-02],
         [-3.14956740e-03,  1.95201244e-02, -5.07644909e-05, ...,
           7.23571843e-03,  3.68422046e-02, -2.87525933e-02]],

        [[ 4.47549298e-03,  1.69680547e-03,  9.25195776e-03, ...,
           2.69938856e-02,  1.80334635e-02, -5.62926792e-02],
         [-2.53609139e-02, -1.34148663e-02, -3.31320427e-02, ...,
           2.90797446e-02, -3.35077494e-02,  2.16371398e-02],
         [-2.61330162e-03,  3.51957008e-02,  5.77404862e-03, ...,
           9.43759456e-03,  3.75986546e-02, -1.71522442e-02],
         ...,
         [ 4.13794070e-02,  3.07887290e-02,  1.68592818e-02, ...,
           3.50585058e-02, -3.73999268e-04, -2.02683527e-02],
         [ 1.22239152e-02,  3.73262390e-02,  5.53303957e-02, ...,
          -3.66765931e-02,  3.83034758e-02,  5.66286733e-03],
         [-2.48954166e-02, -1.52290687e-02, -1.80134103e-02, ...,
          -8.89674108e-03,  2.74348147e-02, -6.53599110e-03]],

        [[ 2.79342588e-02,  1.57588609e-02,  1.53525807e-02, ...,
           2.91094724e-02,  7.87306484e-03, -9.79058444e-03],
         [ 1.42099541e-02,  3.57968509e-02,  1.31099802e-02, ...,
          -3.53892557e-02, -1.84422117e-02,  1.36615597e-02],
         [ 3.60116065e-02,  2.32751984e-02, -6.21223706e-04, ...,
           3.33156474e-02, -1.08788814e-02, -1.34883681e-02],
         ...,
         [-3.24516296e-02, -1.33018130e-02,  5.76483496e-02, ...,
           5.00623928e-03,  4.29962836e-02, -2.03976575e-02],
         [-3.80281955e-02, -3.40726264e-02,  5.09492271e-02, ...,
          -2.11066753e-02, -3.55255306e-02, -2.10138001e-02],
         [-2.92422473e-02, -5.79895545e-03, -1.38226682e-02, ...,
           2.07293238e-02,  3.12311929e-02,  1.98157635e-02]],

        [[ 2.51619890e-02,  1.20129986e-02,  1.72636230e-02, ...,
           3.11270333e-03, -4.37690206e-02,  2.48526875e-03],
         [ 2.27743052e-02,  5.38927177e-03, -2.20224876e-02, ...,
          -3.62890810e-02,  2.75147855e-02, -2.99761035e-02],
         [-1.65473390e-02,  3.00767161e-02, -4.22706455e-02, ...,
          -2.15499997e-02, -7.05249840e-03,  2.30699256e-02],
         ...,
         [ 5.28866518e-03, -3.70281972e-02, -5.32590784e-03, ...,
           4.76149395e-02, -2.70773377e-02,  1.06619038e-02],
         [ 1.23646678e-02,  1.01114875e-02,  1.83733031e-02, ...,
           6.77973405e-03, -3.32829878e-02,  3.78533192e-02],
         [ 4.69465218e-02, -2.27914061e-02,  1.78773683e-02, ...,
          -3.97738069e-02,  7.07234198e-04, -1.22543601e-02]],

        [[-1.84966046e-02, -1.32722445e-02, -1.66735947e-02, ...,
          -2.49093380e-02, -3.89298461e-02,  9.89339221e-03],
         [-1.43342400e-02, -2.30287407e-02, -4.75139767e-02, ...,
           2.21111663e-02,  2.00832393e-02,  3.65985595e-02],
         [ 3.82578000e-02,  1.93568449e-02, -3.09652910e-02, ...,
          -9.92331002e-03,  1.43458676e-02,  2.12549381e-02],
         ...,
         [-3.91535424e-02,  2.22189985e-02,  2.34013479e-02, ...,
           2.76116692e-02, -2.88494863e-02,  3.77454385e-02],
         [ 2.15332359e-02, -2.95117777e-02,  1.59412697e-02, ...,
           2.89589800e-02,  1.53957577e-02,  5.14608982e-04],
         [ 1.48410266e-02,  4.07179445e-02,  3.78721021e-02, ...,
          -1.00588165e-02, -2.89504938e-02, -3.27518769e-02]]],


       [[[ 4.32984270e-02, -2.76701562e-02,  2.35292055e-02, ...,
          -3.06944102e-02,  2.86502577e-02, -1.78339630e-02],
         [ 6.02490269e-03, -1.73612367e-02, -1.84801705e-02, ...,
          -4.44805622e-02,  4.01171949e-03,  8.99073295e-03],
         [ 2.29088776e-02, -1.02923030e-03, -3.46991643e-02, ...,
           1.00244870e-02,  3.11863758e-02, -6.24350179e-03],
         ...,
         [ 1.69840711e-03,  4.79478575e-02,  9.50413849e-03, ...,
          -2.09046528e-02, -3.15874107e-02, -2.10670251e-02],
         [-2.97038201e-02,  5.98067492e-02,  2.91128997e-02, ...,
           2.37927232e-02,  3.13104428e-02, -2.64554415e-02],
         [-1.21602379e-02, -4.69880318e-03,  3.37754413e-02, ...,
           1.25051709e-02,  3.73352543e-02,  2.91597098e-03]],

        [[ 2.84586959e-02,  1.93736479e-02,  2.34242138e-02, ...,
           1.83341410e-02,  1.90873176e-03,  2.44712550e-02],
         [-1.97975375e-02,  4.69558239e-02, -6.10738574e-03, ...,
           1.13955634e-02,  2.28298847e-02,  1.68303847e-02],
         [-4.41633612e-02,  3.48426066e-02,  3.65883149e-02, ...,
           4.00063246e-02, -3.23266201e-02,  2.75261011e-02],
         ...,
         [-3.65976654e-02,  5.07627092e-02,  4.88431454e-02, ...,
           1.86363980e-02,  4.52342294e-02,  3.12481597e-02],
         [ 2.30519399e-02,  1.58052668e-02, -2.31708810e-02, ...,
           2.21037194e-02, -1.42573118e-02, -2.80956998e-02],
         [ 3.30073014e-02, -1.89931374e-02,  2.18739957e-02, ...,
          -3.40123884e-02, -3.50818783e-02,  2.90236324e-02]],

        [[ 1.71966311e-02, -2.42223553e-02,  3.52141773e-03, ...,
          -3.69493403e-02, -2.48562149e-03, -1.51614565e-03],
         [-1.43694542e-02,  5.33300973e-02,  2.90849898e-02, ...,
          -6.26649708e-03, -1.19268512e-02,  1.02392421e-03],
         [ 1.18755754e-02,  1.68131702e-02, -1.48133766e-02, ...,
          -6.56145019e-03, -2.82230936e-02,  1.95067469e-02],
         ...,
         [ 3.76535952e-02,  7.93460011e-03, -1.60366185e-02, ...,
          -1.20743616e-02, -2.06737723e-02, -1.61062907e-02],
         [ 3.62483189e-02,  1.12734102e-02,  9.77510866e-03, ...,
          -2.35873982e-02,  3.96231525e-02, -4.37152013e-02],
         [ 3.68819310e-05, -1.81347039e-02, -1.69746969e-02, ...,
          -2.68318150e-02, -4.95313900e-03, -2.81107277e-02]],

        [[-4.08315919e-02, -5.18575730e-03, -1.54782990e-02, ...,
          -1.05980886e-02,  1.79789716e-03,  1.68582983e-02],
         [ 3.79090831e-02,  6.32084813e-03, -1.60687009e-03, ...,
           1.08927267e-03, -2.35585030e-02,  4.34513856e-03],
         [-6.53054286e-03, -9.56047792e-03,  3.57452445e-02, ...,
          -2.44441554e-02,  2.84218099e-02,  1.58212930e-02],
         ...,
         [ 1.28883058e-02, -4.12035361e-02,  4.56613638e-02, ...,
           2.05351748e-02,  9.27485432e-03, -2.01503113e-02],
         [ 1.64566804e-02, -1.37859490e-02, -3.06446720e-02, ...,
           4.69623543e-02, -5.06496280e-02, -2.21973797e-03],
         [ 2.09744903e-03,  8.31338204e-03, -3.34119536e-02, ...,
          -4.59465645e-02, -2.61656996e-02,  3.05186044e-02]],

        [[-4.55889851e-03, -2.32172552e-02, -3.27038392e-02, ...,
           4.86875474e-02, -4.59988369e-03,  1.98149346e-02],
         [ 9.45216976e-03,  2.79723965e-02, -2.90607344e-02, ...,
          -1.42998835e-02,  2.01272313e-02,  1.76842548e-02],
         [ 7.52972299e-03, -1.92810353e-02,  1.56658683e-02, ...,
           3.96203771e-02, -2.02199202e-02, -4.67308378e-03],
         ...,
         [ 3.49456444e-02, -5.68314129e-03,  6.67858589e-03, ...,
           5.37865944e-02, -2.29903236e-02, -8.75172298e-03],
         [-2.50931662e-02, -2.64727380e-02,  9.62280016e-03, ...,
           2.41771024e-02,  2.42656246e-02,  5.15566915e-02],
         [ 1.16958078e-02, -4.11712304e-02, -6.93636900e-03, ...,
          -5.27327210e-02, -3.54291759e-02,  6.90227281e-03]]],


       [[[ 1.71249323e-02, -7.61776697e-03, -1.80664193e-02, ...,
           1.96738285e-03, -3.20795327e-02, -3.38799953e-02],
         [ 1.50326462e-02, -4.45025638e-02, -3.78127433e-02, ...,
           2.28849985e-02,  2.00806037e-02,  4.74448837e-02],
         [ 7.33787566e-03, -1.02256518e-02, -5.17748296e-02, ...,
          -2.08793581e-02,  6.31741714e-03, -2.58318521e-02],
         ...,
         [ 2.53345259e-02,  2.69291755e-02, -2.35950109e-02, ...,
          -4.48865406e-02, -3.63652990e-03, -2.11655740e-02],
         [-3.62380943e-03,  3.93256322e-02, -1.45222833e-02, ...,
          -2.60400008e-02, -1.24347024e-02, -2.43570865e-03],
         [-4.80249710e-03,  2.75542382e-02, -6.85047684e-03, ...,
           1.02747418e-02,  2.31162217e-02, -7.47563364e-03]],

        [[ 2.71935444e-02,  9.02438257e-03, -2.63664592e-02, ...,
          -4.15959656e-02,  4.69563454e-02, -2.61534285e-02],
         [ 7.78419618e-03, -2.40210313e-02, -9.56023857e-03, ...,
          -3.38621587e-02, -1.91311282e-03,  6.62164902e-03],
         [-4.45510931e-02, -1.42377829e-02, -2.62395758e-02, ...,
          -2.64519844e-02, -1.12068197e-02,  9.76176932e-03],
         ...,
         [ 2.89533753e-02,  3.53407040e-02,  1.73359476e-02, ...,
          -2.98546478e-02, -1.17303589e-02, -1.18469493e-02],
         [-4.17954735e-02,  3.25154439e-02, -1.64582413e-02, ...,
           2.81016342e-02,  3.99450287e-02, -1.57573689e-02],
         [ 1.79947391e-02,  1.41776670e-02, -4.53000031e-02, ...,
           8.89620185e-03,  3.26252431e-02, -1.98792890e-02]],

        [[ 3.49661969e-02,  4.03268300e-02,  2.58806776e-02, ...,
          -1.71756223e-02,  2.59058494e-02, -3.78098562e-02],
         [-2.95976596e-03,  1.28070218e-03,  2.78578177e-02, ...,
          -6.12565898e-04,  1.13938954e-02,  2.75029000e-02],
         [-6.84271974e-04,  1.37822879e-02,  2.46238206e-02, ...,
           2.52239611e-02, -1.58260055e-02,  1.88200381e-02],
         ...,
         [ 2.38816701e-02,  3.80509347e-02, -3.48821678e-03, ...,
           2.40735691e-02, -3.03352531e-02, -3.11501138e-02],
         [ 9.29177331e-04,  3.35331447e-02,  2.81969793e-02, ...,
           2.28422415e-02,  2.58989520e-02,  1.67481042e-02],
         [-2.08492111e-02,  1.56427287e-02, -3.75460833e-02, ...,
          -3.74663770e-02, -3.77680175e-02, -1.01159215e-02]],

        [[ 2.71533206e-02,  1.06555386e-03, -1.03552053e-02, ...,
           1.61027852e-02,  3.96767296e-02, -1.24148959e-02],
         [-7.17628514e-03, -1.82164889e-02,  1.70758758e-02, ...,
           4.55818549e-02,  1.48657048e-02, -3.14368904e-02],
         [ 2.35222433e-05,  1.55959204e-02,  4.45268042e-02, ...,
           1.92200374e-02,  3.80605496e-02, -2.69741900e-02],
         ...,
         [ 2.33272985e-02,  1.32927718e-02,  2.27530561e-02, ...,
           5.09996340e-02, -1.50915785e-02,  2.40901429e-02],
         [ 7.19144475e-03,  1.59018468e-02, -1.61102396e-02, ...,
          -2.10827049e-02,  1.70039982e-02,  1.08897043e-02],
         [-3.84997204e-02,  1.80923603e-02, -2.02371497e-02, ...,
          -4.38511111e-02,  1.67313796e-02,  2.60797539e-03]],

        [[ 3.28824148e-02, -2.25784983e-02,  1.23996381e-03, ...,
           2.25056447e-02, -1.70583185e-02,  3.20259556e-02],
         [-4.52328660e-02,  1.14472071e-02, -5.51473070e-03, ...,
           2.19079629e-02,  4.03214656e-02,  2.68769655e-02],
         [-6.89820424e-02, -3.95967066e-02,  2.44024266e-02, ...,
           2.29009409e-02,  1.81603599e-02, -3.24512012e-02],
         ...,
         [ 3.53227518e-02,  7.02256616e-03, -8.94394983e-03, ...,
           2.11790446e-02, -1.92458089e-02, -3.75342518e-02],
         [-2.30205692e-02, -2.11822875e-02, -1.79302711e-02, ...,
          -1.43604155e-03, -1.75163709e-02, -4.98873014e-05],
         [ 4.15539928e-02, -3.97549979e-02,  3.98746394e-02, ...,
          -1.27745839e-02, -3.41142863e-02,  3.11472733e-03]]]],
      dtype=float32), array([ 3.1925815e-03,  6.2592020e-03,  3.8406760e-02, -1.9649398e-03,
        1.1024601e-02, -5.3864373e-03,  1.1736506e-03,  3.1070984e-03,
        1.4098846e-02,  5.7712924e-03,  6.9499360e-03, -2.0998323e-03,
        4.0521543e-03, -6.3922596e-03, -4.0711146e-02, -4.0718049e-02,
       -2.0671601e-03, -4.6150675e-03,  9.9829771e-03,  2.4473856e-03,
        7.6910234e-03,  9.5399758e-03,  2.2324948e-02, -1.0671372e-02,
       -1.8524386e-03, -2.8665731e-02, -7.6020992e-04, -1.9486424e-03,
       -9.7354979e-04, -1.2559421e-02, -2.0196911e-02, -1.8341189e-02,
       -1.1841959e-03,  6.4951340e-03, -1.2698591e-03,  5.4361625e-03,
        1.6312891e-03,  6.6351010e-03, -3.0329900e-02,  4.3603171e-02,
        4.1834670e-03, -4.2640708e-02,  1.8751480e-02,  3.6565316e-04,
       -1.1796913e-02, -3.4832486e-03, -2.0834170e-02,  1.3136152e-03,
       -1.2047195e-02,  2.8955653e-02,  2.4103075e-02,  1.4326870e-02,
       -3.0319951e-02, -7.2076395e-03, -2.8009240e-03,  2.4140513e-02,
       -3.1911533e-02, -8.2038129e-03,  1.3682480e-03,  1.4393738e-02,
       -9.7640380e-03,  4.9541518e-03, -1.6157929e-02,  4.5708764e-02,
       -2.9637152e-02, -1.1023255e-02,  2.8392598e-05, -1.8097904e-02,
       -3.2054007e-02,  1.2558805e-03, -5.2704583e-03,  1.3346415e-03,
        8.2645519e-03,  1.7182320e-02, -2.1029878e-02,  5.0447099e-03,
       -1.3564435e-02,  1.7076014e-03,  1.9524954e-02,  6.8782326e-03,
        1.5147162e-02,  2.4180204e-02,  1.0533503e-02,  3.8086064e-02,
        2.3643844e-02,  1.5381599e-02, -5.1681935e-03, -6.1844592e-03,
       -1.8979434e-03,  7.9435820e-04,  1.0177592e-03,  5.4540192e-03,
        2.5403604e-02, -1.1864752e-02,  3.1666656e-03,  8.7080179e-03,
        8.3192680e-03, -1.1018888e-02, -1.6653460e-02,  9.6837841e-03,
        5.4263887e-03,  6.8651931e-03, -5.0925985e-03,  8.5089961e-03,
       -1.1861503e-02, -1.4917737e-02,  2.2327323e-02,  6.7031744e-04,
       -2.9423507e-03, -2.9121051e-02, -2.4553647e-03,  1.1016829e-02,
       -1.8391844e-03,  1.2463811e-02, -1.0481831e-02, -1.3648799e-02,
       -1.1021593e-02,  2.8170835e-02, -2.7473229e-03, -1.8879384e-02],
      dtype=float32)]
[]
[array([[ 0.00676514,  0.02844563, -0.01548972, ...,  0.03009162,
        -0.01648104,  0.00338055],
       [ 0.00891056, -0.00821028, -0.03417547, ..., -0.02320843,
         0.00837493, -0.01569979],
       [-0.01273329,  0.03347819, -0.03198452, ..., -0.00597569,
        -0.00463428,  0.01966027],
       ...,
       [-0.02774365,  0.00284425, -0.00626602, ...,  0.01235239,
         0.00393279, -0.02651754],
       [ 0.01012062,  0.0145047 ,  0.02166042, ..., -0.03539615,
        -0.02427752,  0.01072879],
       [ 0.02239518, -0.00748199, -0.02573479, ..., -0.02218683,
        -0.03012127, -0.0226498 ]], dtype=float32), array([ 0.01879374,  0.00524454,  0.01179434,  0.02074337,  0.00436891,
        0.02681134, -0.01279127,  0.00466621,  0.00113412,  0.00862225,
       -0.00871987,  0.03008888,  0.00989113, -0.00446702, -0.01808928,
        0.01264127,  0.02308904,  0.01184101, -0.00582899, -0.00324443,
       -0.00566283,  0.02337969, -0.00413562,  0.01132029,  0.01834811,
       -0.00166416,  0.02244947, -0.0091419 ,  0.02125238,  0.00870873,
       -0.00546252,  0.0003564 ,  0.02291144,  0.00648636, -0.00052055,
        0.01923613, -0.00748242,  0.0035356 , -0.00292428,  0.00077526,
       -0.0046792 , -0.00100802,  0.0058992 ,  0.00993893, -0.00051069,
        0.0034168 , -0.03020545,  0.01247661, -0.00098223,  0.00288767,
       -0.01014428, -0.01741833,  0.00377948, -0.01393041,  0.00065538,
        0.00203262,  0.02107971,  0.00583051, -0.01508279, -0.00576163,
        0.00439837,  0.00804881, -0.00319133, -0.01335945, -0.01673787,
        0.00570858, -0.01196225,  0.01582954, -0.00408232, -0.00663207,
       -0.0166327 ,  0.00320802,  0.00126838,  0.00773089,  0.00674298,
        0.00877057, -0.00925497, -0.01235665,  0.00792456,  0.01030031,
        0.00803501, -0.00787364,  0.00866582, -0.02399125], dtype=float32)]
[array([[ 0.21670537, -0.10265057, -0.06263199, -0.17969082, -0.26850578,
         0.3424227 , -0.22280456, -0.0503668 ,  0.08875684, -0.21055526],
       [ 0.01545561,  0.27655736, -0.13489266,  0.22867809, -0.2416372 ,
         0.06120873,  0.31974295,  0.20522314,  0.10858272, -0.15915556],
       [ 0.13076536,  0.118057  ,  0.32145804,  0.16613342, -0.20607103,
         0.04483438, -0.1252521 ,  0.22736613, -0.15367918, -0.09115474],
       [ 0.14757687,  0.02512433,  0.14332329,  0.11436317, -0.17023213,
         0.24559097, -0.17270268,  0.05718785, -0.33800793, -0.2719844 ],
       [-0.30314714, -0.14962369,  0.29357696,  0.22659162,  0.22777732,
         0.12830193, -0.11964985,  0.0069784 ,  0.10972884,  0.13214329],
       [-0.07988467, -0.2534314 ,  0.00903144,  0.26383427, -0.32917485,
         0.21371196,  0.21785249,  0.2775553 , -0.17520185, -0.28789872],
       [-0.17353572,  0.282632  , -0.17799656, -0.30134088,  0.05128073,
        -0.08092014,  0.00538265, -0.12271998, -0.03113277, -0.09140063],
       [ 0.01549273,  0.20455267, -0.00242479, -0.3373938 , -0.07694476,
         0.17458026,  0.04645507,  0.2228455 ,  0.3344458 , -0.11154874],
       [-0.04023829,  0.1658333 , -0.0747344 , -0.09862592, -0.14249308,
        -0.05938527, -0.3112524 , -0.19407235,  0.02986393,  0.08848973],
       [ 0.25913808,  0.07362399,  0.08498415, -0.0035924 , -0.27519712,
        -0.04829544, -0.16424412,  0.10785639, -0.11337316, -0.14952193],
       [ 0.02632498,  0.15588912, -0.12621897,  0.00051966,  0.27283093,
        -0.11613727,  0.22998804,  0.04363563,  0.21159877, -0.09225925],
       [-0.06771996, -0.21370788,  0.01553635, -0.07849661, -0.01287563,
         0.36599287, -0.19916436,  0.29985493, -0.19596612, -0.2993375 ],
       [ 0.24151288, -0.26259816, -0.14921091,  0.01084086,  0.05478319,
         0.23853905,  0.25101304, -0.07915999, -0.32174352,  0.05539642],
       [-0.15526089,  0.10378281,  0.10784997, -0.29488108,  0.30103105,
         0.00989354,  0.20494257, -0.30360344,  0.1799348 , -0.21609718],
       [-0.01155962,  0.19141576, -0.34286153,  0.2260565 ,  0.2848577 ,
         0.21055861, -0.1230791 , -0.30039543,  0.1209612 ,  0.12980516],
       [ 0.03122984, -0.27872047, -0.07571226,  0.25489685,  0.10147103,
         0.3280892 , -0.06306115, -0.34984803, -0.03041996,  0.00554345],
       [ 0.03013872, -0.12759145,  0.15389909,  0.24903007,  0.18198565,
         0.06142477, -0.3077584 ,  0.14977665, -0.20441116, -0.29423878],
       [-0.02887831,  0.04382018,  0.15718158,  0.21898912, -0.12950273,
         0.03017856, -0.34749174,  0.2582493 ,  0.07844739, -0.00225744],
       [ 0.3088282 , -0.24001727,  0.21983396,  0.00463563,  0.05712401,
        -0.25214195, -0.03323554,  0.12459956, -0.07499335,  0.13952686],
       [ 0.08265174,  0.007654  , -0.2104068 , -0.07437143,  0.06778451,
        -0.07861487, -0.35415533,  0.11980438,  0.24770215,  0.17468472],
       [ 0.15862486,  0.20788983,  0.15509908,  0.1443978 , -0.13262399,
        -0.22544882,  0.13358067, -0.10259463,  0.2446674 , -0.10505719],
       [-0.06536042, -0.05359458,  0.02402096,  0.02240089, -0.31854635,
         0.2778809 ,  0.06249206, -0.1219361 , -0.22407298, -0.19416891],
       [-0.01049807,  0.28564352, -0.37508398,  0.27498755, -0.00436045,
         0.17949875,  0.0045231 ,  0.22301139, -0.03359124,  0.28555998],
       [-0.07473066, -0.19364055,  0.29699498, -0.00452753, -0.25682846,
        -0.00703813, -0.04699659, -0.31057099, -0.02568282,  0.032218  ],
       [-0.02348022, -0.146887  ,  0.23128997, -0.01538792,  0.13030724,
         0.24982911, -0.01520242,  0.17049119, -0.05208494, -0.18940282],
       [-0.09561539, -0.25919586,  0.17117558, -0.16903508, -0.1511352 ,
         0.17836253,  0.26541436, -0.22338428,  0.3034183 ,  0.20769922],
       [ 0.16823961,  0.23061073,  0.15813164,  0.06712902, -0.2343257 ,
         0.27817532, -0.24524258, -0.20084779,  0.0761643 , -0.09143161],
       [ 0.07774045, -0.04298536,  0.14758454, -0.26544997,  0.05832879,
        -0.23589084,  0.32227173, -0.22653879, -0.03179646,  0.1297358 ],
       [-0.28997317,  0.13262285,  0.33005893,  0.21202981, -0.06254818,
         0.06830757, -0.09204508,  0.2318076 , -0.11214066, -0.11157914],
       [ 0.29891717,  0.02471623, -0.25946695,  0.03431023, -0.14968532,
         0.24699616, -0.01433426,  0.29689687,  0.05173707, -0.23226455],
       [-0.13529147, -0.24365541, -0.05953066, -0.0757135 ,  0.19142435,
        -0.01167153, -0.18503104,  0.08155434,  0.03974284, -0.09264725],
       [ 0.25462526, -0.04513723, -0.30529273, -0.02257396,  0.29466888,
         0.21285276,  0.27045605,  0.2383696 , -0.16164248, -0.04905516],
       [-0.2664225 ,  0.05251271,  0.20027502, -0.07537924, -0.02905849,
         0.31977054, -0.32480595,  0.2579805 ,  0.05962555,  0.0029639 ],
       [ 0.07322229,  0.06271546, -0.11678963, -0.23952831, -0.08848815,
         0.18382412, -0.05508984, -0.13054173, -0.05289196,  0.28334036],
       [ 0.2661771 ,  0.26597983,  0.01500825,  0.11114665, -0.30436835,
        -0.19825302,  0.26129064,  0.0589557 , -0.02339575, -0.11837747],
       [ 0.17179993,  0.08529922, -0.09743399,  0.30605745, -0.13463429,
         0.23936848,  0.23017952, -0.02102598,  0.00473267, -0.22168617],
       [ 0.03189889, -0.2963417 ,  0.01358151,  0.10527474,  0.14630044,
        -0.15189432,  0.07720306, -0.13678943,  0.00719264,  0.11077048],
       [-0.22871974, -0.15862979,  0.29430974, -0.10578832,  0.28807586,
        -0.07270986, -0.05851374, -0.04191438, -0.12619486, -0.15519759],
       [ 0.12416551,  0.22822282, -0.28189003,  0.11956201, -0.30056104,
        -0.26437256, -0.29032707,  0.19601023,  0.18592764,  0.13797079],
       [ 0.04871702,  0.18879403,  0.07326049, -0.09160883, -0.09861121,
        -0.14471649,  0.2346622 ,  0.12652597, -0.03585255, -0.3248031 ],
       [ 0.15122607,  0.17904218, -0.1509085 , -0.00396801,  0.2568355 ,
        -0.2671866 , -0.14093864,  0.19057184, -0.03438457, -0.34430304],
       [ 0.16193141, -0.26708353, -0.02233805,  0.2570087 , -0.01264341,
        -0.06068463, -0.32895938,  0.32362273,  0.29049963,  0.05162059],
       [ 0.10759979,  0.1334639 , -0.0915499 ,  0.26391426,  0.08218232,
        -0.23567043, -0.02515301,  0.06060323, -0.32721055, -0.06932084],
       [-0.20908204,  0.1583896 ,  0.04448173, -0.19442356,  0.14933586,
         0.02506977, -0.11195297,  0.32463387, -0.26471597, -0.17555721],
       [-0.23141617,  0.25913817,  0.18189654, -0.07485079,  0.04558674,
        -0.17629978,  0.11255352, -0.13869901, -0.28269035,  0.21392985],
       [-0.2842444 ,  0.1943655 , -0.04197753,  0.29474986,  0.18964468,
         0.18068658,  0.15402322,  0.04120598, -0.07537073,  0.16235591],
       [ 0.07606942,  0.24454081, -0.1466067 ,  0.27539098,  0.31650275,
        -0.27879238,  0.10584991,  0.14723797,  0.05509935,  0.20345663],
       [-0.03012737, -0.07800608,  0.29734454,  0.06131026, -0.2196469 ,
         0.0187243 , -0.017123  ,  0.09491897, -0.29839557,  0.31351373],
       [ 0.19433434,  0.21197695, -0.34149253, -0.07822815,  0.00457031,
         0.2211696 , -0.2058357 ,  0.04683796, -0.02534658,  0.26077008],
       [ 0.05246238, -0.27171022,  0.08893962,  0.03809997,  0.07834681,
        -0.00817786, -0.08455665, -0.27875754, -0.30919564, -0.0763801 ],
       [-0.12005989,  0.31227523, -0.22682336,  0.14072436,  0.02256441,
        -0.03343355,  0.05811678, -0.08655304,  0.09633303, -0.2294924 ],
       [-0.06856278,  0.2107223 , -0.26265284, -0.30324122,  0.01773413,
        -0.02420356,  0.25082085, -0.25797468, -0.25462136,  0.2550909 ],
       [-0.11967073,  0.03437432,  0.27938148,  0.05432857, -0.16815709,
         0.10903047,  0.34066692, -0.14935073,  0.02524491, -0.04553789],
       [ 0.07576378, -0.07830916, -0.2838134 , -0.24103181,  0.20111875,
        -0.07610277,  0.24017838,  0.03859634, -0.0783045 ,  0.26318187],
       [ 0.08964928,  0.25894967, -0.2997286 , -0.26989663,  0.17697594,
         0.07760429,  0.08199672, -0.00871591, -0.11141241,  0.19811691],
       [-0.18965372,  0.19696939,  0.20220758,  0.0289363 ,  0.20956583,
         0.17326693,  0.18989746, -0.14895685, -0.26119447,  0.2335922 ],
       [-0.04563831,  0.23602587, -0.03789589, -0.15342917, -0.14157137,
         0.35871366,  0.12974618, -0.2870464 , -0.06120545, -0.3055253 ],
       [-0.2703776 , -0.28894773, -0.29642162,  0.08573571,  0.01133529,
         0.24166808,  0.00974258,  0.1378312 , -0.13996543,  0.24146377],
       [ 0.05407702, -0.08374968, -0.0327658 ,  0.19037764, -0.13833511,
        -0.07991958, -0.02677492, -0.19496077,  0.3006266 ,  0.3191896 ],
       [-0.01613361,  0.12587816,  0.18718044,  0.07105485,  0.01872757,
        -0.0646588 , -0.2809377 , -0.30286974,  0.10974414, -0.07785021],
       [ 0.06565122, -0.26902217, -0.05302298, -0.17056932, -0.10613587,
         0.27241394,  0.08907146,  0.11240972,  0.25358617,  0.19200331],
       [-0.14704588,  0.11256388,  0.16383119,  0.22705892, -0.24110244,
         0.08097374,  0.19577959, -0.04564355,  0.17437322, -0.09432136],
       [ 0.16387253, -0.15757765, -0.03411235, -0.0006881 , -0.06202298,
        -0.07306509,  0.30302984, -0.17277326, -0.04045843, -0.25193456],
       [-0.31878632,  0.11299293, -0.19645055,  0.21826832, -0.05459797,
         0.03694398, -0.04262208, -0.3081724 ,  0.26148263,  0.12920609],
       [-0.07482768,  0.15878117,  0.28932005,  0.16836901, -0.03108799,
        -0.3293198 ,  0.2568014 ,  0.00055085,  0.02372167,  0.09684465],
       [ 0.27069572, -0.01018194, -0.21486832, -0.24168268, -0.03903   ,
         0.2868381 ,  0.09831111, -0.26713642,  0.04571052,  0.29954812],
       [-0.12438042, -0.11036105,  0.08982006,  0.3195786 ,  0.01773976,
        -0.28082177,  0.11482257,  0.1452234 ,  0.31033117, -0.00466137],
       [-0.27735385, -0.00574505, -0.17275175,  0.06836236,  0.24036749,
         0.39297304, -0.14256833, -0.03661661, -0.07733767, -0.05572062],
       [ 0.25008819,  0.15674551,  0.2238019 ,  0.04313596,  0.10486827,
        -0.1859806 ,  0.25643703, -0.29543215, -0.05723919, -0.32634893],
       [ 0.13748062, -0.03860052,  0.20805596, -0.10783619,  0.01450869,
        -0.11454996,  0.00811743, -0.07407799,  0.28242892, -0.29374984],
       [-0.00194894, -0.1738022 , -0.31869486, -0.05900357,  0.10556977,
        -0.16407844,  0.07110573, -0.25554776,  0.19399917,  0.06061631],
       [ 0.27338582, -0.00560812,  0.05748796,  0.05255622, -0.2212781 ,
        -0.15275615, -0.15679735,  0.13382566, -0.1962059 , -0.1904011 ],
       [ 0.04816174,  0.16199273, -0.33027148,  0.21330008, -0.04339394,
         0.21095495, -0.18956983,  0.21399221,  0.08730914,  0.19448066],
       [-0.1496971 ,  0.2120181 ,  0.18373945, -0.04123012, -0.07528562,
         0.00151799, -0.17561588, -0.20001253,  0.10754218, -0.33174178],
       [ 0.0537834 , -0.2695146 , -0.15969163,  0.10778595, -0.07572319,
        -0.01742421, -0.13502824, -0.2810669 , -0.26028255,  0.31191418],
       [-0.24684888,  0.12832583,  0.09551787, -0.07703386,  0.08217681,
        -0.02202114, -0.06624028,  0.31996596, -0.35277325,  0.11243976],
       [-0.29598442, -0.26535955, -0.12549904, -0.00705235, -0.05508426,
        -0.04562359, -0.09458251, -0.16988635, -0.01882067,  0.29776022],
       [ 0.1547501 ,  0.26027384, -0.17441626, -0.19892092,  0.2218159 ,
        -0.12859084,  0.29574686, -0.11122221, -0.00167897, -0.04031028],
       [-0.24597394,  0.30116212,  0.09172309,  0.24573396, -0.18716595,
        -0.1490885 , -0.16919366,  0.22000328, -0.11850922,  0.029396  ],
       [-0.02228772,  0.08565611, -0.27556232,  0.05898564,  0.17531395,
         0.13622275,  0.13483089, -0.27964848, -0.20773369, -0.29170257],
       [ 0.15308873, -0.07475685,  0.19373167,  0.19166072,  0.27396882,
         0.14968818, -0.00647206, -0.2500958 ,  0.05232802, -0.21343082],
       [-0.18084975,  0.26242366,  0.09175553, -0.145857  ,  0.03228292,
        -0.23457925,  0.14706863, -0.02598779, -0.1600513 ,  0.07493412],
       [ 0.03273539, -0.22025484, -0.2742912 ,  0.32819808, -0.31509852,
         0.2597428 ,  0.01608222, -0.27475896, -0.15730129, -0.02345534],
       [-0.03481023,  0.06866812, -0.27464324,  0.03947169, -0.28205812,
        -0.3319974 ,  0.28359696,  0.19048057,  0.0150134 ,  0.22533196]],
      dtype=float32), array([-0.01942429, -0.00241161,  0.04552439,  0.01919184, -0.02995491,
        0.09927413, -0.03886681,  0.01028442, -0.05176002, -0.03185701],
      dtype=float32)]
