tensor([[[ 0.0303, -0.0829,  0.1138,  0.1051,  0.0510],
         [ 0.0027, -0.0343,  0.0456,  0.1398,  0.1172],
         [-0.0270, -0.1988, -0.0756,  0.1170,  0.0736],
         [-0.0310, -0.2304, -0.0049,  0.0793, -0.0520],
         [-0.1348, -0.1266,  0.0768,  0.0919,  0.0305]],

        [[-0.0729, -0.0313, -0.0715, -0.0038,  0.0621],
         [-0.0059,  0.0005, -0.2188, -0.0961, -0.0034],
         [-0.1049, -0.0453, -0.2142, -0.0185,  0.0610],
         [ 0.0227, -0.1620, -0.1370, -0.0291, -0.0578],
         [-0.0251, -0.0181, -0.0561, -0.0346, -0.0173]],

        [[-0.0369,  0.0058,  0.0973,  0.1133, -0.0341],
         [-0.0575,  0.0556, -0.0330, -0.1223,  0.1025],
         [-0.0467,  0.0066, -0.0947, -0.1340,  0.1108],
         [ 0.0252, -0.0179, -0.2486, -0.0869, -0.0030],
         [ 0.0152, -0.1851, -0.1000, -0.1055, -0.0512]],

        [[-0.0110,  0.0720,  0.0746, -0.0727, -0.1559],
         [ 0.1124,  0.0679,  0.1282,  0.0057, -0.0384],
         [ 0.1049,  0.1459,  0.1625,  0.0127, -0.0261],
         [ 0.0634,  0.1876,  0.1076, -0.0159,  0.0251],
         [ 0.1060,  0.1356, -0.0762, -0.0260, -0.0102]],

        [[ 0.0864,  0.0574, -0.0318, -0.0880, -0.0317],
         [ 0.0779,  0.1069, -0.0160, -0.0237,  0.1253],
         [ 0.0366,  0.0652, -0.1745, -0.0324, -0.0116],
         [ 0.0365, -0.1039, -0.1035, -0.0473, -0.0486],
         [-0.0445, -0.1323, -0.0204,  0.0491, -0.0791]],

        [[-0.0457,  0.0512,  0.0243, -0.1301, -0.1582],
         [-0.0795,  0.1015,  0.1556, -0.1067, -0.1591],
         [-0.0472,  0.0817,  0.0836, -0.0191, -0.0041],
         [ 0.0951,  0.1521,  0.0213, -0.0289,  0.0648],
         [-0.0672, -0.0335,  0.0041,  0.0151, -0.0446]]]), Bias: 0.046722300350666046 
tensor([[[ 0.1409,  0.0627, -0.0038, -0.1804, -0.1783],
         [ 0.0367,  0.0419,  0.1906, -0.2147, -0.1954],
         [-0.0470,  0.1798,  0.1162, -0.2116, -0.1905],
         [-0.0529,  0.1268,  0.0519, -0.1582, -0.0596],
         [-0.0134, -0.0115, -0.1270, -0.1962, -0.0838]],

        [[ 0.0770,  0.1550,  0.1122,  0.1458, -0.0773],
         [-0.0243,  0.0431,  0.0793,  0.1832, -0.0121],
         [-0.1562, -0.0305,  0.2846,  0.0859, -0.1500],
         [ 0.0250,  0.1297,  0.2197,  0.0458, -0.0218],
         [ 0.2334,  0.1699,  0.0073, -0.1152, -0.1195]],

        [[ 0.1813,  0.0595,  0.0302, -0.0051,  0.0014],
         [ 0.0452, -0.0091, -0.0342,  0.1003,  0.1767],
         [ 0.0412, -0.0666,  0.0210,  0.1705,  0.0755],
         [-0.1632, -0.1190,  0.1156,  0.2673, -0.0873],
         [-0.1921,  0.0596,  0.1002,  0.0451, -0.1329]],

        [[-0.1701, -0.0483, -0.0449,  0.0222,  0.0271],
         [-0.0661, -0.0236, -0.2339,  0.0420,  0.0585],
         [ 0.0315, -0.1578, -0.2534,  0.0711,  0.1865],
         [-0.0371, -0.1925, -0.0981,  0.1334,  0.1092],
         [-0.1849, -0.1534, -0.0699,  0.1412,  0.0768]],

        [[ 0.0653, -0.0042,  0.0569,  0.0499,  0.0142],
         [-0.0335, -0.0935,  0.0481,  0.1353, -0.0553],
         [-0.0399, -0.1048,  0.2169,  0.1796, -0.1161],
         [-0.0515,  0.1233,  0.1969,  0.1335, -0.0525],
         [-0.0265,  0.1324,  0.1542, -0.0329,  0.0281]],

        [[-0.1216, -0.1200, -0.0354,  0.0997,  0.1707],
         [-0.0247, -0.0749, -0.1496, -0.0109,  0.1063],
         [ 0.1140, -0.0277, -0.1917,  0.1297,  0.1253],
         [-0.0344, -0.1524,  0.0225,  0.1432, -0.0045],
         [-0.1033, -0.0518,  0.1312,  0.0938,  0.1278]]]), Bias: -0.0037892209365963936 
tensor([[[ 0.0649,  0.0173, -0.0852, -0.0550,  0.0914],
         [ 0.0911, -0.0249,  0.0893,  0.0122,  0.0845],
         [ 0.0383,  0.0849,  0.1729,  0.0244,  0.0539],
         [-0.0509, -0.0252, -0.0447,  0.1077,  0.0170],
         [-0.0266, -0.1250, -0.0183,  0.0262, -0.0004]],

        [[ 0.0387,  0.1030, -0.0321,  0.0041,  0.0437],
         [ 0.0764,  0.0956,  0.1483,  0.0769,  0.0517],
         [ 0.0132,  0.0898,  0.1526,  0.1687,  0.1257],
         [ 0.0360, -0.0905,  0.0103, -0.0196,  0.1265],
         [-0.0794, -0.0725, -0.0221, -0.0337, -0.0818]],

        [[-0.0650, -0.0994, -0.0396, -0.0011, -0.0157],
         [-0.0513,  0.0546,  0.0552, -0.1122,  0.0021],
         [ 0.0572,  0.1779,  0.1354,  0.2059,  0.1974],
         [ 0.0694,  0.1351,  0.1820,  0.1168,  0.0826],
         [ 0.1225,  0.1184, -0.0426, -0.0167, -0.0067]],

        [[-0.0719, -0.0611,  0.0687,  0.0623, -0.0826],
         [-0.1205, -0.1507, -0.0166, -0.0507, -0.1570],
         [-0.0453, -0.0609, -0.0697, -0.1267, -0.0223],
         [-0.0425,  0.0689, -0.0694, -0.0820, -0.0963],
         [-0.0192,  0.0336,  0.0226,  0.0658, -0.0837]],

        [[ 0.0342,  0.0249, -0.0521,  0.0164,  0.0258],
         [ 0.0377,  0.0964, -0.0573, -0.0315,  0.1337],
         [ 0.0546,  0.0601,  0.1267,  0.2146,  0.1021],
         [ 0.0359,  0.1203,  0.1091, -0.0219,  0.0856],
         [ 0.0356, -0.0399, -0.0790, -0.1380,  0.0305]],

        [[-0.0124,  0.0273,  0.0087,  0.1018, -0.0995],
         [-0.0040, -0.0781, -0.0777, -0.0144, -0.0691],
         [-0.0606, -0.0305, -0.1244, -0.0410, -0.0011],
         [ 0.0102,  0.0168,  0.1137,  0.0078, -0.0570],
         [-0.0379,  0.0713,  0.1447,  0.0647,  0.0574]]]), Bias: 0.013627706095576286 
tensor([[[ 0.0172, -0.0880, -0.0699, -0.0908, -0.0056],
         [ 0.0478, -0.0781,  0.0037,  0.0134,  0.1037],
         [-0.0981, -0.0282, -0.0155,  0.0046,  0.1153],
         [ 0.0095, -0.0243,  0.0894,  0.0507, -0.0147],
         [ 0.0579, -0.0203,  0.0053,  0.1066, -0.0636]],

        [[-0.0273,  0.0540,  0.0586, -0.0955, -0.1487],
         [ 0.0234,  0.0307, -0.1227, -0.1363, -0.0421],
         [ 0.0191, -0.0245, -0.1160,  0.0066,  0.1899],
         [ 0.0897, -0.0425, -0.0093,  0.1888,  0.2506],
         [ 0.0416,  0.0179,  0.0083,  0.0999,  0.0612]],

        [[-0.0661, -0.0068,  0.1048,  0.0535,  0.0197],
         [ 0.1062,  0.1252,  0.0896, -0.0273, -0.2995],
         [ 0.0379, -0.0476, -0.1657, -0.3181, -0.2594],
         [ 0.0019, -0.1344, -0.1625, -0.2032,  0.0792],
         [-0.0599,  0.0192,  0.0051, -0.0028,  0.1675]],

        [[ 0.0320,  0.0400,  0.0068,  0.0300,  0.0136],
         [-0.0617,  0.0201,  0.1344,  0.1095, -0.0966],
         [-0.0914, -0.0231, -0.0373, -0.0497, -0.0708],
         [-0.1079, -0.0785, -0.1663, -0.0996, -0.0947],
         [-0.0884, -0.1354, -0.1495, -0.1033, -0.0407]],

        [[-0.1110,  0.0656,  0.0636,  0.0083, -0.0166],
         [ 0.1027,  0.0750,  0.0059, -0.0815, -0.2199],
         [ 0.0094,  0.0570, -0.0909, -0.1291, -0.0536],
         [ 0.0736, -0.0977, -0.0488,  0.0488,  0.1371],
         [-0.0124, -0.0738,  0.0109,  0.0900,  0.0443]],

        [[ 0.0212,  0.0325,  0.0464,  0.1175,  0.1303],
         [ 0.0880,  0.0847,  0.0674,  0.1510, -0.1011],
         [ 0.0135,  0.0630,  0.0926, -0.0224, -0.1013],
         [-0.0345,  0.1156, -0.0513, -0.0330, -0.0306],
         [-0.0785, -0.0970, -0.0062, -0.0570, -0.0721]]]), Bias: -0.07341165840625763 
tensor([[[ 2.6402e-03, -4.4428e-02, -9.2060e-02, -1.8758e-01, -8.3275e-03],
         [ 5.6438e-02, -4.4518e-02,  1.3978e-02, -1.2089e-01, -3.1894e-02],
         [ 4.9709e-02,  1.3508e-01, -1.4520e-01, -2.3060e-01, -4.2222e-03],
         [ 1.3638e-01,  4.6984e-02, -1.6856e-01, -2.4780e-01,  2.4103e-02],
         [ 2.0710e-02,  4.2397e-02, -2.5519e-01, -1.2657e-01, -2.8458e-02]],

        [[ 1.0992e-01,  8.4959e-02, -3.8884e-03,  4.9506e-02, -4.5751e-02],
         [ 8.1083e-02,  1.5127e-01,  1.9764e-01,  5.9884e-02, -1.6224e-01],
         [-1.8286e-03,  1.7217e-01,  1.5482e-01, -9.9878e-02, -1.9849e-01],
         [ 8.5020e-02,  1.7499e-01,  1.4327e-01, -9.2525e-02, -2.0611e-01],
         [ 8.6519e-02,  7.3148e-02,  2.0330e-02, -1.5583e-01, -1.5527e-01]],

        [[ 1.3609e-01,  3.0748e-02,  1.8726e-03,  6.7611e-02,  1.0409e-01],
         [ 7.2513e-02,  2.6260e-02, -9.0012e-02,  1.1596e-01, -5.5321e-02],
         [-1.0742e-01, -1.3853e-01,  5.7463e-02,  1.9868e-01, -1.5366e-01],
         [-4.7683e-02, -5.9820e-02,  1.8172e-01,  1.8677e-02, -1.3952e-01],
         [-1.0649e-01, -2.3893e-04,  1.5362e-01, -9.2648e-02, -1.8245e-01]],

        [[-6.6181e-02, -1.0817e-01, -8.2642e-02,  1.1033e-01,  2.2029e-04],
         [-8.6568e-03, -1.0512e-01, -9.4318e-03,  1.0385e-01,  1.5498e-01],
         [ 4.8320e-02, -1.7065e-01, -9.0807e-02,  1.3503e-01,  1.3550e-01],
         [ 3.7920e-02, -6.8058e-02,  4.2267e-02,  1.4170e-01,  1.8004e-01],
         [-9.5795e-02, -1.0656e-01,  9.3874e-02,  2.4205e-01,  1.2391e-01]],

        [[ 4.8393e-02,  7.9030e-02,  6.9080e-02,  8.9149e-02, -1.1606e-01],
         [ 1.7587e-02, -3.4367e-02,  1.7620e-01,  7.7046e-02, -1.6355e-03],
         [-1.1155e-02,  5.4784e-02,  2.7331e-01, -4.4545e-02, -6.0411e-02],
         [ 1.1050e-02,  2.0128e-01,  1.3908e-01,  3.9038e-02, -1.4497e-01],
         [ 3.5090e-02,  2.1023e-01,  1.8941e-01,  2.3280e-02, -1.5221e-01]],

        [[-1.0510e-01,  2.7458e-02, -5.0953e-02,  3.2781e-02,  1.1635e-01],
         [-6.4045e-02, -1.1109e-01, -8.9689e-02,  1.9294e-01,  9.0771e-02],
         [-8.7608e-02, -1.8522e-01,  3.6768e-02,  2.2270e-01, -1.7517e-02],
         [-6.4875e-02, -9.0530e-02,  9.2070e-02,  6.3097e-02,  7.2155e-02],
         [-8.7374e-05,  1.0732e-02,  1.6582e-01,  8.7147e-02,  9.2563e-02]]]), Bias: 0.015872392803430557 
tensor([[[ 0.0268,  0.2529,  0.0732, -0.0106, -0.0313],
         [ 0.0580,  0.1662,  0.2467, -0.0113,  0.1250],
         [-0.0905,  0.1551,  0.2915,  0.0709,  0.0822],
         [-0.2269,  0.0863,  0.1630,  0.0026, -0.0508],
         [-0.1459,  0.0870,  0.0632, -0.1058, -0.0289]],

        [[ 0.0018, -0.0095,  0.1715,  0.0554, -0.0080],
         [-0.1609, -0.0601,  0.0988,  0.1437,  0.1580],
         [-0.1485, -0.2489, -0.0651,  0.1496,  0.1054],
         [-0.1127, -0.2380, -0.0249,  0.0304,  0.0664],
         [-0.0320, -0.1722,  0.0194,  0.1093,  0.0110]],

        [[ 0.0262,  0.0761,  0.0710,  0.1421, -0.0624],
         [-0.0107,  0.0022, -0.0116,  0.0595, -0.0810],
         [-0.0973,  0.0041, -0.0407,  0.0743,  0.0187],
         [-0.0044, -0.1350, -0.1230,  0.1049,  0.1380],
         [ 0.1420, -0.1138, -0.0543,  0.1142, -0.0104]],

        [[-0.0800, -0.0963, -0.0752, -0.1234, -0.0793],
         [ 0.0442,  0.0580, -0.1347, -0.0411, -0.0387],
         [ 0.1645,  0.0695, -0.0035,  0.0275, -0.0873],
         [ 0.1559,  0.1820, -0.0349,  0.0979,  0.0044],
         [ 0.0746,  0.1085,  0.0510,  0.0290,  0.1090]],

        [[-0.0759, -0.0233,  0.1286,  0.0413, -0.0018],
         [-0.1339, -0.0742,  0.1215,  0.0728,  0.1089],
         [-0.1747, -0.1185,  0.0287,  0.1932,  0.0575],
         [-0.0293, -0.1568,  0.0174,  0.0596,  0.1141],
         [-0.0406, -0.0282, -0.0342,  0.1538,  0.0420]],

        [[ 0.0065, -0.1877, -0.0892, -0.0948, -0.0541],
         [ 0.0122, -0.0179, -0.1651, -0.0694, -0.1840],
         [ 0.1867,  0.0596, -0.1118, -0.0939, -0.0830],
         [ 0.1120,  0.0887, -0.0176, -0.0080, -0.0463],
         [ 0.1705, -0.0483,  0.0119, -0.0217,  0.0832]]]), Bias: -0.025107596069574356 
tensor([[[-0.0685, -0.0727, -0.0623,  0.0065, -0.0271],
         [-0.0116,  0.0389,  0.0660,  0.1577,  0.0266],
         [ 0.1036, -0.0898,  0.0353,  0.2086,  0.1512],
         [-0.0489, -0.1229, -0.0262,  0.1369,  0.2023],
         [ 0.0073, -0.0994, -0.0489,  0.0164,  0.1693]],

        [[ 0.0900,  0.0670,  0.0917,  0.0078,  0.0512],
         [ 0.1377,  0.1439,  0.0514,  0.0568,  0.0323],
         [-0.0279,  0.0279, -0.0250,  0.0592,  0.0230],
         [ 0.0027, -0.1747, -0.1782, -0.2028, -0.1335],
         [ 0.0099, -0.0853, -0.1203, -0.0626, -0.0061]],

        [[ 0.0284,  0.0035,  0.0092,  0.0270,  0.0277],
         [-0.0657,  0.0060,  0.1155, -0.0097, -0.0705],
         [ 0.0147,  0.1779,  0.1444,  0.1287,  0.1126],
         [ 0.1143,  0.1462, -0.0435, -0.0032, -0.0261],
         [ 0.0167, -0.0590, -0.0670, -0.2567, -0.1867]],

        [[ 0.0404, -0.0421, -0.0902,  0.0055, -0.0130],
         [-0.0307, -0.0808, -0.0587, -0.0919, -0.0518],
         [-0.0637,  0.0850,  0.0449,  0.0393,  0.0105],
         [-0.0149,  0.1116,  0.1630,  0.0142,  0.1036],
         [-0.0301, -0.0120,  0.0056, -0.0316, -0.0380]],

        [[ 0.0158,  0.0537, -0.0009,  0.0107, -0.0577],
         [ 0.0144,  0.1016, -0.0278,  0.0641, -0.0910],
         [ 0.1309,  0.0832,  0.1106,  0.1392, -0.0020],
         [ 0.0262, -0.0200, -0.0494, -0.1459, -0.1242],
         [-0.0370, -0.0966, -0.1170, -0.2685, -0.1012]],

        [[ 0.0123, -0.0931, -0.0271, -0.0562, -0.0803],
         [-0.1055, -0.1256, -0.0995, -0.1829, -0.0813],
         [-0.1514, -0.0025,  0.0154, -0.0477, -0.2296],
         [ 0.0493,  0.1105,  0.0979,  0.0494, -0.1607],
         [-0.0179,  0.0235,  0.1227,  0.0331, -0.0964]]]), Bias: 0.04697417467832565 
tensor([[[-0.0672,  0.0757,  0.0279, -0.1505, -0.0709],
         [-0.1252, -0.0316,  0.1185, -0.1601, -0.1232],
         [-0.1748,  0.0394,  0.0560, -0.1903, -0.0498],
         [-0.1191,  0.0949,  0.0261, -0.1356, -0.1048],
         [ 0.0077,  0.0696, -0.0549, -0.1594, -0.0348]],

        [[-0.0953, -0.0927, -0.0708,  0.0692, -0.0180],
         [ 0.0110, -0.0778,  0.0493,  0.1296, -0.1271],
         [-0.1232, -0.0613,  0.1570,  0.1386,  0.0507],
         [-0.1283,  0.0114,  0.1265,  0.0439, -0.0888],
         [-0.1780,  0.0471,  0.1445,  0.0118, -0.1899]],

        [[-0.1023,  0.0443,  0.0011, -0.0795, -0.0434],
         [ 0.1035, -0.0488, -0.1350, -0.0956, -0.0840],
         [ 0.1052, -0.0171, -0.0731,  0.1677,  0.0358],
         [ 0.0165, -0.0589, -0.0746,  0.2148,  0.0155],
         [-0.1576, -0.0546,  0.0826,  0.0134, -0.2261]],

        [[ 0.0609, -0.0089, -0.0877, -0.0857, -0.0196],
         [ 0.0997,  0.0602, -0.1421, -0.0137,  0.0256],
         [ 0.0036,  0.0078, -0.2035, -0.0902,  0.0468],
         [ 0.0960, -0.0941, -0.2691, -0.0827,  0.0286],
         [-0.0539, -0.1946, -0.1275,  0.0275,  0.0846]],

        [[ 0.0813,  0.0355, -0.0313, -0.0217, -0.0196],
         [ 0.0262,  0.0404, -0.0273,  0.0288,  0.0138],
         [ 0.1033, -0.0026,  0.0857,  0.2127,  0.0703],
         [-0.0440, -0.0359,  0.1961,  0.0809, -0.0168],
         [-0.1304, -0.0056,  0.1876, -0.0247, -0.0982]],

        [[ 0.0491,  0.0249, -0.0941,  0.0589,  0.1567],
         [ 0.1130,  0.0154, -0.0246,  0.0292,  0.1076],
         [ 0.0753,  0.0208, -0.1911,  0.1513,  0.0928],
         [ 0.1031, -0.1281, -0.0043,  0.1460,  0.0685],
         [ 0.1223, -0.0932, -0.0106,  0.0696,  0.0935]]]), Bias: -0.16773980855941772 
tensor([[[-0.1102,  0.0327,  0.0366, -0.0509, -0.1143],
         [ 0.0906,  0.0878,  0.0274, -0.0870, -0.1521],
         [ 0.1022,  0.1546,  0.0110, -0.1235, -0.0854],
         [ 0.0225,  0.0273, -0.0032,  0.0177, -0.0562],
         [-0.1013, -0.0606, -0.0003,  0.0935,  0.0415]],

        [[-0.0481, -0.0577,  0.0506,  0.0408, -0.0538],
         [ 0.0663,  0.0900,  0.1497,  0.0499,  0.0398],
         [ 0.1516,  0.1076,  0.1869,  0.0159, -0.0908],
         [ 0.0124,  0.0330, -0.0660, -0.1874, -0.1291],
         [ 0.0205, -0.1315, -0.2123, -0.1677, -0.0866]],

        [[-0.0858,  0.0083, -0.1062, -0.0803,  0.0390],
         [-0.0641, -0.1803, -0.0723,  0.1590,  0.1042],
         [ 0.0460,  0.0300,  0.1999,  0.2923,  0.1348],
         [ 0.0207,  0.0611,  0.2247,  0.0205, -0.1343],
         [-0.0317,  0.0757,  0.0072, -0.0830, -0.0830]],

        [[ 0.0897, -0.0513, -0.0045,  0.0297,  0.0020],
         [-0.0868, -0.0455, -0.1818, -0.0779,  0.1060],
         [-0.0260, -0.0175, -0.1090,  0.0849,  0.0688],
         [-0.0402,  0.0562,  0.1404,  0.0978, -0.0067],
         [ 0.1049,  0.1389,  0.0571,  0.0982, -0.0178]],

        [[ 0.0245,  0.0056,  0.0424, -0.0558, -0.0298],
         [-0.0050, -0.0117,  0.0645,  0.0398,  0.0585],
         [ 0.0555,  0.1899,  0.1384,  0.1714,  0.0495],
         [ 0.0732,  0.1142,  0.0757, -0.1280, -0.2169],
         [ 0.0379,  0.0450, -0.1305, -0.1147,  0.0359]],

        [[ 0.0672,  0.0809, -0.0435,  0.0374,  0.1186],
         [-0.1108, -0.1410, -0.1365,  0.0106,  0.1331],
         [-0.0448, -0.1108, -0.0338,  0.0834,  0.1574],
         [ 0.0667,  0.0356,  0.1326,  0.0498,  0.0602],
         [ 0.1183,  0.1634,  0.1136,  0.0478,  0.0659]]]), Bias: -0.0062835016287863255 
tensor([[[ 0.0905,  0.0825,  0.0488, -0.0102, -0.1165],
         [ 0.0686,  0.0280, -0.1424, -0.1339, -0.1526],
         [-0.0239, -0.0726, -0.1268, -0.0867, -0.0888],
         [-0.0078, -0.0527, -0.0433,  0.0027,  0.0559],
         [ 0.0609,  0.0891,  0.1539,  0.0682, -0.0527]],

        [[-0.0032,  0.0379,  0.0610,  0.0249, -0.0625],
         [-0.0270, -0.0291, -0.0737, -0.0288, -0.2891],
         [-0.0615, -0.1240, -0.0981, -0.1185, -0.1693],
         [-0.0087, -0.0530, -0.0180,  0.0493,  0.0215],
         [ 0.1141,  0.2641,  0.2900,  0.1816,  0.0297]],

        [[-0.0605, -0.0457,  0.1054,  0.1801,  0.1708],
         [ 0.0584,  0.1213,  0.1068,  0.0402, -0.1129],
         [-0.1461, -0.1262, -0.0727, -0.1594, -0.2282],
         [-0.1129, -0.2058, -0.2909, -0.1302, -0.0843],
         [-0.0720, -0.0583, -0.0098,  0.2299,  0.1554]],

        [[-0.0772, -0.1004, -0.0121,  0.0360,  0.1773],
         [-0.1212, -0.0487,  0.1228,  0.0808,  0.2152],
         [ 0.0085,  0.1699,  0.1927,  0.0932,  0.0163],
         [-0.0839, -0.0333,  0.0397, -0.0299, -0.0521],
         [-0.0785, -0.0603, -0.1564, -0.1351,  0.0400]],

        [[ 0.1170,  0.1265,  0.1342,  0.0370,  0.0322],
         [-0.0086,  0.2041, -0.0016,  0.0131, -0.1623],
         [-0.0295,  0.0271, -0.1200, -0.1638, -0.1694],
         [-0.0029, -0.1090, -0.1960, -0.0111,  0.0297],
         [ 0.1057,  0.2072,  0.2633,  0.2344,  0.1235]],

        [[-0.0523, -0.1127, -0.1550, -0.0023,  0.0582],
         [-0.1118,  0.0380,  0.1232,  0.0076,  0.0341],
         [ 0.0457, -0.0046,  0.0342,  0.1037,  0.0201],
         [ 0.0025, -0.0210, -0.1012, -0.1099, -0.0780],
         [-0.0681, -0.2181, -0.2311, -0.0565, -0.0608]]]), Bias: -0.3403560519218445 
tensor([[[ 2.0916e-02, -2.2033e-03, -1.4202e-01,  5.3271e-02,  2.0302e-02],
         [-9.3825e-02,  2.0855e-03, -2.1321e-02, -4.4188e-02,  6.0201e-03],
         [ 2.1985e-02,  5.0124e-02,  6.2637e-02, -3.1676e-02, -9.4505e-02],
         [ 6.5719e-02, -3.6036e-02,  9.5373e-02,  7.2822e-02, -4.0533e-02],
         [ 7.1197e-02, -4.8497e-02,  2.3636e-02,  2.1301e-02, -1.8278e-02]],

        [[ 7.2810e-02, -3.3773e-02, -3.2780e-02, -1.6249e-01, -4.8439e-02],
         [ 6.5573e-02, -5.8693e-03, -2.7165e-02,  1.9851e-02, -4.5043e-02],
         [ 7.7374e-02,  8.9809e-02,  1.4404e-01,  1.3372e-01,  1.1146e-01],
         [ 1.8074e-01,  2.3787e-01,  5.9669e-02,  1.8143e-01,  6.8838e-02],
         [ 1.1302e-01,  3.3268e-02, -7.5514e-02,  1.3601e-01,  1.1028e-01]],

        [[-3.3383e-02,  5.3695e-02, -1.3850e-02, -1.2832e-01, -7.2878e-02],
         [-1.0332e-01, -2.1158e-01, -1.6147e-01, -2.0771e-01, -6.8142e-02],
         [-1.8202e-01, -1.0007e-01, -1.1737e-01, -4.8259e-02, -4.3429e-02],
         [ 6.5751e-02,  1.3284e-01,  1.7729e-01,  8.9196e-02,  4.2266e-03],
         [-3.2810e-02,  6.4898e-02, -1.7262e-02, -7.0031e-03,  6.3593e-02]],

        [[ 2.3799e-02, -1.0164e-03,  1.2695e-01,  6.0999e-03,  6.0939e-02],
         [ 5.3540e-02, -1.6474e-02,  4.0252e-02, -3.5824e-02, -6.7667e-02],
         [-1.5058e-01, -7.9420e-02, -9.7662e-02, -1.0640e-01, -7.8902e-02],
         [-1.9016e-01, -5.6116e-02,  1.4518e-02, -1.3012e-01, -1.0327e-01],
         [-2.8543e-02,  7.2221e-02, -4.2565e-02, -6.2978e-02, -8.4433e-02]],

        [[ 6.8169e-02, -3.3012e-03, -7.5135e-02, -9.9450e-02, -1.2695e-01],
         [ 9.1651e-03, -8.4643e-02, -1.8356e-01, -8.1241e-02, -7.6936e-03],
         [-1.9586e-04,  1.3305e-02,  1.2055e-01,  3.7718e-02,  7.8459e-02],
         [ 1.6477e-01,  1.8956e-01,  2.5501e-01,  6.2367e-02,  6.8039e-02],
         [-1.0658e-02, -3.2865e-02, -8.8316e-02,  4.7504e-02,  1.0940e-01]],

        [[ 4.1975e-02,  7.1943e-02,  1.2658e-01,  4.8047e-02,  3.2030e-02],
         [-4.3935e-03, -6.6371e-03,  4.7793e-02,  4.1449e-02,  9.0139e-02],
         [-2.4648e-02, -1.3210e-01, -1.2755e-02, -6.5889e-02,  4.1524e-02],
         [-1.4526e-01, -4.1357e-02, -4.1600e-02, -3.2310e-02, -1.7284e-02],
         [-1.0816e-01, -2.6227e-02, -5.9204e-02, -1.0337e-01,  5.1630e-02]]]), Bias: 0.07404710352420807 
tensor([[[-7.7752e-02, -2.4935e-02, -5.8027e-02, -6.4236e-02, -5.1952e-02],
         [ 2.1988e-02, -2.7330e-03, -7.7349e-02,  3.4949e-02, -1.5501e-01],
         [-2.3986e-02, -2.7155e-02, -7.2534e-02, -6.0468e-02, -1.1284e-01],
         [-1.3374e-02,  6.0233e-02,  1.8520e-01,  1.1486e-01, -4.1254e-02],
         [ 2.4742e-02,  1.2609e-02,  1.5385e-01,  1.6174e-01,  2.8241e-02]],

        [[ 4.9819e-02,  2.4812e-02,  1.5853e-01,  1.9407e-02,  2.6364e-02],
         [ 1.0780e-01,  1.3365e-01,  9.4847e-02, -3.6508e-02, -4.4786e-02],
         [-6.4904e-02,  5.2237e-02,  1.2850e-01,  1.8265e-01,  5.7717e-02],
         [ 4.6559e-02,  2.2447e-02, -1.8457e-02,  1.9831e-01,  1.3486e-01],
         [-2.4736e-02, -3.8518e-02, -1.0500e-01,  1.4896e-01,  1.0671e-01]],

        [[ 1.4142e-01,  1.0711e-01,  5.3673e-02,  1.1953e-01,  6.2626e-02],
         [ 7.1433e-02,  1.4063e-01,  7.5689e-02,  2.2835e-02,  2.9065e-03],
         [-6.2387e-02, -6.8647e-02, -1.4410e-01, -1.8604e-01, -1.2162e-01],
         [-8.1951e-02,  4.1798e-06, -4.7065e-02, -3.5500e-02,  2.2501e-02],
         [ 1.5987e-01,  2.4929e-01,  1.6068e-01,  1.1750e-01,  2.0558e-01]],

        [[-5.7008e-02, -5.0889e-02, -1.9433e-02,  6.2925e-02,  8.7573e-02],
         [-1.6986e-02, -1.2706e-01, -3.1845e-03,  5.1930e-02,  8.6402e-02],
         [-7.7487e-04, -3.8161e-02, -1.0527e-01, -1.0609e-01, -2.0170e-02],
         [-1.4392e-01,  4.0052e-04, -1.1070e-01, -1.6568e-01, -1.4210e-01],
         [-2.6248e-02,  5.0420e-02, -1.5453e-02, -1.4061e-01, -7.9125e-02]],

        [[-2.6665e-02, -4.7040e-02,  1.0266e-01,  4.6806e-02,  8.8921e-02],
         [ 2.8993e-02,  1.3885e-01,  6.6397e-02, -3.1810e-02,  3.0006e-02],
         [-6.2552e-02, -3.3388e-02, -4.1255e-02, -9.4476e-02,  1.7127e-02],
         [-9.5597e-02, -4.8993e-03, -3.1502e-02, -5.5544e-02,  4.6464e-02],
         [ 5.1022e-02,  4.4390e-03, -8.6702e-02,  9.2967e-02,  1.7357e-01]],

        [[-1.1862e-02,  7.1597e-02, -3.4266e-02, -2.8598e-02,  8.4772e-02],
         [-2.3011e-02,  7.5460e-02,  4.6967e-02,  2.4602e-02,  5.4101e-02],
         [ 1.2274e-01,  6.2120e-02, -4.5045e-03, -4.4989e-02,  1.5084e-01],
         [ 2.6458e-02,  1.3296e-01, -6.1949e-03, -2.0052e-01, -4.3565e-02],
         [ 9.6966e-02,  7.2065e-02, -4.4858e-02, -1.2315e-01, -5.5039e-02]]]), Bias: 0.08386196196079254 
tensor([[[ 0.1139,  0.1192,  0.1719,  0.0946,  0.0228],
         [-0.0276, -0.0375,  0.0702,  0.1238,  0.0197],
         [ 0.0029, -0.0567, -0.0611,  0.0640, -0.0943],
         [-0.0388,  0.0263, -0.0619, -0.0835,  0.0020],
         [ 0.0493,  0.0033, -0.0164, -0.0735,  0.0067]],

        [[ 0.0633,  0.1569,  0.1666,  0.1619,  0.1185],
         [-0.0207,  0.0310, -0.0043, -0.0510, -0.0814],
         [ 0.1373,  0.0112, -0.2148, -0.1872, -0.1913],
         [ 0.2337,  0.0920,  0.0361, -0.0651,  0.0672],
         [ 0.2830,  0.2699,  0.2276,  0.0451, -0.0029]],

        [[ 0.0587,  0.1231,  0.1233,  0.1106,  0.1103],
         [-0.0356,  0.0881,  0.2415,  0.1911,  0.1820],
         [-0.1996, -0.1339, -0.1024, -0.0976, -0.1477],
         [-0.0230, -0.0652, -0.1861, -0.1907,  0.0515],
         [ 0.1314,  0.0479,  0.1734,  0.0528,  0.0758]],

        [[-0.0333, -0.0625, -0.1565, -0.1491, -0.0864],
         [-0.0300,  0.0591,  0.1256,  0.0340, -0.0069],
         [ 0.0566,  0.1030,  0.1785,  0.1506,  0.0138],
         [-0.1230, -0.0587, -0.0983, -0.1142, -0.0339],
         [-0.1812, -0.1781, -0.0487, -0.1089,  0.0571]],

        [[ 0.1471,  0.1320,  0.1173,  0.0458,  0.0301],
         [-0.0376,  0.1584,  0.1909,  0.0934,  0.1390],
         [-0.0250,  0.0127, -0.1803, -0.1855, -0.1551],
         [ 0.0907, -0.0655, -0.0481, -0.0924, -0.0081],
         [ 0.1729,  0.2207,  0.1162,  0.1335,  0.1043]],

        [[-0.0830, -0.0404, -0.2027, -0.1575,  0.0102],
         [ 0.0712,  0.0146,  0.1542,  0.0151, -0.0136],
         [ 0.1276,  0.1901,  0.1677,  0.1811,  0.0246],
         [-0.0289,  0.0218,  0.0498,  0.0516, -0.0075],
         [-0.0949, -0.1591, -0.0714, -0.0632,  0.0486]]]), Bias: -0.15530778467655182 
tensor([[[ 0.0434,  0.0140,  0.0818, -0.0120, -0.0340],
         [ 0.0384,  0.0926,  0.1106,  0.0627,  0.0842],
         [ 0.0131, -0.1303, -0.0688,  0.1368,  0.0935],
         [-0.0644, -0.1641, -0.0643, -0.0368,  0.1462],
         [-0.0510, -0.0205, -0.0629, -0.0038,  0.0166]],

        [[-0.0488,  0.0316,  0.0050,  0.0411,  0.0222],
         [ 0.0430,  0.1201,  0.1636,  0.1853,  0.1917],
         [-0.1730, -0.0952, -0.1711,  0.0184,  0.0033],
         [-0.2499, -0.2625, -0.2187, -0.1611, -0.0849],
         [-0.0218,  0.0039, -0.1034, -0.2251, -0.1256]],

        [[ 0.0252,  0.0288,  0.0622,  0.1022, -0.0966],
         [ 0.0409,  0.2118,  0.3138,  0.1778,  0.0500],
         [ 0.1445,  0.1547,  0.1343,  0.1480,  0.1373],
         [-0.1169, -0.0650, -0.1491, -0.0752, -0.0518],
         [-0.2262, -0.0957,  0.0900,  0.0884,  0.0786]],

        [[-0.0589, -0.0448, -0.1014, -0.0597,  0.0008],
         [-0.0895,  0.0113, -0.0542, -0.1070, -0.1108],
         [ 0.0329,  0.1351,  0.1287, -0.0438, -0.0449],
         [ 0.0671,  0.1272,  0.0325,  0.1217,  0.0519],
         [-0.0217, -0.1449,  0.0100,  0.1408,  0.1193]],

        [[ 0.0359,  0.0028, -0.0748, -0.0329, -0.0636],
         [ 0.0712,  0.1511,  0.1968,  0.1669,  0.1361],
         [ 0.0034, -0.0622,  0.0574, -0.0400,  0.0793],
         [-0.2308, -0.1525, -0.2934, -0.1401, -0.1512],
         [-0.0788, -0.1176, -0.0223, -0.1238, -0.1230]],

        [[-0.0291, -0.0726, -0.1266, -0.1155, -0.0413],
         [-0.0295, -0.0106, -0.1337, -0.1609, -0.1472],
         [-0.0065,  0.1208,  0.0982,  0.0355, -0.1628],
         [ 0.0054,  0.1758,  0.1568,  0.0799,  0.0915],
         [-0.0033,  0.0582,  0.1493,  0.1120,  0.0995]]]), Bias: -0.0032061936799436808 
tensor([[[-9.2752e-03,  2.5034e-02, -4.3736e-02, -2.7746e-02, -2.5561e-02],
         [ 1.2570e-02,  6.2567e-02,  5.5803e-03, -1.2939e-01, -4.2089e-02],
         [ 7.4526e-02,  1.4893e-01, -4.4164e-03, -2.7902e-02, -1.2431e-01],
         [ 6.8165e-02,  9.4000e-02,  4.1240e-02,  1.2767e-02, -9.4853e-02],
         [ 5.6464e-02, -4.1009e-02, -1.0924e-01,  1.9617e-02,  4.6839e-02]],

        [[-9.7412e-02, -1.6705e-01, -1.1959e-01, -6.8630e-02, -9.7530e-02],
         [-2.4744e-02,  4.5890e-02,  3.2731e-02,  1.1597e-02, -1.2416e-02],
         [ 5.7895e-02,  1.2947e-01,  2.1410e-01,  1.7575e-01,  1.4738e-01],
         [ 3.2136e-02,  1.2344e-01,  1.5102e-01,  7.9206e-02,  7.5105e-02],
         [-6.6619e-02, -7.9891e-02, -1.2032e-01, -7.7375e-02,  1.5938e-03]],

        [[-1.0176e-01, -9.1575e-02, -7.5380e-02,  2.4465e-02,  1.1288e-02],
         [-2.2647e-01, -2.2665e-01, -3.2498e-01, -1.9859e-01, -1.1879e-01],
         [-1.6366e-01, -1.4709e-01, -2.5223e-02, -1.5254e-02,  8.4873e-03],
         [ 2.1607e-02,  1.2040e-01,  1.7253e-01,  1.6697e-01, -8.7076e-02],
         [-4.8858e-02,  7.2589e-03,  8.4662e-02, -1.2701e-03, -9.6595e-02]],

        [[ 9.8548e-02,  1.5575e-01,  1.6573e-01,  3.3912e-02,  8.1863e-02],
         [ 7.8622e-02, -4.1281e-02, -5.5799e-02, -1.9316e-02,  2.5624e-02],
         [-4.6388e-02, -7.4169e-02, -8.5985e-02, -5.4706e-02, -3.6431e-02],
         [-7.7725e-02, -3.1624e-02, -6.6977e-03, -8.9134e-02,  2.3083e-02],
         [ 7.2508e-02,  8.8962e-03,  1.2748e-01,  8.5792e-02,  4.9854e-02]],

        [[-5.6642e-02,  8.2391e-02, -3.0267e-02,  7.9393e-02,  1.0064e-01],
         [-1.1110e-01, -7.8723e-02,  1.2922e-04, -6.8467e-02, -1.4484e-01],
         [ 7.0236e-02,  9.9465e-02,  1.6429e-01,  1.1301e-01,  3.7385e-02],
         [ 1.6588e-01,  2.3026e-01,  2.1605e-01,  2.0295e-01, -1.0652e-03],
         [-1.0694e-01,  4.6033e-02,  7.1953e-02, -3.4688e-02,  2.5408e-02]],

        [[ 1.3965e-01,  6.0178e-04,  1.8226e-01,  1.8577e-01,  1.6136e-01],
         [ 2.2343e-02,  9.3867e-02,  4.2867e-02,  1.6015e-01,  2.4188e-01],
         [-4.4802e-02, -1.6612e-01, -1.5450e-01,  5.2814e-02,  1.2040e-01],
         [-6.5574e-02, -9.7673e-02, -9.2134e-02,  3.5989e-03,  2.2920e-02],
         [-4.4261e-02,  7.5355e-02,  1.2038e-01,  1.1028e-01,  1.1594e-01]]]), Bias: -0.06971963495016098 
tensor([[[ 1.1952e-01,  9.4964e-04,  2.2286e-02, -1.4677e-01, -1.3283e-01],
         [ 9.6537e-02,  1.8886e-01,  1.4836e-01,  5.3830e-02, -6.2466e-02],
         [ 3.4294e-02,  1.3333e-01,  1.4616e-01,  1.0559e-01, -4.3428e-02],
         [-9.5552e-02, -2.2191e-02, -5.1891e-03,  3.7819e-02,  2.3266e-02],
         [ 2.0023e-02,  4.1251e-02, -2.9108e-02,  1.6519e-02, -4.3931e-02]],

        [[ 3.5637e-02, -2.2587e-02,  8.6386e-02,  5.1392e-02, -2.9922e-04],
         [ 4.5748e-02,  6.9220e-02,  1.2077e-01,  9.8347e-02,  1.1710e-01],
         [-1.2188e-01, -3.9469e-02, -1.1303e-01,  4.6707e-02,  1.3325e-02],
         [-1.8730e-01, -2.7497e-01, -3.0890e-01, -1.6101e-01, -9.3679e-02],
         [ 3.1549e-02, -9.7904e-02, -1.0351e-01, -8.0446e-02, -1.0002e-01]],

        [[-5.9179e-02,  2.7072e-02,  5.6497e-02,  8.1604e-02,  5.5832e-02],
         [ 1.0592e-01,  5.5744e-02,  1.8155e-01,  1.4273e-01,  4.9258e-02],
         [ 5.7613e-02,  2.6659e-01,  2.6131e-01,  2.9109e-01,  2.0827e-01],
         [-6.5518e-02, -1.2220e-01, -1.2493e-01,  6.9284e-02,  1.3623e-01],
         [-9.4333e-02, -9.5532e-02, -6.5301e-02,  9.3890e-03,  4.4115e-02]],

        [[-1.4942e-01, -1.5411e-01, -1.2033e-01, -6.7337e-02, -8.3204e-03],
         [-1.4784e-01, -1.5905e-01, -1.8409e-01, -1.0006e-01, -1.7783e-01],
         [ 4.0911e-02,  1.1571e-01, -4.0798e-02, -1.3321e-01, -1.3707e-01],
         [ 8.5251e-02,  1.4825e-01,  4.9980e-02, -1.6339e-02, -5.1300e-03],
         [-4.3554e-03,  1.0026e-01, -5.2655e-02, -3.8263e-02,  4.7762e-02]],

        [[-5.5863e-02, -7.2630e-02,  3.3593e-02,  7.0473e-02, -4.4180e-02],
         [-1.3162e-02, -2.7985e-02,  1.8536e-02,  1.4147e-01,  9.6064e-02],
         [-3.7559e-02,  3.7690e-02,  7.5116e-02,  4.9679e-02,  6.9013e-02],
         [-2.0631e-01, -2.4728e-01, -2.4303e-01, -6.9292e-02, -3.5495e-02],
         [-1.5009e-01, -1.3854e-01, -4.8094e-02,  2.1886e-02, -7.7458e-02]],

        [[ 6.0437e-02, -3.8976e-02, -1.2519e-01,  8.5255e-02,  2.4307e-02],
         [-1.7070e-01, -2.0175e-01, -1.6681e-01, -2.0293e-02,  5.9533e-02],
         [ 4.6689e-02, -8.3432e-03, -7.4279e-02, -4.2838e-02,  1.4375e-02],
         [ 7.9458e-02,  1.6096e-01,  8.7144e-02,  6.9495e-02,  8.5113e-02],
         [-9.5682e-04, -2.0715e-02,  7.8941e-02,  9.0324e-02, -8.2688e-03]]]), Bias: -0.10957859456539154 
