tensor([ 0.4159,  0.3141, -0.3101, -0.1240,  0.3768, -0.0358,  0.4939, -0.2100,
         0.0526,  0.1667, -0.1396, -0.2545,  0.1089,  0.0392, -0.0959,  0.1752,
        -0.2466, -0.0462, -0.3588,  0.0758, -0.3110, -0.3390, -0.2683, -0.1091,
         0.1706, -0.0328,  0.1974, -0.1969,  0.3801, -0.2876,  0.1450, -0.0553,
         0.2800, -0.4544,  0.0077, -0.1428, -0.1975,  0.1560,  0.3774, -0.0634,
        -0.1721, -0.2674,  0.0922, -0.2949, -0.5791,  0.1421, -0.0749,  0.1954,
        -0.1843,  0.2767,  0.1288,  0.1213,  0.4197, -0.3782, -0.2151, -0.0992,
         0.4272, -0.3475,  0.1427,  0.3114,  0.2832,  0.2617,  0.0052,  0.0056,
        -0.0455,  0.0713,  0.2450,  0.3455, -0.3319, -0.2007, -0.3378, -0.0377,
        -0.1943,  0.3698, -0.3590,  0.1483,  0.2322,  0.2275,  0.1442, -0.1960,
         0.1175, -0.2475,  0.2623, -0.1738]), Bias: 0.008979734033346176
tensor([-0.2861, -0.1257,  0.2844, -0.2628, -0.2821,  0.4651, -0.0195,  0.3590,
         0.0673, -0.0974, -0.0551, -0.3142, -0.5638, -0.0215, -0.1124, -0.2268,
         0.2603, -0.1654, -0.2394, -0.2568,  0.1946,  0.2686,  0.0030,  0.0271,
        -0.3415,  0.2083, -0.3060,  0.2983, -0.2502,  0.1077, -0.3107,  0.3406,
        -0.2990,  0.3000, -0.3044, -0.0261,  0.2216,  0.0299, -0.4821, -0.3605,
         0.2146,  0.0031, -0.1847,  0.4920,  0.2652,  0.1025,  0.2757,  0.0849,
        -0.2316, -0.1815, -0.0422, -0.2976, -0.1607,  0.1757,  0.0480,  0.1865,
        -0.2141, -0.0540, -0.3498, -0.4464, -0.4317,  0.0039,  0.2255, -0.4088,
        -0.2084,  0.0983,  0.0344,  0.0022,  0.1144,  0.1874,  0.1806, -0.3090,
        -0.3250, -0.2721,  0.2376, -0.1805, -0.2526, -0.2375,  0.3805, -0.1465,
        -0.2621,  0.3988, -0.4021,  0.2787]), Bias: 0.023852253332734108
tensor([-0.3236, -0.2278, -0.1969, -0.2147,  0.2411,  0.0897,  0.0072, -0.3094,
         0.3113, -0.0107,  0.1372, -0.0385,  0.1637, -0.4390, -0.3186, -0.1381,
         0.3271, -0.3620,  0.2867,  0.0091, -0.5970,  0.0658,  0.3954, -0.3129,
         0.2370,  0.3887,  0.3558,  0.5124,  0.5397, -0.3893, -0.2748, -0.0304,
         0.2860, -0.2811, -0.3599, -0.4965, -0.3818,  0.4704,  0.0941,  0.3266,
        -0.1850, -0.3507, -0.3054,  0.3903,  0.0260, -0.3753, -0.0092,  0.2809,
         0.3921,  0.3734, -0.2879, -0.0137, -0.3106, -0.4283, -0.1278,  0.0733,
        -0.1579, -0.4382, -0.0045,  0.3577, -0.0554,  0.0402, -0.0121, -0.4977,
        -0.3696, -0.0911,  0.1059,  0.5571,  0.2633, -0.0232,  0.2223, -0.4882,
         0.2586,  0.0416,  0.1929,  0.0210, -0.4106, -0.0227,  0.0952,  0.3724,
        -0.1501,  0.2060,  0.1906,  0.2625]), Bias: 0.033494386821985245
tensor([-0.2805, -0.1684,  0.1315, -0.1605, -0.5987, -0.3110, -0.0797, -0.0474,
        -0.3310,  0.1849,  0.4817, -0.2977,  0.1429, -0.1663, -0.2013,  0.1888,
        -0.1825,  0.2369,  0.4496,  0.2628, -0.3820,  0.3341,  0.2726, -0.4038,
         0.3107, -0.2105,  0.3502, -0.1830, -0.2238, -0.2264, -0.2576, -0.3692,
        -0.5040,  0.1852, -0.1998,  0.4519, -0.4456,  0.3534, -0.3412, -0.4137,
         0.1095,  0.1484,  0.5403, -0.2044,  0.4020,  0.1166,  0.1274,  0.0158,
        -0.0335,  0.1528, -0.1556,  0.2525, -0.3499,  0.1891,  0.0818, -0.0792,
         0.2392,  0.2016, -0.2936, -0.1281, -0.1563,  0.2981,  0.0467, -0.2054,
        -0.2337, -0.0495,  0.2288, -0.3187,  0.0963, -0.1203,  0.2259, -0.2815,
         0.4554,  0.1077,  0.0266,  0.1794,  0.2425,  0.3193,  0.0453,  0.2780,
         0.0039, -0.0465,  0.0522, -0.4250]), Bias: 0.03050990402698517
tensor([-0.1575,  0.1224,  0.4195,  0.3289, -0.3702, -0.1340, -0.1291, -0.1301,
        -0.1945, -0.2281,  0.2013,  0.3301, -0.1140,  0.1876,  0.4140, -0.3618,
         0.2488, -0.0716,  0.1559, -0.0684,  0.2167, -0.3446, -0.1981, -0.1245,
         0.0232,  0.0335, -0.3202, -0.1622, -0.3143,  0.3533,  0.1223,  0.2922,
        -0.3232, -0.1652,  0.1860,  0.2443, -0.0056, -0.2621,  0.2897,  0.2039,
        -0.1656, -0.2396, -0.1487,  0.5465, -0.1041, -0.4205, -0.1710,  0.0117,
         0.4007, -0.2560,  0.3123, -0.6872,  0.5506,  0.2367,  0.2543, -0.2519,
        -0.2855,  0.1181,  0.2209,  0.1420, -0.1441, -0.1616, -0.6594,  0.4016,
         0.3924,  0.2618, -0.4153, -0.1136, -0.0762, -0.4848, -0.1862,  0.0722,
        -0.2282, -0.3993,  0.6614, -0.0970,  0.0559, -0.4421, -0.2935, -0.0410,
        -0.0720, -0.1324, -0.4916,  0.2199]), Bias: -0.0028549949638545513
tensor([ 7.3413e-01,  4.0955e-01,  4.0861e-02,  2.8038e-01,  2.5890e-01,
        -2.8860e-01, -3.5393e-01, -3.4205e-02, -1.1170e-01,  1.9919e-03,
        -4.4977e-01, -2.6292e-04,  1.0652e-01,  2.9065e-01, -2.2486e-01,
        -1.1145e-02, -2.7652e-01, -1.8674e-02, -2.5155e-01,  3.5879e-01,
         1.9980e-01, -1.3842e-01, -4.3518e-01,  3.4200e-01, -2.1941e-01,
        -4.2319e-01, -1.4923e-01, -3.4878e-01, -2.8512e-01, -2.2987e-01,
         4.2512e-02, -2.6480e-01,  3.5272e-01,  1.7512e-01, -1.5350e-01,
         2.1467e-01, -4.0966e-01, -4.6870e-01, -4.4804e-01, -2.1879e-01,
         6.6229e-03,  3.6867e-01,  2.9218e-01, -2.7031e-01,  3.1330e-01,
        -2.4376e-02, -3.4160e-01, -1.8963e-01, -2.2976e-01, -3.8391e-01,
        -5.9673e-02,  2.9831e-01, -2.2160e-01, -3.7341e-01,  3.6669e-01,
         2.0201e-01, -1.2905e-02,  3.0994e-01, -2.4861e-01, -2.4367e-01,
         3.0439e-01, -2.5524e-01, -2.6068e-01,  4.8464e-02, -1.5421e-01,
        -3.2324e-01,  3.4110e-01, -4.2196e-01,  2.3279e-01, -1.0997e-01,
        -7.1088e-02,  2.6157e-01, -2.3276e-01, -1.5919e-02, -2.5364e-01,
         1.4256e-01,  3.2366e-01,  1.2572e-01, -6.2772e-02,  1.7419e-03,
        -9.8877e-02, -4.5816e-01, -5.3047e-02, -3.2752e-01]), Bias: 0.12379346042871475
tensor([ 0.2723, -0.0320,  0.3179,  0.0494,  0.1955, -0.0863, -0.0697, -0.0869,
        -0.1097, -0.2968, -0.2560,  0.3911,  0.1980,  0.2308,  0.2069, -0.2921,
         0.3636,  0.2229, -0.1376,  0.1953,  0.0858,  0.1406, -0.2929,  0.0324,
        -0.0536,  0.0300,  0.3063, -0.0756,  0.2031, -0.3663,  0.2984,  0.3699,
         0.5004,  0.1520,  0.1361, -0.1866,  0.3565,  0.0336, -0.0690,  0.1482,
         0.5319, -0.2219, -0.2880,  0.3146, -0.4530,  0.2548, -0.2227, -0.5850,
        -0.1064, -0.2773, -0.4554, -0.1295,  0.2153, -0.2850,  0.1348, -0.1485,
         0.3107, -0.0841,  0.2683,  0.3286, -0.1602,  0.4270, -0.5252, -0.3195,
        -0.3309, -0.1902, -0.2301,  0.2566, -0.1108,  0.1235, -0.4354, -0.0586,
        -0.3516, -0.1924,  0.2639, -0.1108, -0.0597, -0.4517, -0.0695, -0.0029,
         0.1273, -0.1568,  0.0904,  0.2244]), Bias: -3.0001383493072353e-05
tensor([-0.0772,  0.0516,  0.0342, -0.0215, -0.0177,  0.4882,  0.4838,  0.2949,
        -0.2184,  0.4851,  0.1289, -0.6246,  0.0909, -0.4395, -0.0726,  0.2840,
        -0.0549, -0.4186, -0.4269, -0.8103, -0.0275,  0.0651, -0.2309,  0.0420,
         0.3342, -0.1010, -0.4609,  0.1369, -0.1590,  0.4996, -0.2312, -0.3844,
        -0.3221, -0.4489,  0.0388, -0.1497, -0.0681,  0.4193,  0.1830,  0.2863,
        -0.0487,  0.0156,  0.4315, -0.3063,  0.3375,  0.2721, -0.2572, -0.1160,
         0.0584,  0.2954,  0.3239,  0.2175, -0.0242,  0.1340,  0.2105,  0.1357,
        -0.2511,  0.2151, -0.6471, -0.0561,  0.3031, -0.1048,  0.2267,  0.3211,
         0.2516,  0.5005, -0.4594, -0.3615,  0.3532,  0.1593, -0.1944, -0.1098,
         0.3576,  0.2593,  0.0840, -0.3074, -0.0995,  0.3544, -0.2437, -0.3480,
         0.3414,  0.2575,  0.0701,  0.0278]), Bias: 0.052235689014196396
tensor([-0.3173, -0.2800, -0.4021, -0.4361,  0.2925, -0.2920, -0.1293, -0.1892,
         0.2910, -0.3878, -0.2857,  0.2730,  0.2997,  0.3593, -0.0663,  0.1767,
         0.2775,  0.0136,  0.1604,  0.1191,  0.2867, -0.1860,  0.3448,  0.2827,
        -0.2960,  0.1187,  0.0691, -0.1953, -0.1913, -0.2182, -0.1550,  0.3657,
         0.4711,  0.0063,  0.3092,  0.1392,  0.3660, -0.3290,  0.3893,  0.2056,
        -0.2182,  0.1289, -0.5034, -0.1327,  0.2523, -0.1572,  0.1601,  0.0723,
        -0.0854,  0.2194, -0.2737,  0.0872, -0.2848,  0.3797, -0.4904,  0.3558,
        -0.0404,  0.0590,  0.4710, -0.2839,  0.0151, -0.1436,  0.1816,  0.3357,
         0.2994, -0.1788,  0.3193, -0.0737, -0.1819,  0.1671,  0.3593,  0.3438,
        -0.1852, -0.0761, -0.0818,  0.4480,  0.0726,  0.3430,  0.0819, -0.0088,
        -0.0959,  0.3724,  0.2631,  0.3805]), Bias: -0.20058882236480713
tensor([-0.2141, -0.1049, -0.2373,  0.4889,  0.1173, -0.0687, -0.1685,  0.2080,
         0.1840,  0.3842,  0.3740,  0.3858, -0.3779,  0.0013,  0.4497,  0.2686,
        -0.3656,  0.3027,  0.4393,  0.3031,  0.2300, -0.2166,  0.3805,  0.3751,
         0.0453,  0.1689, -0.2443, -0.2305, -0.1216,  0.4436,  0.4539, -0.1532,
        -0.4734,  0.2728,  0.3679, -0.0902,  0.4512, -0.3584,  0.2243, -0.0331,
        -0.2831,  0.2715, -0.1198, -0.4889, -0.1859,  0.1027,  0.3419,  0.1223,
        -0.1197, -0.1665,  0.4824,  0.4510, -0.1706,  0.2704,  0.2015, -0.2693,
        -0.1860,  0.1523,  0.3635,  0.0218,  0.2992, -0.1018,  0.5338,  0.2077,
         0.2805,  0.1243, -0.1010,  0.0344, -0.2315,  0.3286, -0.0173,  0.2225,
         0.1988,  0.1139, -0.6085, -0.2235,  0.0388, -0.3572, -0.3030, -0.1837,
         0.2866, -0.0892,  0.0452, -0.2836]), Bias: -0.04403003677725792
