tensor([-0.0449, -0.1048,  0.0654,  0.1894,  0.0023,  0.0065,  0.0102,  0.0138,
        -0.1893,  0.0429,  0.1310,  0.0891, -0.0484,  0.0963, -0.1227, -0.0611,
        -0.0419, -0.1275, -0.1045, -0.1071, -0.0823,  0.1279,  0.0232, -0.0699,
         0.1345,  0.0235,  0.1935,  0.1174,  0.1193, -0.0644,  0.0859, -0.0689,
        -0.1085, -0.0597,  0.0884,  0.0791, -0.0180,  0.1184, -0.0773,  0.0500,
        -0.0649, -0.0402, -0.0816, -0.0936, -0.0401,  0.0713,  0.0018,  0.0055,
        -0.1127,  0.1041,  0.0526, -0.1882,  0.1045,  0.1322,  0.0801,  0.0523,
         0.0030,  0.0734,  0.1339,  0.1461, -0.1497, -0.1055, -0.0558,  0.1098,
        -0.2378, -0.0875,  0.0267, -0.0305,  0.1404, -0.0354, -0.0146,  0.0813,
        -0.1341, -0.0680,  0.1113, -0.0734, -0.0600,  0.0909, -0.0695, -0.0109,
        -0.0397,  0.0999, -0.0749,  0.0257,  0.0782, -0.1302, -0.0330, -0.0206,
        -0.0631,  0.1218, -0.1220,  0.0560, -0.0361,  0.1381,  0.1955, -0.1254,
         0.0181, -0.0052,  0.1281, -0.0235, -0.0374, -0.0303,  0.0733,  0.0082,
        -0.1061,  0.0026, -0.1381,  0.0810, -0.0825,  0.1386,  0.0801, -0.0814,
        -0.1641,  0.0859, -0.0079,  0.0278,  0.0897,  0.0317,  0.1312, -0.2419]), Bias: -0.026561856269836426
tensor([ 0.0460, -0.0525,  0.0384,  0.1395,  0.0834,  0.0583, -0.0581,  0.0319,
        -0.1432, -0.0128,  0.0236,  0.0941,  0.0118, -0.0852, -0.0104, -0.0017,
         0.0894, -0.0761, -0.0301, -0.0930, -0.1046,  0.0549, -0.0738,  0.1138,
         0.0113,  0.0755,  0.1379,  0.0635,  0.0434,  0.0122, -0.0259, -0.0833,
        -0.0613, -0.0104,  0.1120,  0.0643,  0.0178,  0.0157, -0.0928, -0.0652,
        -0.0137,  0.0142, -0.0809, -0.0603, -0.1505, -0.0730, -0.1149,  0.1122,
        -0.0391,  0.0796, -0.0166, -0.0176,  0.0711, -0.0024,  0.0351, -0.0307,
        -0.0190,  0.1160,  0.1069,  0.1517, -0.0429,  0.0697, -0.0370,  0.0898,
        -0.0944,  0.0034,  0.0056, -0.0032,  0.0404, -0.0635,  0.0956, -0.0091,
        -0.0503, -0.0566,  0.0529, -0.0474,  0.0568,  0.0727,  0.0030,  0.0682,
         0.0649,  0.2211,  0.0355, -0.1093,  0.0034,  0.0329, -0.1670, -0.1343,
        -0.0205,  0.0901,  0.0068, -0.0453, -0.0192,  0.0355,  0.0435,  0.0164,
         0.1109,  0.0298,  0.0064, -0.0462, -0.0360,  0.0693,  0.0425,  0.0384,
         0.0160,  0.1004,  0.0271, -0.0640, -0.1249,  0.0994,  0.0118, -0.0998,
        -0.1008,  0.0136, -0.0530,  0.0944,  0.0034,  0.0786,  0.0040, -0.1815]), Bias: -0.015461797825992107
tensor([-0.0159, -0.0652,  0.0238,  0.1569,  0.0146, -0.0118, -0.0476,  0.1677,
        -0.1020, -0.0047, -0.0941,  0.0304,  0.0674, -0.0991,  0.1617, -0.0186,
         0.0539,  0.0021,  0.0401,  0.0057, -0.0446,  0.0037,  0.1378,  0.0116,
        -0.0964, -0.0188, -0.0833,  0.0446,  0.0526, -0.0230,  0.0177, -0.0500,
         0.1008, -0.0209, -0.0419,  0.0569, -0.0127,  0.1082,  0.0214,  0.0484,
        -0.0390, -0.0704, -0.1191, -0.0134,  0.1298, -0.0990, -0.0838,  0.0696,
         0.0504, -0.0020,  0.1620,  0.0829, -0.0137,  0.0359, -0.0549, -0.1336,
        -0.0732, -0.0796, -0.1079,  0.0281, -0.0635, -0.0607, -0.0455,  0.0888,
        -0.0958, -0.0454, -0.1725,  0.1714,  0.0295, -0.0479,  0.0733,  0.0043,
         0.0578,  0.0043,  0.1538, -0.1805, -0.1156,  0.0068, -0.1065,  0.0049,
        -0.1305,  0.1709, -0.0842, -0.0722,  0.0985,  0.0766, -0.0043,  0.0376,
         0.0075,  0.0894,  0.0494, -0.0143, -0.0586,  0.1440, -0.0800, -0.0600,
         0.1018,  0.1079, -0.0513,  0.0324,  0.0462, -0.1305, -0.0063, -0.1351,
        -0.0471,  0.0395, -0.1348, -0.0883, -0.0845, -0.0559, -0.0111, -0.0568,
        -0.0320,  0.0159,  0.0432, -0.0143,  0.1190,  0.1239,  0.1045, -0.0079]), Bias: 0.10424382984638214
tensor([ 0.0037, -0.0350,  0.0230,  0.1961, -0.0610,  0.0191,  0.1048,  0.0409,
        -0.0623, -0.1785, -0.0815,  0.0620,  0.0465, -0.0486, -0.0684,  0.0067,
         0.1103, -0.0913,  0.0072, -0.0948, -0.1011, -0.0699, -0.0973, -0.0319,
        -0.0399,  0.0839,  0.0665, -0.0392,  0.1466, -0.1340,  0.1042,  0.0196,
        -0.0310,  0.1135,  0.0993,  0.0538,  0.0327,  0.2010, -0.1572, -0.0904,
         0.0803, -0.0545, -0.1126,  0.0497, -0.0225, -0.0189, -0.0705,  0.1275,
        -0.0416, -0.0693,  0.0865, -0.0140,  0.0671,  0.0603,  0.0070, -0.0486,
         0.1079,  0.0813,  0.0809,  0.0221, -0.0777,  0.0543, -0.1675, -0.1051,
         0.0132, -0.0265, -0.0513,  0.0496,  0.0040, -0.0711,  0.1112,  0.0187,
        -0.0714,  0.0613, -0.0511, -0.1100, -0.1006,  0.0805, -0.1223,  0.0483,
         0.1098,  0.1823, -0.0250, -0.0197,  0.0499, -0.1148,  0.0334, -0.0816,
         0.0292,  0.1429, -0.1266, -0.0021, -0.0852,  0.0587,  0.1647,  0.1124,
        -0.0340, -0.0064,  0.1009, -0.0501,  0.0547, -0.1748,  0.0048,  0.0187,
         0.0092,  0.0945, -0.0129, -0.0159, -0.1401, -0.0616,  0.0158,  0.0603,
         0.1202,  0.0580, -0.1058, -0.0444,  0.0688, -0.0547,  0.1055,  0.0200]), Bias: 0.0003410954086575657
tensor([-0.1092, -0.0320, -0.0162, -0.0257,  0.1055, -0.0505,  0.0517, -0.1335,
         0.0871,  0.1279,  0.0789, -0.0684, -0.1320,  0.0436, -0.0976, -0.0679,
        -0.1560,  0.0415, -0.0526,  0.0309, -0.0825,  0.0215, -0.0566,  0.0296,
         0.0592,  0.0444,  0.2150,  0.0611, -0.0413,  0.1114, -0.0676,  0.1538,
         0.0120, -0.1100,  0.1680,  0.0025, -0.0778,  0.0687,  0.0349, -0.1552,
        -0.0042, -0.0419,  0.0134, -0.0313, -0.0519, -0.0739,  0.0280, -0.0696,
        -0.1967,  0.0749, -0.0842, -0.0577, -0.0089, -0.0165,  0.2125,  0.1383,
        -0.1444, -0.0275,  0.0837,  0.1219,  0.0014, -0.1140,  0.0170, -0.1947,
        -0.1371, -0.0864,  0.0208, -0.0753, -0.0818,  0.0058, -0.0328, -0.0496,
        -0.0487, -0.0009, -0.1015,  0.0695,  0.0221,  0.0893,  0.0653, -0.1458,
         0.1178,  0.0454, -0.0267, -0.0275, -0.0802,  0.0764, -0.0577, -0.0286,
         0.0470, -0.0086, -0.1694,  0.0657, -0.1034, -0.0614,  0.2436, -0.0506,
         0.1592, -0.0664,  0.0495, -0.0077, -0.0421,  0.0361,  0.1027, -0.0071,
        -0.0441, -0.0785,  0.0044,  0.1087,  0.1023, -0.0463,  0.1198,  0.0129,
        -0.0898, -0.0518, -0.0080,  0.1651, -0.0308,  0.0077, -0.0243, -0.1406]), Bias: -0.011763263493776321
tensor([ 9.0238e-02, -9.9928e-02, -1.4190e-01,  6.5247e-02, -8.3838e-02,
         2.8161e-02, -9.0142e-02,  1.1596e-01,  5.0517e-02,  1.5324e-01,
         3.0878e-02,  1.9006e-02, -1.2940e-02, -3.2387e-02, -7.1941e-02,
         9.8223e-02,  4.6259e-02,  3.8005e-03,  1.5016e-01,  2.5010e-02,
        -5.7580e-02, -3.7478e-03,  5.9455e-02,  1.3583e-01, -1.6884e-01,
        -5.6491e-02, -3.5060e-02, -8.6923e-03, -8.1152e-02, -1.1552e-02,
        -1.1701e-01, -2.7095e-02,  1.5097e-01, -1.9008e-02, -1.4119e-01,
         6.3123e-02, -1.0976e-01, -2.6251e-02, -3.5793e-02,  9.3337e-03,
        -6.9529e-02, -5.3416e-02,  2.2456e-02,  5.3143e-02,  1.7053e-01,
        -1.1339e-01, -3.5290e-02,  7.3784e-03, -5.6512e-02,  2.9599e-02,
         7.7894e-02,  4.0506e-02, -3.4326e-02,  4.3135e-02, -3.2913e-02,
        -9.5581e-02,  9.6549e-02,  3.7817e-02,  2.2555e-02, -1.1189e-01,
        -1.8288e-02,  3.1618e-02,  1.5869e-02,  1.3947e-02,  9.5950e-02,
         3.2049e-02, -2.3307e-01, -7.4518e-02, -1.5928e-01,  1.5086e-01,
        -6.8755e-02, -2.0411e-02, -4.8164e-04,  2.4187e-02,  7.6874e-02,
        -4.1042e-02,  2.4084e-02,  6.7249e-02, -8.1355e-02, -1.7161e-01,
        -2.3536e-02, -6.1540e-02,  1.2888e-01,  2.8064e-02,  7.3510e-02,
         4.2990e-02, -1.3915e-02,  4.6811e-02,  5.0780e-03, -9.3949e-02,
         1.2901e-02, -2.2853e-04, -9.4290e-02, -1.0100e-01, -4.8801e-02,
         8.1341e-02, -9.8028e-03,  1.4955e-01,  3.4598e-02, -3.7101e-02,
         2.1100e-02, -1.0340e-02,  1.3113e-01,  6.2187e-02,  8.3384e-02,
         8.3430e-02, -7.5849e-02,  1.5576e-01,  4.9861e-02,  6.9779e-02,
        -1.0167e-01, -1.9670e-01, -8.8892e-02,  8.9212e-02, -1.1228e-01,
        -1.1905e-01, -2.7480e-02, -1.6358e-01, -5.2636e-02, -1.6013e-04]), Bias: 0.07892568409442902
tensor([ 0.0118, -0.0801, -0.0604, -0.0933,  0.0952, -0.1790,  0.0426,  0.0770,
        -0.1075,  0.1155, -0.0494,  0.0039, -0.0305,  0.0679,  0.0156, -0.0294,
         0.0082, -0.0185,  0.1808,  0.1159,  0.0313,  0.1458, -0.0410,  0.1011,
        -0.1215, -0.0586,  0.0181, -0.0691, -0.1303, -0.0671,  0.0633, -0.0543,
         0.0083,  0.0115, -0.0557,  0.1544, -0.0801,  0.0499, -0.0151, -0.0476,
        -0.1154,  0.0601,  0.0572, -0.0716,  0.0884,  0.0059, -0.0968,  0.0812,
         0.0500, -0.0631, -0.0035,  0.0724,  0.1049, -0.0583,  0.0440, -0.0480,
        -0.0194,  0.0533, -0.0174, -0.0713,  0.0982,  0.1107,  0.0156,  0.0684,
        -0.0742,  0.1119, -0.1627, -0.0651, -0.0020,  0.1684, -0.0747,  0.0797,
        -0.0344, -0.1158, -0.0330,  0.1263, -0.0523, -0.0741, -0.0792, -0.0973,
        -0.1296, -0.0297,  0.0801, -0.0485, -0.0085, -0.0210, -0.0130,  0.0319,
        -0.0775,  0.0362,  0.0555, -0.0106, -0.0093, -0.0261, -0.0434,  0.0388,
        -0.1221, -0.0275, -0.0310,  0.0201, -0.0967,  0.0914,  0.0882,  0.1033,
        -0.0539,  0.0156,  0.0698,  0.0213,  0.0989,  0.1031, -0.0688, -0.0324,
        -0.1837,  0.0499, -0.0737, -0.1350,  0.0046, -0.0749, -0.1549, -0.0764]), Bias: -0.013888289220631123
tensor([-0.0321, -0.0741, -0.1057, -0.0626, -0.0214,  0.0722,  0.0131, -0.0479,
        -0.1245,  0.0936,  0.0326,  0.1313, -0.0360, -0.0269, -0.0636,  0.0079,
         0.0887,  0.0409,  0.0972, -0.0026, -0.0395, -0.0586,  0.0328, -0.0689,
        -0.1702,  0.0487,  0.0782, -0.0830,  0.0417, -0.0678,  0.0501, -0.1232,
        -0.0928,  0.0610, -0.0932,  0.0523,  0.0487,  0.0270,  0.0154,  0.0420,
         0.0090,  0.0353,  0.0556, -0.0134,  0.0591, -0.0498,  0.0801, -0.0671,
         0.0193, -0.0226,  0.0079, -0.0599,  0.0058,  0.0189, -0.0561, -0.0536,
        -0.0438,  0.0738, -0.0722, -0.1515,  0.0168, -0.0410, -0.1336,  0.0156,
         0.0460,  0.0615,  0.0018, -0.0855, -0.0921,  0.0014, -0.0409, -0.0578,
         0.1203,  0.1279, -0.0854, -0.1474, -0.1158, -0.0140, -0.1670,  0.0752,
         0.0144, -0.0403, -0.0110,  0.0041,  0.0136, -0.0150,  0.1007, -0.0986,
        -0.0186, -0.0090, -0.0553,  0.0313,  0.0534, -0.0722, -0.1036,  0.1422,
        -0.0388,  0.0918,  0.1196,  0.0793,  0.0099, -0.0831, -0.0992,  0.0092,
        -0.0574, -0.0224, -0.0439,  0.1205,  0.0430,  0.0698, -0.1133, -0.0764,
         0.0168, -0.0655, -0.0081, -0.1623, -0.0402, -0.0796,  0.0279,  0.0068]), Bias: -0.025873469188809395
tensor([-0.0539,  0.0111,  0.0485, -0.0330,  0.0519,  0.0295, -0.0564, -0.0642,
         0.1212,  0.0665, -0.0037,  0.0062,  0.0196,  0.1131,  0.0630, -0.0079,
        -0.0103,  0.0628, -0.1114,  0.0881,  0.1065,  0.0164,  0.0907,  0.0497,
        -0.0261, -0.0119, -0.0149, -0.0676, -0.0384,  0.0979,  0.0685,  0.1404,
         0.0487, -0.0993, -0.0357,  0.0177, -0.0373, -0.0050,  0.0044, -0.0978,
        -0.0599,  0.0109, -0.0861,  0.0827, -0.0677, -0.0224,  0.1038, -0.0381,
        -0.0606,  0.0854, -0.0698,  0.0053,  0.0394,  0.0374,  0.1468, -0.0390,
        -0.1079, -0.1019,  0.0290,  0.0143,  0.0908,  0.0130, -0.0128, -0.1332,
         0.0677,  0.0340,  0.0693, -0.0622, -0.0447,  0.0604,  0.0372,  0.0468,
         0.1077, -0.0948, -0.1164,  0.0821,  0.0419, -0.0512, -0.0223, -0.0964,
         0.2029, -0.0710, -0.0283,  0.0998, -0.0853,  0.0281, -0.0279, -0.0334,
         0.0143, -0.0132, -0.0930,  0.0693,  0.0975, -0.1384,  0.0447,  0.0521,
         0.0897,  0.0793,  0.0867,  0.0865, -0.0223,  0.0100,  0.1212, -0.0414,
         0.0666, -0.1006, -0.0770, -0.0012,  0.0616,  0.0356,  0.0812,  0.0745,
        -0.0543,  0.0318,  0.0892,  0.1230, -0.0722, -0.0426, -0.1095,  0.0975]), Bias: -0.0934055894613266
tensor([ 5.7128e-02,  8.1565e-02, -3.5162e-02,  1.9439e-02,  3.7008e-02,
        -9.6039e-02,  3.5464e-02, -2.2911e-02, -4.6504e-02,  2.3378e-02,
         4.8726e-02,  6.2652e-02,  2.1712e-02, -1.4574e-02, -2.0830e-01,
        -1.1102e-01, -9.6000e-02,  1.5123e-01,  8.8322e-02,  6.3740e-02,
        -1.0967e-01, -5.3043e-02, -9.4048e-02, -1.2957e-02, -8.5447e-02,
        -1.3267e-02,  6.8939e-02, -1.0168e-01, -7.4509e-02, -2.9557e-03,
        -1.5223e-02, -1.0500e-01, -9.2461e-02,  1.1529e-02,  1.6339e-02,
         1.0142e-01, -1.2906e-01,  2.7594e-02, -1.0642e-01,  9.1453e-02,
         2.3114e-02, -6.7128e-02, -3.9425e-03, -4.0466e-03, -1.1140e-01,
        -4.0192e-02, -1.2407e-01,  1.3457e-01,  3.1939e-02, -9.6010e-03,
         6.2313e-02,  1.2789e-02,  1.2728e-01,  1.7889e-02, -4.8283e-03,
         6.5531e-02, -1.5858e-02,  1.6093e-01, -5.4013e-02,  1.0258e-01,
         3.9263e-03,  1.0390e-01, -1.0961e-01, -1.1778e-03,  1.7476e-02,
         5.6467e-02, -2.2044e-02, -4.0383e-02,  1.1081e-02,  9.3330e-02,
        -2.4173e-02,  3.6249e-02,  4.2043e-02, -1.0402e-01, -1.5032e-01,
        -5.2102e-03,  2.6436e-02, -3.9755e-02, -1.2088e-01, -1.3502e-02,
        -8.6968e-02,  1.2814e-02, -1.0204e-01,  2.6329e-03,  2.9649e-02,
        -8.4058e-03,  9.8973e-03,  2.1480e-02,  7.7007e-03,  3.4933e-02,
         5.3511e-02,  3.5914e-02,  4.3438e-05, -1.2053e-01, -7.1482e-02,
         1.1549e-01, -3.2651e-02, -7.1477e-02,  6.3438e-02,  1.2181e-01,
        -1.5982e-01, -6.6452e-02, -2.8906e-02,  1.3623e-01,  4.6426e-02,
         8.2451e-02, -1.7955e-02,  1.5202e-01,  3.4854e-02, -4.0578e-02,
        -1.3362e-01, -1.2186e-01,  9.1292e-02, -5.3062e-02,  2.7156e-02,
        -5.3687e-02, -7.2556e-02, -7.3164e-02, -1.6137e-01, -6.8881e-02]), Bias: -0.011508103460073471
tensor([-0.0249,  0.1267,  0.0075,  0.0471, -0.0573, -0.0553, -0.0024, -0.0747,
         0.1124, -0.0451, -0.1477,  0.0688,  0.0841, -0.1022,  0.0318,  0.0808,
         0.0235,  0.0396, -0.0178,  0.1144, -0.0191, -0.0315, -0.0700,  0.0420,
        -0.0693, -0.0342, -0.1899, -0.1402, -0.1004, -0.0188, -0.0537, -0.1304,
         0.0948,  0.1186, -0.0882, -0.0125,  0.0426, -0.0271, -0.1021,  0.0572,
        -0.0335, -0.1216, -0.1038,  0.0784,  0.0514,  0.1323, -0.1300,  0.0407,
         0.1046, -0.1448,  0.0058,  0.1285, -0.0498, -0.0852, -0.1359,  0.0044,
         0.0569,  0.0830,  0.0111, -0.0197, -0.0525,  0.0987, -0.1159, -0.0089,
         0.1437,  0.0737,  0.0393,  0.1091, -0.0881,  0.0391,  0.0284,  0.0239,
         0.0175, -0.0155,  0.0315, -0.0581,  0.0581,  0.0460, -0.1186, -0.0057,
        -0.1171, -0.0972, -0.0679, -0.0228,  0.0390, -0.0751,  0.1276, -0.0208,
         0.0806,  0.0481,  0.0267, -0.0958,  0.0175, -0.0659, -0.2050,  0.0328,
        -0.1648,  0.0018,  0.0299,  0.1528, -0.0500, -0.0831, -0.0376,  0.0677,
         0.0557, -0.0257,  0.1776, -0.0049,  0.0481, -0.1261, -0.1136, -0.0173,
         0.0047,  0.0518, -0.0131,  0.0359,  0.1113, -0.0290, -0.1449,  0.1748]), Bias: 0.03932276740670204
tensor([-1.6425e-01,  3.8254e-02, -1.1035e-01,  6.9394e-02,  5.7151e-02,
         7.0528e-02, -5.4405e-02, -1.5618e-01,  1.7229e-01, -1.3379e-01,
        -1.2078e-01, -6.3884e-02, -9.7082e-02, -1.2885e-01, -4.2123e-02,
        -2.7147e-03, -3.5556e-02, -1.7700e-01, -1.7902e-01, -7.8630e-02,
         8.0157e-02, -5.0185e-02,  8.8870e-02, -8.7193e-02,  8.7234e-02,
        -5.0946e-02,  1.2169e-01, -9.0706e-02,  1.7547e-01, -5.1785e-02,
         8.5970e-02,  1.5108e-01,  8.1711e-04,  3.9573e-02,  1.3703e-05,
        -1.4796e-01, -3.6665e-02, -1.9946e-02,  1.2840e-02, -1.0395e-01,
         1.6446e-01,  2.4131e-02, -1.0372e-01,  4.9378e-02, -1.4361e-01,
        -3.2533e-02,  4.1797e-02, -1.9084e-02, -6.9606e-02, -1.3281e-01,
        -2.4311e-02,  2.5153e-02, -1.3969e-01, -2.3373e-02,  7.6831e-02,
        -1.1609e-01, -3.1088e-02, -8.6585e-02,  1.0728e-01,  8.8662e-02,
         4.6599e-03, -6.5731e-02,  3.2372e-02, -8.6092e-02, -1.8174e-02,
        -5.5028e-02,  5.0916e-02,  7.7676e-02, -6.0165e-02, -1.5942e-01,
         8.5273e-02, -9.6159e-02,  1.1556e-01,  5.9639e-02, -9.1521e-02,
         4.2016e-02,  8.3796e-02,  3.5001e-02,  9.5353e-02, -4.2321e-03,
         1.9438e-02, -8.7368e-02, -1.4804e-01, -5.0664e-02,  2.0601e-02,
        -6.6081e-02,  5.0531e-02, -4.5743e-02, -9.1933e-02,  2.9035e-02,
        -1.2417e-01,  3.4156e-02, -1.0401e-01,  1.1726e-01,  1.9191e-01,
        -9.2029e-02,  7.6451e-02, -3.1385e-02, -6.1303e-03, -3.4825e-02,
         2.0991e-01, -1.4535e-01,  5.3874e-02,  6.9477e-04, -7.6532e-02,
        -9.9975e-03,  1.5319e-04, -1.3643e-01,  1.1996e-01,  3.9631e-02,
         1.5594e-02,  1.1110e-01,  1.0964e-01,  4.8333e-02, -1.2890e-01,
         1.9849e-01,  5.3868e-02,  6.2182e-02,  7.6105e-02,  1.7330e-02]), Bias: -0.07816898077726364
tensor([ 0.0023, -0.0621, -0.0166, -0.0003,  0.1158, -0.0877,  0.0613,  0.0069,
         0.0596, -0.0284, -0.0121, -0.0796, -0.0389,  0.0112, -0.0202,  0.0335,
        -0.1426,  0.0086,  0.1555,  0.0694,  0.0961, -0.0532, -0.1354,  0.0648,
         0.0287, -0.0325,  0.0389,  0.0149, -0.0063,  0.1257, -0.0845, -0.0107,
        -0.0307, -0.0272,  0.0494, -0.0985,  0.0597,  0.0345,  0.1197,  0.0690,
         0.0192,  0.1091, -0.0390, -0.0307,  0.0222, -0.0254,  0.0508, -0.0696,
         0.1121, -0.0384, -0.1181, -0.0157,  0.0461,  0.0429,  0.1322,  0.2195,
        -0.0332,  0.0372, -0.0151,  0.1272, -0.0689, -0.0030,  0.1500,  0.0825,
        -0.1212, -0.0991, -0.0060,  0.0701,  0.1065,  0.0460, -0.0835,  0.1443,
        -0.0852, -0.0373, -0.0776,  0.1561, -0.0235,  0.0084,  0.1094,  0.0761,
        -0.1550,  0.0727,  0.0985,  0.0282, -0.0320, -0.0509, -0.0988,  0.0767,
         0.0952, -0.0752, -0.0636, -0.0143, -0.0360,  0.1001,  0.0914, -0.1432,
        -0.0868, -0.0820, -0.0275, -0.0762, -0.1253,  0.1574,  0.0775, -0.0781,
        -0.0835, -0.1366, -0.0183,  0.0599, -0.0058,  0.0400,  0.1599, -0.0313,
        -0.0236, -0.1158,  0.0649,  0.1299,  0.1078, -0.0811,  0.0855,  0.0538]), Bias: 0.005379925481975079
tensor([-6.0655e-02, -3.0932e-02,  2.0157e-02,  9.2678e-02,  3.1985e-02,
         8.0057e-02,  1.1668e-01, -4.4413e-02,  3.6649e-02, -4.6848e-02,
         9.0199e-02, -2.9484e-02, -1.3691e-01, -5.5868e-02,  5.8648e-02,
         2.9390e-02,  8.8712e-02, -6.8890e-02, -1.0116e-01, -3.0890e-02,
         5.7753e-02, -1.0445e-01, -2.0795e-02, -7.3961e-02,  1.0431e-01,
         5.4820e-02,  9.2260e-02,  2.0780e-02,  1.3303e-01,  4.7544e-02,
         2.7370e-02,  7.1215e-04,  7.5570e-02, -1.0006e-01,  7.4495e-02,
        -8.3974e-02, -6.1299e-02, -4.0104e-02,  2.4476e-02, -6.7090e-02,
         1.3034e-01, -9.4352e-02,  6.0388e-02, -2.1356e-02, -4.5089e-02,
        -1.2121e-01,  6.1300e-02,  2.8579e-02, -8.1019e-02, -9.0159e-03,
         9.5510e-03, -1.5020e-01,  5.1767e-02,  8.8126e-02, -2.1444e-02,
        -2.1998e-02, -1.7061e-02, -3.8859e-02,  7.0260e-02,  6.8147e-03,
         3.5256e-02,  2.1472e-02,  1.0041e-01, -7.0452e-02, -1.0039e-01,
        -1.9019e-03,  9.6444e-02,  7.6433e-02,  1.4683e-01, -6.6559e-02,
        -2.7204e-02, -3.9081e-03,  3.1821e-02,  1.9100e-03,  7.4316e-02,
        -8.9595e-02, -1.1223e-01, -3.2410e-02,  1.1722e-01,  9.5210e-02,
        -5.2097e-03,  4.6844e-03, -7.4922e-02, -6.7346e-02, -5.7732e-02,
         6.7009e-02, -9.6611e-02, -6.4732e-02,  5.8703e-03, -2.9208e-02,
        -1.6869e-01,  7.9577e-02, -6.8755e-02, -1.0931e-03,  7.9933e-02,
         5.6399e-02,  1.3330e-01, -1.2962e-02,  2.4148e-02,  4.8541e-03,
        -1.1992e-02, -1.0854e-04,  2.5130e-03, -9.9209e-02, -1.7239e-01,
         7.8665e-02, -1.4059e-01, -1.6052e-01,  9.6776e-02,  1.0581e-01,
        -4.4802e-02,  1.4713e-01,  4.1440e-02, -7.1744e-02, -8.4436e-02,
         4.7191e-02, -8.6310e-02,  1.0726e-01,  1.8394e-01, -4.3802e-02]), Bias: -0.04021286219358444
tensor([-0.0554,  0.0634, -0.0126,  0.0168,  0.1121, -0.0556, -0.0783,  0.0493,
         0.0315, -0.1099, -0.1183, -0.1413,  0.0543,  0.0554,  0.0590,  0.0261,
         0.0911, -0.0092, -0.1360,  0.0500, -0.0519, -0.0624,  0.0591, -0.1416,
        -0.0720, -0.0364, -0.0789, -0.0891,  0.1371, -0.0369,  0.1490,  0.1033,
        -0.0462,  0.0609, -0.0204,  0.0726,  0.0383,  0.1447, -0.0520, -0.1638,
         0.1831, -0.0637, -0.0921,  0.0158,  0.0236, -0.1050, -0.0185, -0.0044,
         0.0961, -0.0186,  0.0618,  0.0479,  0.0220,  0.1218,  0.0559, -0.0892,
        -0.1021,  0.0039, -0.0274,  0.0128,  0.0994, -0.0174, -0.0865, -0.1427,
         0.0173, -0.0503, -0.0629, -0.0787,  0.0783, -0.0690,  0.1310, -0.0784,
         0.0470,  0.1184, -0.0473, -0.0057, -0.0877, -0.0020,  0.0836,  0.0438,
         0.0234,  0.0541, -0.1121, -0.1026, -0.0392,  0.0374,  0.0321, -0.1639,
        -0.0211, -0.0038, -0.0456,  0.0386,  0.0322,  0.0105,  0.0648,  0.1071,
         0.1049,  0.0427, -0.0927,  0.0636,  0.0853, -0.0596,  0.0342,  0.0483,
        -0.1496, -0.0341,  0.0664, -0.1155, -0.0263,  0.0484, -0.0572, -0.0248,
         0.0561,  0.1464, -0.0679, -0.0137,  0.0819,  0.0192,  0.1155,  0.0033]), Bias: -0.12008952349424362
tensor([-0.0688,  0.1443, -0.0609,  0.0281, -0.0125, -0.0610,  0.0729, -0.1836,
        -0.0231, -0.0044, -0.0452, -0.0940,  0.0232, -0.0209, -0.1787,  0.0110,
        -0.1656,  0.1071,  0.0827,  0.0830, -0.0600,  0.0613, -0.1639,  0.0183,
         0.0595,  0.1207,  0.1346, -0.0785, -0.0471,  0.0594, -0.0100, -0.0529,
        -0.0462, -0.0319,  0.0385, -0.0841, -0.0873,  0.0053, -0.0494,  0.0072,
        -0.0867,  0.0279,  0.0919, -0.1351, -0.0122,  0.0860,  0.0099, -0.0148,
         0.0287,  0.0307, -0.0138,  0.0474,  0.1532, -0.0089, -0.0052,  0.1423,
         0.0898,  0.0997,  0.0078, -0.0793, -0.0915,  0.1219,  0.0275,  0.0189,
         0.0506, -0.0411,  0.0546, -0.0574, -0.0135,  0.0376,  0.0040,  0.0404,
         0.0703,  0.0383, -0.1980,  0.0077,  0.0333,  0.0333, -0.0928, -0.0246,
        -0.0298, -0.0624, -0.1148,  0.0787,  0.0224, -0.0150, -0.0275, -0.0376,
         0.0162, -0.0115,  0.0043,  0.1220,  0.1280, -0.1242, -0.0546,  0.0185,
        -0.0247,  0.0124,  0.0836, -0.0630, -0.0528,  0.1245, -0.0167,  0.1009,
         0.0546, -0.0725,  0.0234, -0.0377,  0.0417,  0.0494,  0.0097, -0.0129,
         0.0379, -0.0930, -0.0342,  0.0742, -0.1561, -0.0030, -0.0924,  0.0156]), Bias: 0.047595977783203125
tensor([-0.0517, -0.0282, -0.0954, -0.0832,  0.0256, -0.0410, -0.0704,  0.1242,
         0.0957,  0.0395, -0.0930,  0.0381, -0.0277,  0.0571,  0.1731,  0.0627,
         0.0564, -0.0924, -0.0007,  0.0572,  0.0714, -0.0490,  0.1142, -0.1126,
         0.0010,  0.0321, -0.0967,  0.1103,  0.0049, -0.0149, -0.0612,  0.1706,
         0.0862, -0.0296, -0.1130,  0.0515,  0.0153, -0.0707,  0.1009, -0.0340,
         0.0943,  0.0664,  0.0850,  0.0308,  0.0681, -0.0869,  0.0292, -0.0177,
        -0.0441,  0.0087, -0.1214,  0.0657, -0.1441, -0.0006,  0.1522, -0.0010,
         0.0292, -0.1208, -0.0432,  0.0167,  0.0546, -0.0777,  0.1730,  0.0009,
         0.0172,  0.0628, -0.0689,  0.0750,  0.0058,  0.0846, -0.0610,  0.0582,
         0.0142, -0.0121,  0.0843, -0.0137,  0.0275,  0.0323,  0.1563, -0.1157,
         0.0298, -0.1765, -0.0419,  0.0461,  0.0231,  0.1549,  0.0459, -0.0476,
        -0.1127, -0.1052,  0.0258, -0.0809,  0.0209,  0.1448, -0.0028, -0.1159,
         0.0831,  0.0904, -0.1732, -0.0975,  0.1341,  0.1124,  0.0739, -0.1661,
        -0.0125, -0.0389,  0.0210,  0.0374, -0.0160, -0.0007, -0.0072, -0.0736,
         0.0496, -0.0682,  0.0333,  0.0570,  0.0061,  0.1029,  0.0697,  0.0225]), Bias: -0.051564496010541916
tensor([-0.1029,  0.0822, -0.0183,  0.1138,  0.0126, -0.0248,  0.0914, -0.1557,
         0.1162, -0.1558,  0.0131, -0.0455, -0.0094,  0.0565, -0.0184, -0.0091,
         0.0273,  0.0369, -0.0468, -0.0329, -0.0394, -0.0900,  0.0260, -0.1345,
         0.0449,  0.0041, -0.0552,  0.0266,  0.1226,  0.0743, -0.0840, -0.0791,
        -0.1260,  0.1021,  0.1397,  0.0477,  0.1026, -0.0284,  0.0063,  0.0157,
         0.1123,  0.0367,  0.0211, -0.0408,  0.0163, -0.0970, -0.0167,  0.0962,
        -0.0201, -0.0817,  0.0152, -0.0253, -0.0688,  0.0148, -0.1272, -0.0935,
         0.0230, -0.0442, -0.0083,  0.0469, -0.0989,  0.0013,  0.0724, -0.0945,
        -0.0161,  0.0439,  0.1412, -0.0282,  0.0425, -0.0373,  0.0911,  0.0229,
        -0.0638, -0.0316, -0.0982, -0.1460, -0.0123,  0.0380,  0.0029,  0.0012,
         0.0772, -0.0058, -0.0876, -0.0775, -0.0412, -0.1180,  0.0006, -0.0443,
        -0.0543, -0.0532, -0.0998,  0.1360,  0.0225,  0.0273,  0.0223, -0.0714,
        -0.0281, -0.1448,  0.0198, -0.0092,  0.0612, -0.1013, -0.0967,  0.1059,
        -0.1479, -0.1038,  0.0121, -0.1590, -0.0296, -0.0049, -0.0851, -0.0059,
        -0.0332, -0.0503,  0.0327,  0.0577,  0.0109,  0.1111,  0.0529, -0.0649]), Bias: -0.06033732742071152
tensor([-0.0948,  0.0233, -0.0694, -0.1148, -0.0210,  0.0283, -0.1098, -0.1500,
         0.1931, -0.1478, -0.1225, -0.1194, -0.0345, -0.0243, -0.0658,  0.0753,
        -0.0768, -0.0086, -0.0395,  0.0064, -0.0377, -0.0310,  0.0353,  0.0004,
         0.0731, -0.0890, -0.1217, -0.1003,  0.0947, -0.0090,  0.0746, -0.0887,
        -0.0046,  0.0864, -0.1075, -0.0789, -0.0113, -0.0713, -0.1531, -0.0197,
         0.1306, -0.1249, -0.0813, -0.0688, -0.1035,  0.0780,  0.0683,  0.0343,
         0.0946, -0.0100,  0.0117,  0.0871, -0.1308, -0.0809, -0.0747,  0.0526,
         0.0581, -0.1018,  0.1037, -0.1441, -0.0648, -0.0030,  0.0623, -0.1181,
        -0.0160,  0.0500,  0.2170,  0.1335, -0.0384, -0.1105,  0.0668, -0.0343,
         0.0227, -0.1173, -0.1211, -0.0292,  0.0074, -0.0062,  0.0542,  0.1038,
        -0.0078, -0.0836, -0.1299,  0.0986, -0.1199, -0.1215,  0.1076,  0.0148,
        -0.0765, -0.0959,  0.0750,  0.0141, -0.0517,  0.0617, -0.1130, -0.0018,
        -0.1145, -0.0333, -0.0278,  0.1136,  0.0961, -0.0011, -0.0376,  0.0160,
         0.1630, -0.0480,  0.1366, -0.0762,  0.0474, -0.1457, -0.1089,  0.1614,
         0.1522,  0.0769, -0.0452,  0.1175,  0.0064,  0.0616, -0.0482,  0.1630]), Bias: -0.1014363244175911
tensor([-0.0775,  0.0151,  0.1496,  0.0084, -0.1340,  0.0730,  0.1032, -0.1579,
         0.0111, -0.0549,  0.0029, -0.1074, -0.0902, -0.0570, -0.0395, -0.0024,
        -0.0896, -0.1176, -0.1584,  0.0203,  0.0513, -0.0121,  0.0277, -0.0394,
         0.1059, -0.0264, -0.0494,  0.0239,  0.0223,  0.1160,  0.0294,  0.0059,
        -0.1283, -0.0174,  0.1993, -0.1722,  0.0717,  0.0774, -0.1060,  0.0009,
         0.0615,  0.1002,  0.0412, -0.1032, -0.1449,  0.0463, -0.0045,  0.0358,
        -0.0551, -0.0714, -0.0868, -0.1144, -0.1016,  0.0163, -0.0821,  0.0453,
         0.0214, -0.0289,  0.0651,  0.1075, -0.1281, -0.0636,  0.1316, -0.0772,
        -0.0201,  0.0011,  0.2916,  0.0563,  0.0763, -0.1828,  0.0492,  0.0196,
        -0.0495, -0.1086, -0.1381, -0.0976,  0.0214, -0.0816, -0.0036,  0.0593,
         0.1565, -0.0051, -0.1418,  0.0165, -0.2030, -0.0939,  0.1034,  0.0332,
         0.1030, -0.0623, -0.0921,  0.1814,  0.0923, -0.0019,  0.1297, -0.0887,
         0.0253, -0.0727, -0.0171, -0.0600,  0.0404,  0.0124, -0.0894,  0.0711,
        -0.0286, -0.0492,  0.0270, -0.0057, -0.0515, -0.0115, -0.0564,  0.1754,
         0.0256,  0.0522,  0.1158,  0.1396,  0.0260,  0.1460,  0.0795, -0.0396]), Bias: -0.02074124477803707
tensor([-0.1103, -0.1077, -0.0606,  0.0704,  0.0192,  0.0170,  0.1113, -0.0434,
        -0.0828, -0.0534, -0.0316, -0.0598,  0.0022, -0.1008,  0.1142,  0.0375,
        -0.0436,  0.0153, -0.1848, -0.0446,  0.0501, -0.0722, -0.0579, -0.0684,
         0.0183, -0.0211,  0.0685,  0.1293,  0.1300, -0.0845, -0.0296,  0.1072,
         0.0108, -0.0456,  0.1217,  0.0884,  0.0897,  0.0697,  0.0958, -0.0560,
         0.1046, -0.0250,  0.0250,  0.0470,  0.0063, -0.1681,  0.0743,  0.0335,
        -0.1304,  0.0753,  0.0815,  0.0254,  0.0338,  0.0844, -0.0432, -0.0728,
         0.0851,  0.0179, -0.0684,  0.0898,  0.0316,  0.0312,  0.0160, -0.1014,
        -0.0273, -0.0590, -0.0797, -0.0047, -0.0219, -0.1572,  0.1042, -0.1285,
         0.0970,  0.1084,  0.0626, -0.1064, -0.0720,  0.0873,  0.0622,  0.1124,
         0.0420, -0.0396,  0.0419, -0.0450,  0.0811,  0.0922, -0.0089, -0.0386,
         0.0133,  0.0594, -0.1858,  0.0282, -0.0329, -0.0019,  0.1455,  0.0396,
         0.0084,  0.0727,  0.0812, -0.0849,  0.0092, -0.0275, -0.0867, -0.0429,
        -0.0920,  0.1209, -0.2001, -0.0613,  0.1056, -0.0018, -0.0553,  0.0551,
         0.1441, -0.0745, -0.1358,  0.0427, -0.0732,  0.0098,  0.1262,  0.0582]), Bias: -0.051756955683231354
tensor([-0.0378, -0.1021,  0.0545, -0.0410, -0.0097,  0.0762, -0.1177, -0.0246,
         0.0072,  0.0923, -0.0893,  0.0438,  0.0431,  0.1010, -0.0142,  0.0622,
        -0.0671,  0.0216,  0.1412,  0.0658,  0.0482, -0.0496,  0.0769, -0.0639,
         0.0328, -0.0660, -0.1638, -0.0094, -0.0901, -0.0424, -0.2088, -0.1483,
        -0.0499, -0.0383, -0.0229,  0.0027, -0.0117, -0.1370,  0.0426,  0.0085,
         0.0566,  0.0158, -0.0510,  0.0884,  0.2319, -0.0389, -0.1103,  0.0516,
         0.0640,  0.0528,  0.1135,  0.0124, -0.0132, -0.1148, -0.0741, -0.0191,
         0.0858,  0.0415, -0.0397, -0.0308, -0.0596, -0.0211, -0.0253,  0.1436,
        -0.0123,  0.0448, -0.0663, -0.0332, -0.0588,  0.1042, -0.0012,  0.0182,
        -0.0157,  0.0403, -0.1070, -0.0716, -0.0305,  0.0988, -0.0422, -0.1098,
         0.0290,  0.0467, -0.0691,  0.0403, -0.0308,  0.0459,  0.0499,  0.1055,
         0.0736, -0.2051,  0.0556, -0.0299,  0.0447,  0.0043, -0.1221, -0.0013,
        -0.0047,  0.0267, -0.1339,  0.0083, -0.0756,  0.0683,  0.0147, -0.1134,
         0.0233, -0.0394,  0.0470, -0.0170, -0.0594, -0.1155, -0.1120, -0.0372,
         0.0727,  0.0292,  0.1018, -0.0538,  0.0604, -0.0217,  0.0883, -0.0514]), Bias: 0.0698017030954361
tensor([-0.0814,  0.1395, -0.0021, -0.2212, -0.0548, -0.0529, -0.1122, -0.0988,
         0.0470, -0.0949,  0.0305, -0.0202,  0.0849, -0.0136, -0.0360, -0.0796,
        -0.1233,  0.0651, -0.0109,  0.1577,  0.1019,  0.0381, -0.0787, -0.0417,
        -0.0955, -0.0582, -0.0944, -0.0432, -0.1625,  0.0413, -0.0370, -0.0858,
         0.0618,  0.0184, -0.1658, -0.1663,  0.0616, -0.0170,  0.0394, -0.0498,
        -0.0259, -0.0710,  0.0726,  0.0511,  0.0448,  0.0428,  0.0038,  0.0069,
         0.0450,  0.0059, -0.0461,  0.1242, -0.1141, -0.0821, -0.1636,  0.0167,
         0.0230, -0.1446, -0.0374, -0.1684,  0.1035,  0.0343,  0.0591, -0.0081,
         0.1703, -0.0029,  0.1480, -0.0309,  0.0003,  0.0128, -0.0744, -0.0325,
         0.0319, -0.0170, -0.2044, -0.0227, -0.0169, -0.0806,  0.1239, -0.0216,
        -0.0008, -0.2355, -0.0519,  0.0596, -0.0735,  0.0327,  0.1205,  0.1233,
         0.0454, -0.1330,  0.1056,  0.0835, -0.0308, -0.1862, -0.1000,  0.0072,
         0.0191, -0.0704,  0.0609,  0.1139,  0.0809, -0.0406,  0.0911,  0.0727,
         0.1884, -0.0790,  0.1432, -0.0482,  0.0096, -0.0410,  0.0102,  0.1299,
         0.0873, -0.0464, -0.0178,  0.0371,  0.0351, -0.0723, -0.0551,  0.1199]), Bias: -0.0274583101272583
tensor([-0.0527,  0.1005, -0.1068,  0.0048, -0.0550, -0.0113,  0.0688, -0.0791,
        -0.0440,  0.0153,  0.0177, -0.0860, -0.1033,  0.0050, -0.0538, -0.1036,
         0.0234,  0.0315, -0.0654, -0.0712, -0.0016, -0.1270, -0.0750, -0.1280,
         0.1276,  0.0547,  0.1786,  0.0810,  0.0820, -0.0877,  0.0826,  0.0592,
        -0.0595, -0.0198,  0.1226, -0.0020,  0.0074,  0.0474, -0.0004,  0.0241,
        -0.0126, -0.0718, -0.0536,  0.0559, -0.0655, -0.1529,  0.1357,  0.0605,
        -0.1523, -0.0591,  0.0458, -0.0910,  0.0729,  0.0953, -0.0088, -0.0335,
        -0.0179, -0.0814,  0.0325, -0.0605, -0.0691,  0.0761, -0.0050, -0.1089,
        -0.0812, -0.0397, -0.0309, -0.1406,  0.0788, -0.1237,  0.0130, -0.0062,
         0.0552,  0.1101, -0.0453, -0.0542, -0.0479, -0.0654,  0.1063,  0.0075,
         0.1192,  0.0491, -0.0039,  0.0664,  0.0344,  0.0136,  0.0306,  0.0048,
        -0.0751, -0.0446, -0.1118,  0.1286,  0.0459, -0.1510,  0.1794,  0.1090,
         0.0154,  0.1517,  0.0574, -0.0483, -0.0076,  0.0280, -0.0535, -0.0929,
        -0.1629, -0.0095, -0.1866,  0.0092,  0.0086, -0.0300, -0.0170,  0.0061,
         0.0796, -0.0118,  0.0040,  0.1424,  0.0459, -0.0640,  0.1253, -0.0621]), Bias: -0.0027922361623495817
tensor([-0.0170,  0.1057,  0.0969, -0.0719, -0.0336, -0.0697,  0.0563, -0.0212,
        -0.0599,  0.0077, -0.1172, -0.1016,  0.0043,  0.0368, -0.1124, -0.0897,
         0.0025,  0.0355,  0.1220, -0.0263,  0.0064, -0.0033, -0.0452,  0.1218,
        -0.0996, -0.0734, -0.1403, -0.0704,  0.0017,  0.0938, -0.0976,  0.0126,
         0.0555,  0.0784, -0.0509,  0.1287, -0.0154,  0.0215, -0.1138,  0.0792,
         0.0035,  0.0480,  0.0958, -0.0068, -0.0017,  0.0199, -0.0206,  0.1037,
         0.0296,  0.0600, -0.1058,  0.0714,  0.0119,  0.0404, -0.1011,  0.1430,
        -0.0022,  0.0742,  0.0003,  0.0720, -0.0779, -0.0759, -0.1045,  0.1288,
        -0.0078,  0.0886,  0.0168,  0.1228,  0.0517,  0.1604, -0.0268,  0.0058,
        -0.0834, -0.0228, -0.0090,  0.1217,  0.0368,  0.0140, -0.0186, -0.0753,
        -0.0416,  0.0284,  0.0993,  0.0396, -0.0615, -0.0591,  0.0501,  0.0037,
        -0.0443, -0.0440,  0.1182, -0.1280,  0.0299,  0.0434, -0.1792, -0.0192,
        -0.0204, -0.1350, -0.0794,  0.0551, -0.1035, -0.0087,  0.0253,  0.1104,
         0.0993,  0.0125,  0.1584,  0.0270, -0.0381, -0.0209, -0.0125,  0.0081,
        -0.0314,  0.0367,  0.0607, -0.0364,  0.0032, -0.1190, -0.1904,  0.0379]), Bias: -0.014249896630644798
tensor([ 0.0694, -0.0254,  0.0464, -0.0757,  0.0601, -0.0630,  0.0401, -0.0200,
         0.1294,  0.0283, -0.0491,  0.0663,  0.0015,  0.1039,  0.0591, -0.0009,
         0.0683, -0.0060, -0.0387,  0.0454,  0.0554, -0.0057, -0.0047,  0.0105,
        -0.0641, -0.1164,  0.0214, -0.0303, -0.0918, -0.0725,  0.0028,  0.0665,
         0.1129, -0.0715,  0.0146,  0.0793,  0.0739, -0.0468, -0.0321, -0.1325,
         0.0591, -0.0639,  0.0254,  0.0505, -0.0009,  0.0234,  0.0795,  0.0335,
        -0.0409,  0.0825, -0.1067,  0.1211, -0.0352,  0.0366,  0.0069, -0.0556,
        -0.1023, -0.1301, -0.0049, -0.0898,  0.0785, -0.0212,  0.0011, -0.1537,
         0.0897,  0.1233,  0.0928, -0.0455, -0.0998, -0.0146,  0.0652, -0.0769,
         0.0592, -0.0503, -0.0976,  0.1224,  0.0166, -0.0009,  0.0138, -0.0938,
         0.1655, -0.0882, -0.0152,  0.0294,  0.0835,  0.1318,  0.0207, -0.0235,
        -0.0464, -0.0860,  0.0385, -0.0869,  0.0728, -0.0762,  0.0027,  0.0383,
         0.0556,  0.0236, -0.0896,  0.0753,  0.1093, -0.0009,  0.0508, -0.0015,
         0.0628,  0.0091,  0.0106,  0.0690,  0.1342,  0.0003,  0.0208,  0.0459,
         0.0115,  0.0600,  0.0956,  0.0897,  0.0953,  0.0911, -0.0392,  0.0881]), Bias: 0.07974617183208466
tensor([-0.0687,  0.0508,  0.1072,  0.0491,  0.0863,  0.0515,  0.0169, -0.0669,
         0.0521, -0.0227,  0.0288, -0.0672, -0.0335,  0.1153,  0.0406,  0.0405,
        -0.1468, -0.0592,  0.0368, -0.0016,  0.0274,  0.1353, -0.0598, -0.0576,
         0.0620,  0.0320,  0.0224, -0.0036, -0.0804,  0.1885,  0.0029, -0.1060,
         0.0060, -0.0788, -0.0248, -0.0787, -0.0448,  0.0365,  0.0578,  0.0966,
         0.0755,  0.0543,  0.0044,  0.0631, -0.0557,  0.0623, -0.0530,  0.0336,
         0.0814, -0.0349,  0.0222, -0.0202, -0.0815, -0.1207, -0.0081,  0.0937,
        -0.0517, -0.0490,  0.1529,  0.0686,  0.0522, -0.1664,  0.0912, -0.0405,
        -0.1121,  0.0582,  0.1604, -0.0196, -0.0272, -0.0224, -0.0107,  0.1100,
        -0.0892, -0.1998, -0.0749,  0.0287,  0.1561,  0.0926, -0.0286,  0.0459,
        -0.0544, -0.0062, -0.1096,  0.0948, -0.0840, -0.0756,  0.0555,  0.0922,
         0.0683, -0.1689, -0.0270,  0.0355,  0.0770, -0.0193, -0.0560, -0.1958,
        -0.0617, -0.1796, -0.0378, -0.0459,  0.0338,  0.1304, -0.0738, -0.0700,
         0.0100, -0.1583, -0.0154, -0.0662,  0.0079, -0.1331,  0.0966, -0.0122,
        -0.0510,  0.0191,  0.1133,  0.0855,  0.1345,  0.0805,  0.1048,  0.0731]), Bias: -0.02074490301311016
tensor([ 0.1443,  0.0615, -0.0079, -0.1187, -0.1172,  0.0366, -0.1246,  0.1379,
        -0.0235,  0.0245, -0.0915,  0.0045,  0.0388,  0.0613, -0.0340,  0.0451,
         0.0028,  0.0163, -0.0324,  0.0221,  0.0046,  0.0799,  0.1260, -0.0083,
        -0.0335, -0.0706, -0.1182, -0.0849, -0.1274,  0.0394, -0.0472,  0.0768,
         0.0266, -0.0107, -0.1991, -0.0993,  0.0004, -0.0138,  0.0900,  0.0336,
        -0.0679, -0.0989,  0.0378,  0.0951,  0.1005,  0.0710, -0.0966, -0.0669,
        -0.1450,  0.0666, -0.0465,  0.0543, -0.0876, -0.0349,  0.0096, -0.0985,
         0.0019,  0.0340, -0.0054, -0.1319,  0.0588,  0.0218,  0.0403, -0.0375,
         0.0651,  0.0306, -0.1521, -0.0070, -0.1057,  0.1086, -0.0940, -0.0215,
         0.0190,  0.0544, -0.0095,  0.0097, -0.0091,  0.0661,  0.0428, -0.0863,
        -0.0040, -0.0979,  0.1147, -0.0053,  0.0239,  0.1214,  0.0760, -0.0499,
         0.0444, -0.0005,  0.0910, -0.1473, -0.0753,  0.0607, -0.0469,  0.0228,
         0.0811,  0.0408,  0.0142,  0.0645,  0.0741,  0.0828,  0.1158,  0.0251,
         0.0907, -0.0855,  0.0550,  0.1376,  0.0928, -0.0550, -0.0139, -0.0976,
        -0.0035, -0.0621, -0.0304, -0.1072,  0.0677, -0.0828, -0.1367, -0.0054]), Bias: -0.0012876071268692613
tensor([ 0.0286, -0.0724,  0.0944, -0.0292, -0.0349, -0.0465, -0.1620, -0.0300,
        -0.0645,  0.1354,  0.0176, -0.0226,  0.0605,  0.1007,  0.0650,  0.0698,
        -0.0419, -0.1480, -0.0286, -0.1003,  0.0755,  0.0139, -0.0518,  0.0465,
         0.1012, -0.0608,  0.0121,  0.0039, -0.0592,  0.0097,  0.0272, -0.0036,
         0.0224,  0.0597, -0.0032,  0.0656, -0.0563,  0.1435,  0.0730, -0.0568,
         0.0533,  0.0069, -0.0705, -0.0384, -0.0157, -0.0582, -0.0390, -0.0105,
        -0.1151,  0.0736, -0.1597, -0.0181,  0.0823, -0.0634,  0.0432,  0.1138,
        -0.0875, -0.0692,  0.0078,  0.0529,  0.0068, -0.1885,  0.1642, -0.1375,
        -0.0955,  0.0822, -0.0575, -0.0660, -0.0375,  0.1642, -0.1031,  0.1677,
         0.0427, -0.1261, -0.0374,  0.1960,  0.1621,  0.0323,  0.0338, -0.1442,
         0.0561, -0.0714,  0.0590,  0.0500, -0.0325,  0.0193,  0.0396, -0.0271,
        -0.0868, -0.0575,  0.1150,  0.0265,  0.0664,  0.0800, -0.0477, -0.0076,
         0.0877, -0.0765,  0.0496,  0.1238, -0.0237,  0.0701,  0.1455,  0.0303,
        -0.0629, -0.1044,  0.1341,  0.0084,  0.1052, -0.0511,  0.0786, -0.0659,
        -0.2082,  0.0328,  0.0855, -0.0204,  0.0468, -0.0150, -0.1132, -0.1115]), Bias: -0.10536878556013107
tensor([-0.0091,  0.0419, -0.1764,  0.0940, -0.0170, -0.0142,  0.0745,  0.0818,
         0.0961,  0.0156, -0.1631, -0.0692,  0.1538, -0.1626,  0.0532,  0.0881,
         0.1458,  0.1149, -0.0008, -0.0028,  0.0126, -0.0442, -0.0986,  0.0147,
        -0.0978,  0.0070,  0.0300,  0.0281,  0.1090, -0.0325,  0.0849,  0.0252,
         0.0353,  0.0615, -0.0256,  0.1065, -0.0268,  0.0034, -0.0135,  0.0469,
         0.0671, -0.1525, -0.0132, -0.0906,  0.0484, -0.0672,  0.1085, -0.0313,
        -0.0582, -0.0644, -0.0344, -0.0144,  0.1074,  0.1040, -0.1002, -0.0691,
         0.0766,  0.0248, -0.1415, -0.1325,  0.0748, -0.0055, -0.2548, -0.0490,
         0.0816,  0.0808, -0.1744, -0.0025,  0.0087,  0.1293,  0.0180, -0.0865,
         0.1357,  0.0936, -0.0037, -0.0806, -0.0968,  0.0543, -0.0723,  0.0655,
         0.0628,  0.1029,  0.0888, -0.0449,  0.0069,  0.0319,  0.0313, -0.1270,
        -0.0475,  0.0458, -0.0226, -0.1145,  0.0729, -0.0561, -0.0882,  0.1863,
         0.0094,  0.1513,  0.0453, -0.0016,  0.1096, -0.1560,  0.0648,  0.0342,
         0.0847,  0.1990, -0.0094,  0.0693,  0.0631,  0.0068, -0.1264, -0.0907,
         0.0990,  0.0656, -0.1414,  0.0224, -0.0264, -0.1632, -0.0110,  0.1146]), Bias: 0.04804156348109245
tensor([-6.0466e-04,  7.3721e-02, -4.6658e-02,  5.6059e-02,  1.3610e-02,
        -1.7620e-04, -4.5283e-02, -5.7259e-02,  2.4718e-02, -1.5035e-01,
        -3.2745e-02, -4.8468e-02, -8.6063e-02, -2.1300e-02, -4.9690e-02,
         3.5629e-02, -6.4067e-02, -1.2787e-01, -1.3154e-01,  4.8343e-02,
        -1.0710e-01,  7.2998e-02, -9.6747e-02, -7.7047e-02, -8.2364e-02,
        -1.3282e-02,  1.3634e-01,  1.7750e-02,  1.0485e-01, -8.9695e-02,
         1.2340e-01,  7.0191e-02,  4.5345e-02,  5.4163e-02,  1.0037e-01,
         6.8862e-02, -7.2848e-02,  3.0475e-02, -1.2894e-01, -8.9487e-02,
         1.6521e-01, -6.1462e-04,  5.5933e-02,  1.7903e-03, -1.2002e-01,
        -1.4382e-01, -9.7891e-02, -1.2551e-02,  8.1083e-02, -4.3928e-02,
         6.7328e-02, -9.1686e-02, -7.3818e-02,  1.0429e-01, -6.8644e-03,
        -8.2060e-02, -5.7064e-02, -2.1193e-02,  2.7107e-02,  6.2929e-02,
        -1.0507e-01, -6.4658e-02,  2.8187e-02, -4.7751e-02, -1.2769e-01,
         1.1117e-01,  6.2366e-02, -9.1003e-02, -2.7694e-02, -1.0343e-01,
         1.4159e-01, -6.4218e-02,  3.8830e-02, -2.5118e-02,  4.2614e-02,
        -9.8716e-02, -2.9187e-02,  4.8829e-02, -6.6178e-02,  7.0782e-02,
         2.3726e-02,  9.1936e-02, -4.5655e-02, -1.2118e-01, -5.6242e-02,
         1.7308e-04,  6.0464e-03, -9.9170e-02, -6.4499e-02,  5.6688e-03,
        -1.1915e-01,  8.4595e-02, -1.2669e-02,  3.0501e-02,  1.5088e-01,
        -1.8875e-02,  5.5695e-02, -5.3614e-02,  6.9905e-02,  6.1883e-02,
         2.3899e-02, -1.9358e-01,  5.0225e-02,  1.1580e-01, -1.4965e-01,
        -4.2661e-02, -8.0565e-02, -1.8546e-03,  8.2971e-02,  3.0772e-02,
        -8.5032e-02,  9.5266e-02, -3.6540e-02,  4.5061e-03, -7.8852e-02,
         1.5000e-01,  7.5439e-02,  7.0518e-02,  1.3437e-01,  6.4426e-02]), Bias: 0.048559390008449554
tensor([-8.9465e-02, -1.0195e-01, -5.2726e-02,  4.3070e-02,  1.3035e-01,
         8.4708e-02,  9.5171e-03, -3.1923e-03,  2.5322e-02,  1.1288e-01,
         1.8525e-02, -1.3565e-04,  1.5157e-02, -6.4112e-02,  2.0631e-01,
         9.6809e-02,  4.6213e-02, -8.5443e-02, -9.3668e-02,  4.4900e-02,
         4.6586e-02, -7.6842e-02,  1.2954e-01,  2.7844e-02,  1.0252e-01,
        -3.2647e-02, -1.2868e-01, -4.0233e-02,  6.6039e-02,  3.4303e-02,
         3.8265e-02,  3.7417e-02,  1.3778e-03, -9.2130e-02, -1.6135e-02,
        -1.1499e-01,  1.5068e-01,  1.6925e-02,  6.8219e-02, -1.4143e-01,
        -1.5183e-02, -5.4285e-02,  8.0600e-02,  1.2247e-01, -1.7629e-02,
        -1.5928e-01,  3.5456e-02, -1.0993e-01, -4.1528e-02,  3.1841e-02,
        -8.1686e-02,  1.4686e-02,  1.4704e-02,  1.1152e-01,  1.4209e-01,
        -8.2658e-02, -1.8505e-02, -1.8526e-01, -3.1847e-02, -3.0712e-02,
         1.4928e-01, -6.1373e-02,  1.5578e-01, -1.6796e-01, -3.5018e-02,
         6.3295e-02, -6.6958e-02, -8.1164e-02, -3.2582e-02, -8.6853e-02,
        -4.8466e-03, -4.4558e-02,  1.5056e-01,  9.8137e-02,  1.8195e-02,
        -5.3027e-02,  1.0877e-01,  8.9864e-04,  4.6106e-02, -6.2940e-02,
         2.5164e-02, -1.0200e-01,  1.3364e-02,  2.3589e-03,  1.2553e-01,
         1.4426e-02, -4.0097e-02, -5.6625e-02, -4.0506e-02, -9.6624e-02,
        -3.1213e-02, -2.5048e-02, -5.6741e-02,  7.6539e-02,  1.5533e-02,
         1.8360e-03,  1.4292e-01,  8.1617e-02, -2.6679e-02,  2.0637e-02,
         1.9079e-01, -1.8512e-02, -7.0819e-02, -9.0098e-02,  4.2559e-03,
         7.9168e-02, -6.3980e-02, -1.3338e-01,  2.4277e-02,  5.6133e-02,
        -3.8961e-02,  7.1452e-02, -8.9573e-02,  4.2269e-02,  6.2557e-02,
        -2.8223e-02,  1.0381e-01,  1.6735e-02,  7.8892e-02,  9.7880e-02]), Bias: -0.08116693049669266
tensor([-0.0822, -0.0552,  0.0506, -0.0097,  0.0846,  0.0778,  0.0350, -0.0208,
        -0.0701,  0.0842,  0.0486,  0.0476, -0.1716,  0.0647,  0.0256,  0.0023,
        -0.0116, -0.0672, -0.0812, -0.1175,  0.0424,  0.0612, -0.0353, -0.0248,
         0.1970,  0.0752,  0.1937,  0.1332,  0.0624,  0.0126, -0.0339,  0.0522,
        -0.0715, -0.0374,  0.1503, -0.0949,  0.0426,  0.0840,  0.1615, -0.0819,
        -0.0029, -0.0005,  0.0686,  0.0682,  0.0078, -0.0683,  0.1018, -0.0276,
        -0.2172,  0.1135, -0.0938, -0.0954,  0.0443, -0.0124,  0.2765,  0.1582,
        -0.1132, -0.0707,  0.0273,  0.2229,  0.0343, -0.1231,  0.2631, -0.0764,
        -0.1318, -0.0297,  0.1086, -0.1090, -0.0483, -0.0856, -0.0268,  0.0537,
         0.0721, -0.1217,  0.0451,  0.1836,  0.0363, -0.1097,  0.0810, -0.1501,
         0.0462,  0.0184,  0.0239,  0.0075, -0.0306,  0.0188, -0.0459,  0.1109,
         0.0687, -0.0379, -0.0514,  0.0205,  0.0337, -0.0728,  0.2001, -0.0229,
        -0.0044,  0.0356, -0.0425, -0.1144,  0.0576,  0.1475, -0.0275,  0.0653,
        -0.0642, -0.1582, -0.0064, -0.0198,  0.0530,  0.0254,  0.2147,  0.0735,
        -0.1127, -0.0697, -0.0237,  0.1484, -0.0291, -0.0041,  0.1356, -0.1827]), Bias: -0.09154802560806274
tensor([-0.0937, -0.0040,  0.0011,  0.1169,  0.0125,  0.0512,  0.0257, -0.0145,
         0.0090, -0.1372, -0.0684,  0.0601, -0.1182,  0.0140,  0.0504,  0.0120,
        -0.0584, -0.0680, -0.1342, -0.1286, -0.0145,  0.0091,  0.0525, -0.0164,
        -0.0131, -0.1063,  0.0557,  0.0284,  0.0443, -0.0592, -0.1024,  0.0370,
        -0.0751,  0.0236,  0.0049, -0.1392,  0.0223, -0.0091, -0.0597, -0.0179,
        -0.0274,  0.0976, -0.1042, -0.0159,  0.0554, -0.1048, -0.0723, -0.0649,
        -0.0664, -0.0228,  0.1447, -0.0646, -0.0815, -0.0311, -0.0969,  0.0014,
         0.1036, -0.0860, -0.0626, -0.0888, -0.0971,  0.0976, -0.0614,  0.0925,
        -0.0188, -0.1108,  0.1273,  0.0350,  0.0666, -0.1343,  0.1068, -0.0313,
        -0.0209,  0.0340, -0.0210, -0.2010, -0.0506,  0.0034,  0.0030,  0.1048,
         0.0649, -0.0519, -0.0524, -0.1002, -0.0935, -0.1350,  0.0897, -0.0173,
         0.0586, -0.0949, -0.0438,  0.1761, -0.0522, -0.1147,  0.0028,  0.1262,
        -0.0222, -0.0400,  0.0358, -0.0047,  0.0469, -0.0281, -0.1348, -0.0096,
        -0.0487, -0.0849, -0.1695, -0.0221, -0.0389, -0.1086, -0.1101,  0.0046,
         0.1077, -0.0957,  0.0114,  0.0674,  0.0772,  0.0583,  0.0467, -0.0517]), Bias: -0.0020037523936480284
tensor([-0.1519,  0.0865, -0.1372,  0.0015,  0.1272, -0.1039,  0.0257, -0.0842,
         0.1103, -0.0992, -0.0460, -0.1540,  0.0243, -0.0831,  0.0209, -0.0707,
         0.0921,  0.0554, -0.0135,  0.0742, -0.0047,  0.0580, -0.0924, -0.0927,
        -0.0334,  0.0789, -0.0315,  0.0047,  0.1451, -0.0277,  0.0165,  0.0427,
         0.0028, -0.0521,  0.1243,  0.0102,  0.1005,  0.0304, -0.0514, -0.1569,
         0.1550, -0.0165,  0.0982,  0.0817, -0.0292, -0.1295, -0.0391, -0.0009,
         0.0425, -0.0700, -0.0339, -0.0206,  0.0383,  0.0800,  0.0043, -0.0952,
        -0.1160, -0.0145,  0.0825,  0.0694,  0.0353,  0.0409,  0.0209, -0.0953,
         0.0053, -0.0417,  0.0661, -0.0244,  0.0144, -0.0025,  0.0306, -0.0860,
         0.1093,  0.0579, -0.0264,  0.0765,  0.0419,  0.0855,  0.1630,  0.0631,
        -0.0860, -0.0263, -0.0211, -0.0343,  0.0222,  0.0683, -0.0330, -0.0204,
         0.0487,  0.0108, -0.1301,  0.0731, -0.0759, -0.0428,  0.1096,  0.0337,
        -0.0166, -0.0607,  0.0676, -0.0040,  0.1395, -0.0054, -0.0624, -0.0025,
        -0.0665, -0.0448, -0.0442,  0.0062, -0.0083,  0.0817,  0.0175,  0.1897,
        -0.0070, -0.0251, -0.0781,  0.0435,  0.0643, -0.0451,  0.1267,  0.0926]), Bias: 0.013756779953837395
tensor([ 0.0156,  0.0154, -0.0273,  0.0291,  0.0875,  0.0083,  0.0937,  0.0412,
        -0.0643, -0.1085,  0.0415,  0.0606,  0.0783, -0.0477,  0.0807, -0.0543,
         0.1444,  0.1028,  0.0510,  0.0384,  0.0877, -0.1289, -0.0681, -0.1024,
         0.0629,  0.0989, -0.0948,  0.1051,  0.0959,  0.0225,  0.0513, -0.0889,
        -0.0766,  0.0474, -0.0468,  0.0357,  0.0771,  0.0120,  0.0229,  0.1324,
        -0.0766,  0.0037, -0.0288,  0.0567, -0.0438,  0.0675,  0.1053, -0.0566,
         0.0889,  0.0289, -0.0233, -0.0625, -0.0672, -0.0957, -0.1193, -0.0497,
         0.1598, -0.0562,  0.0312, -0.0959, -0.0933,  0.1607, -0.0663,  0.1335,
         0.0600, -0.1188,  0.0790,  0.1305,  0.1308, -0.0876, -0.0599,  0.0408,
         0.0022,  0.0132,  0.0602, -0.2288, -0.0908, -0.0145,  0.0545,  0.1809,
        -0.1412,  0.0846,  0.0066, -0.0020, -0.0611, -0.1043, -0.0989, -0.0492,
         0.1264,  0.0098, -0.0450,  0.0005,  0.0583,  0.0607, -0.0292, -0.0420,
         0.0083, -0.0482,  0.0912,  0.0084, -0.0447, -0.0204, -0.1764,  0.0369,
        -0.0024,  0.0252, -0.1087, -0.1773, -0.0609,  0.0756,  0.0760, -0.0331,
         0.1521, -0.1104, -0.0853,  0.0617, -0.0809,  0.0436,  0.0880,  0.0530]), Bias: -0.10231512039899826
tensor([-0.1856,  0.0538, -0.1318,  0.0283,  0.0814, -0.0345,  0.0028,  0.0518,
         0.0885,  0.0420, -0.0757, -0.1101,  0.0400,  0.0288,  0.1022, -0.0282,
         0.0726,  0.1222, -0.1823,  0.0603,  0.0261, -0.0789,  0.0802, -0.1347,
        -0.0358,  0.0155,  0.0736,  0.0603,  0.1292, -0.0278, -0.0526,  0.1680,
         0.0318, -0.0900,  0.0138, -0.0925,  0.0149, -0.0191,  0.0665, -0.1571,
         0.1324, -0.0052,  0.0449, -0.0486,  0.0735, -0.2326,  0.0583,  0.0019,
        -0.1116,  0.0430,  0.0417,  0.0765, -0.0976,  0.1338,  0.0086, -0.1530,
        -0.1310, -0.1499, -0.1438, -0.0003,  0.0797,  0.0677, -0.0520, -0.1114,
         0.1307,  0.0863, -0.0476, -0.1294, -0.0234, -0.0079, -0.0317, -0.0189,
         0.2125, -0.0129, -0.0414,  0.0206,  0.0502,  0.0632,  0.1424, -0.0816,
         0.0498, -0.1049, -0.0934, -0.0087,  0.0703, -0.0600,  0.1095,  0.0157,
         0.0476,  0.0222, -0.1686,  0.1225, -0.0449, -0.0755,  0.0738,  0.0971,
         0.0069,  0.1081, -0.0137,  0.0516,  0.1459, -0.1212, -0.0978,  0.0094,
        -0.1025,  0.0647, -0.0851, -0.1528,  0.1017,  0.0947, -0.1392,  0.0321,
         0.0014,  0.0123, -0.0514,  0.0486,  0.0330, -0.0276,  0.0042,  0.1332]), Bias: -0.09281738847494125
tensor([ 0.1608, -0.0089, -0.0607, -0.1183,  0.0432, -0.0878,  0.0298,  0.0907,
         0.0183,  0.0363, -0.0692, -0.0518,  0.1311,  0.1208, -0.1093,  0.0652,
         0.0205,  0.0809,  0.2287,  0.0519, -0.0602,  0.1159, -0.0206,  0.0179,
        -0.0140, -0.0792,  0.0154, -0.0736, -0.2118, -0.0481, -0.0740, -0.0674,
        -0.0086,  0.0451, -0.1638,  0.0721, -0.1048, -0.0290,  0.0755,  0.1636,
        -0.0593,  0.0908, -0.0185,  0.0127,  0.0752,  0.0915, -0.1504,  0.0524,
         0.1564,  0.1091,  0.0057,  0.1353,  0.0278,  0.0233, -0.0010,  0.1236,
        -0.0075, -0.0533, -0.0194, -0.0390,  0.0121,  0.0763, -0.0078,  0.2022,
         0.0039,  0.0963, -0.1015,  0.0198,  0.0292,  0.0656, -0.1226,  0.1038,
        -0.0303, -0.0857, -0.0011,  0.1497,  0.1283,  0.1080,  0.0010, -0.0194,
        -0.1299,  0.0125,  0.1671, -0.0031,  0.0320,  0.0530,  0.0282,  0.0679,
        -0.0498, -0.0609,  0.0783, -0.1330,  0.1009, -0.0510, -0.2336, -0.0781,
        -0.1249, -0.0127, -0.1250, -0.0149, -0.0137,  0.1028,  0.0981,  0.0813,
         0.0249, -0.0957,  0.0854,  0.1471, -0.1182, -0.0528, -0.0589, -0.1517,
        -0.1170,  0.0482,  0.0452, -0.1479,  0.1074,  0.0734, -0.1748, -0.0391]), Bias: 0.07296931743621826
tensor([-0.1016,  0.1165, -0.0309, -0.1071,  0.1713, -0.0317, -0.0674, -0.0943,
         0.1086,  0.0746, -0.1257,  0.0018, -0.0812,  0.0581,  0.0938, -0.0139,
         0.0221,  0.1158,  0.0793,  0.0186,  0.0683,  0.0726, -0.0458, -0.0281,
         0.0351, -0.0080,  0.0634, -0.1049,  0.0222, -0.0227,  0.0676,  0.1238,
        -0.0335,  0.1002,  0.0556,  0.0181, -0.0046,  0.0134, -0.0920, -0.1371,
         0.1192, -0.0843,  0.0329,  0.0230, -0.1394, -0.1402,  0.0629, -0.0752,
         0.0574, -0.0540, -0.2202, -0.0091,  0.0574,  0.0172,  0.0137,  0.0964,
        -0.0832, -0.0949,  0.0197,  0.0653,  0.1686, -0.0291,  0.0370, -0.1554,
         0.0737,  0.1155,  0.0686, -0.0678,  0.0435,  0.0985,  0.0519,  0.0803,
         0.1050,  0.0561, -0.1114,  0.1708,  0.0096, -0.0466,  0.0854,  0.0502,
         0.0214, -0.1834, -0.0629,  0.0981,  0.0049,  0.0607,  0.0956, -0.0141,
        -0.1062,  0.0936, -0.0029,  0.0112, -0.0956,  0.0227,  0.0980, -0.0356,
         0.0060,  0.0784, -0.0600,  0.0403,  0.1012, -0.0452, -0.0139, -0.0158,
        -0.0997, -0.0535,  0.1272, -0.0037,  0.0992,  0.1056,  0.0240,  0.1475,
        -0.0295,  0.0386, -0.0400,  0.0854, -0.0791, -0.1354, -0.1133,  0.1315]), Bias: -0.10999725013971329
tensor([ 0.0784,  0.0925, -0.1128,  0.0003,  0.0624,  0.0585,  0.0917, -0.0327,
         0.0821,  0.1085, -0.0792, -0.1387,  0.0066,  0.0314,  0.0492,  0.0511,
         0.0741, -0.1097,  0.0838,  0.0643,  0.0141, -0.0108, -0.0353,  0.0890,
         0.0148, -0.0685,  0.0320,  0.0432,  0.0464, -0.0042,  0.0560,  0.0995,
        -0.0315,  0.0079,  0.0056,  0.0171, -0.0358,  0.1133, -0.0179, -0.1130,
        -0.0147,  0.0413, -0.0605,  0.0662, -0.0309,  0.0396,  0.0999,  0.0450,
        -0.0679, -0.0098, -0.1947, -0.0282,  0.0327,  0.0246, -0.0094,  0.1245,
        -0.0844, -0.0864, -0.0666,  0.1350,  0.0072, -0.0730,  0.0620, -0.1502,
         0.0134, -0.0610, -0.1084, -0.1098, -0.0640,  0.1824, -0.0013, -0.0790,
         0.1391, -0.0555,  0.0393,  0.2215,  0.0050,  0.0600,  0.1291, -0.0259,
         0.0489,  0.0403, -0.0488,  0.0783,  0.1351,  0.1009, -0.0026, -0.0774,
        -0.0760, -0.0483, -0.0874, -0.1118, -0.0496,  0.0741,  0.1434, -0.0336,
        -0.0525, -0.0242, -0.1081,  0.0777,  0.1672,  0.0259,  0.1121, -0.0834,
        -0.0131, -0.0307,  0.1129,  0.0539,  0.0350,  0.0039,  0.0884,  0.0458,
        -0.0542, -0.0699, -0.0629,  0.1674,  0.0783, -0.0686,  0.0303,  0.1391]), Bias: 0.017713038250803947
tensor([-6.0311e-02, -5.3059e-02, -3.0424e-02,  1.2084e-01, -9.0381e-03,
         4.6521e-02,  6.3941e-02,  1.6421e-01, -1.2301e-01, -2.8532e-02,
        -1.0712e-01, -1.3635e-02, -4.2627e-03,  5.0518e-02,  1.1894e-01,
         5.9098e-02,  1.3742e-01, -1.0037e-01,  6.0817e-02, -1.4629e-01,
        -3.1320e-02,  4.9033e-02, -1.7001e-02,  1.7144e-02,  2.6694e-02,
        -3.0825e-02,  8.1636e-02,  7.3050e-03,  7.6734e-02,  1.1163e-04,
        -1.5782e-01, -9.9246e-02,  7.2938e-02, -4.1605e-02,  1.2888e-03,
        -1.2563e-02,  3.9024e-02,  9.6997e-02,  1.4114e-01, -8.1518e-02,
         4.0197e-02,  1.1385e-01, -6.3071e-02, -3.3535e-02,  1.2806e-01,
        -1.2964e-01, -6.9952e-02, -1.9674e-02, -7.1821e-02,  9.4266e-02,
         1.6496e-01,  2.4978e-02, -9.0033e-02,  1.4784e-01, -1.5143e-02,
        -9.4180e-03, -3.6082e-03, -3.1748e-02, -7.2534e-03, -9.5271e-02,
        -3.0679e-02, -6.8872e-02,  7.8509e-02,  1.3375e-01, -1.1849e-01,
        -2.1230e-02, -8.5223e-03,  7.1205e-02, -1.2993e-02,  6.9642e-02,
        -6.5491e-02,  1.7855e-02,  2.0732e-02,  8.2681e-03, -3.1936e-03,
        -1.4082e-01,  1.0164e-03,  5.6027e-02, -6.6607e-02, -1.4746e-01,
        -8.6154e-02, -2.1777e-02,  1.0664e-02, -3.1923e-02,  1.2123e-01,
        -7.1228e-02,  5.8165e-02, -4.7874e-03,  8.6684e-02, -5.1433e-02,
         5.2711e-02,  6.3366e-02,  3.8486e-02,  5.1800e-02, -8.1063e-02,
        -3.5883e-02,  7.7814e-03, -1.6736e-02,  1.2601e-02, -1.1151e-01,
        -2.2443e-02, -7.4856e-02, -1.2945e-01, -1.3261e-02, -2.8297e-03,
        -6.0839e-02, -1.5184e-01,  2.8994e-02, -7.6861e-02,  6.8512e-02,
         2.2970e-02, -4.1885e-02, -1.2272e-01, -7.8639e-02, -5.5273e-02,
        -8.1901e-02,  1.0206e-01,  1.0743e-01,  6.4772e-02, -1.2708e-01]), Bias: 0.01565982587635517
tensor([-0.1490,  0.0626, -0.0136, -0.0028,  0.0169,  0.0969, -0.0018, -0.1627,
        -0.0564, -0.1265, -0.0641,  0.0413, -0.0150, -0.0772, -0.0891, -0.0828,
         0.0349,  0.0469, -0.0429, -0.0640, -0.1004, -0.0544, -0.0503,  0.0231,
         0.0661,  0.0831,  0.0443, -0.0068, -0.0436, -0.0743, -0.0423, -0.0037,
        -0.0500, -0.0579,  0.0390, -0.1248,  0.0489, -0.0569,  0.0427,  0.1260,
        -0.0684, -0.0786,  0.0552, -0.1203, -0.0145, -0.0460,  0.0252,  0.0294,
         0.0170, -0.0405,  0.1309, -0.0066, -0.0597, -0.1027, -0.0229,  0.0156,
         0.1521, -0.0373,  0.0496,  0.0662, -0.0237, -0.0314, -0.1090, -0.0120,
        -0.0003, -0.0313,  0.1637,  0.0137, -0.0462, -0.0471, -0.0459, -0.0681,
        -0.0253,  0.0409, -0.1057, -0.1639, -0.0993, -0.0596, -0.0969,  0.1243,
         0.0256,  0.0462, -0.0230,  0.0087,  0.0600, -0.1335, -0.0866,  0.1054,
         0.1027, -0.0427, -0.1219,  0.1451, -0.0503, -0.1190, -0.0605, -0.0006,
        -0.0999,  0.0334,  0.1129,  0.0167,  0.0168, -0.0701, -0.1023, -0.0182,
        -0.0694,  0.0617, -0.0963,  0.0421, -0.0511, -0.0515, -0.0533,  0.0798,
         0.0400, -0.1032,  0.0097, -0.0630, -0.1106, -0.0599,  0.0711, -0.0355]), Bias: -0.08590276539325714
tensor([ 0.0797, -0.0643,  0.0431, -0.0363,  0.0147, -0.0917,  0.0168, -0.0086,
        -0.1046, -0.0654,  0.1118,  0.0922,  0.0785, -0.1166, -0.0754, -0.1112,
        -0.0629,  0.0918,  0.1535, -0.1020, -0.1335,  0.0362, -0.0465,  0.0005,
         0.0565, -0.0052,  0.0101, -0.0051, -0.0579, -0.0258, -0.0557, -0.1854,
        -0.0158,  0.0971,  0.1041,  0.0222,  0.0201,  0.0160,  0.0764,  0.1932,
        -0.1260, -0.0452, -0.0145, -0.0836, -0.0745,  0.1558, -0.1043,  0.0696,
         0.1078, -0.0131,  0.1261, -0.0559,  0.1247,  0.0621, -0.1066, -0.0244,
         0.1608,  0.1840, -0.0006,  0.0410, -0.1012,  0.1144, -0.0830,  0.2121,
        -0.0511, -0.0550, -0.0028,  0.0854, -0.0340, -0.0251,  0.0136, -0.0461,
        -0.1636, -0.0427, -0.0373, -0.1015, -0.0511,  0.0523, -0.1406,  0.0581,
        -0.1747,  0.1826, -0.0297,  0.0021, -0.0337, -0.1394, -0.0628,  0.0356,
         0.0935, -0.0298, -0.0368, -0.0281,  0.0764,  0.0587, -0.1396,  0.0824,
        -0.1622, -0.0362,  0.0269, -0.0320, -0.2200, -0.0702,  0.0725,  0.0718,
        -0.0375, -0.0291,  0.0399, -0.0565, -0.0727, -0.0838,  0.0180, -0.1485,
         0.0054, -0.1548, -0.0256, -0.1046, -0.0803, -0.0761, -0.0279, -0.0999]), Bias: 0.05506626516580582
tensor([ 0.0204, -0.1577, -0.1309,  0.0414,  0.0830,  0.1032, -0.0119,  0.2097,
         0.1030,  0.1175, -0.1047,  0.0620,  0.0268,  0.0923,  0.2109,  0.1084,
         0.1421, -0.0855, -0.1462,  0.0104,  0.0392,  0.0457,  0.1202,  0.0474,
         0.0468, -0.0932, -0.1814, -0.0178,  0.1350,  0.0008, -0.0834,  0.0930,
         0.1383, -0.1034, -0.1813,  0.0666,  0.1112, -0.0506,  0.0388, -0.0553,
         0.1317, -0.0487, -0.0710,  0.0241,  0.1422,  0.0330, -0.0657, -0.0742,
         0.0020, -0.0267,  0.0397,  0.1568, -0.2130, -0.0137,  0.0244, -0.1388,
        -0.0699, -0.1513, -0.0486, -0.0414,  0.0466, -0.1545,  0.1399, -0.0851,
         0.0576,  0.0124, -0.1994,  0.1687, -0.0441, -0.0011, -0.0430, -0.1054,
        -0.0395,  0.0882,  0.1890,  0.0130,  0.0834,  0.0621,  0.0418, -0.1449,
         0.0830,  0.0155,  0.0637, -0.0740,  0.0203,  0.1601, -0.0072, -0.0511,
        -0.0690, -0.0046, -0.0146, -0.1863, -0.0628,  0.1742,  0.0050, -0.0633,
         0.0226,  0.0574, -0.1873, -0.0104,  0.0883,  0.0047,  0.0364, -0.0768,
         0.1353, -0.0042, -0.0506,  0.0052, -0.0167,  0.0019,  0.0303,  0.0005,
        -0.0780,  0.1097, -0.0982, -0.0734,  0.1158,  0.0440,  0.0179, -0.0047]), Bias: -0.004325239919126034
tensor([-0.0671,  0.0724,  0.0473, -0.0473, -0.0654,  0.0597,  0.1184, -0.1167,
         0.0066, -0.0186, -0.0189,  0.1284,  0.0104,  0.0258,  0.0625,  0.0576,
        -0.0326,  0.1476,  0.0816,  0.0597,  0.0433, -0.1281, -0.0750,  0.0626,
        -0.1054,  0.0190,  0.0073,  0.1223,  0.0112,  0.0212, -0.1211, -0.1012,
        -0.0194, -0.0108, -0.0517, -0.0795, -0.0300, -0.0686,  0.0873,  0.1751,
        -0.1462,  0.0260, -0.0304, -0.0761,  0.0091, -0.0447,  0.1631, -0.1237,
        -0.0755, -0.0959,  0.0680, -0.1029, -0.0223, -0.0644, -0.0280, -0.0092,
         0.2049, -0.0230, -0.0778, -0.0179, -0.1061,  0.1407, -0.0743,  0.0839,
         0.1253, -0.1281, -0.0787,  0.0283, -0.0768, -0.0583, -0.1297, -0.0132,
        -0.0550,  0.0801,  0.0276, -0.1379,  0.0457, -0.0174, -0.0429,  0.1154,
        -0.1363, -0.0110, -0.0006, -0.0403,  0.0435,  0.0303, -0.0665,  0.1568,
         0.0866, -0.1176, -0.0085,  0.0641,  0.0036,  0.0034, -0.0773,  0.0378,
        -0.1181,  0.1492, -0.0452,  0.0266, -0.1338,  0.0789, -0.1079, -0.0936,
         0.0173,  0.0243, -0.0184, -0.0314, -0.1155, -0.1026,  0.0703, -0.0955,
         0.2327, -0.0888,  0.0769, -0.0260,  0.0358, -0.1299,  0.1042,  0.0310]), Bias: 0.012475786730647087
tensor([-0.0721, -0.0909,  0.0481,  0.0837,  0.0874,  0.0208,  0.1295, -0.0336,
        -0.0526, -0.0269, -0.0735, -0.0270,  0.0214,  0.0609, -0.0890, -0.1179,
        -0.1386,  0.0610,  0.0908, -0.1079, -0.1128, -0.0605, -0.1084, -0.0062,
        -0.0595,  0.0028,  0.0633, -0.0369,  0.0276, -0.1463,  0.0295, -0.1527,
         0.0472,  0.0542,  0.0710,  0.1336, -0.0692,  0.0431,  0.0679, -0.0062,
         0.0032,  0.1288,  0.1216,  0.0527,  0.1421, -0.0656, -0.1308,  0.0367,
        -0.0044, -0.0033,  0.1069, -0.0203, -0.0319,  0.0082, -0.1260, -0.0067,
        -0.0144,  0.0470, -0.1117,  0.0176, -0.1039,  0.0501,  0.0467,  0.0279,
        -0.0304,  0.1514, -0.0334, -0.1186, -0.0214, -0.0195,  0.0531, -0.0584,
         0.1073,  0.0737, -0.1476,  0.0633,  0.0316,  0.0848, -0.1135, -0.0090,
        -0.0507,  0.0905,  0.0419, -0.0309,  0.1172, -0.0224,  0.0896,  0.1020,
         0.0400, -0.0212, -0.0844,  0.0570,  0.0442, -0.1834, -0.0801, -0.0238,
        -0.1148,  0.0332,  0.0653,  0.0865, -0.1379,  0.0039, -0.0752, -0.0353,
        -0.1663, -0.0691, -0.0181, -0.0472, -0.0130,  0.0421,  0.0296, -0.0371,
        -0.0425,  0.0298,  0.0229,  0.0394,  0.0165, -0.0513,  0.0712,  0.0125]), Bias: -0.02694041095674038
tensor([-0.0430,  0.1256, -0.0259, -0.1522, -0.0476,  0.0331, -0.0706, -0.0590,
         0.1338, -0.1060, -0.0088, -0.0240, -0.0083,  0.0229,  0.0465,  0.0768,
         0.0386,  0.0434, -0.0400,  0.0441,  0.0475, -0.0073, -0.0447,  0.0022,
         0.0487, -0.0895,  0.0057, -0.1072, -0.0716,  0.0307,  0.0474,  0.0217,
         0.0063,  0.0928, -0.0523, -0.0735,  0.0866, -0.0960, -0.1118, -0.0892,
        -0.0751,  0.0307, -0.0542,  0.0214,  0.0025,  0.0324, -0.0400,  0.0170,
        -0.0678,  0.0734, -0.0643,  0.1057, -0.0292, -0.0428, -0.0738, -0.0641,
        -0.0138, -0.0598,  0.0294, -0.1727,  0.0345, -0.0260, -0.0317, -0.0237,
         0.1372,  0.1312,  0.1588, -0.1255, -0.1135, -0.1016, -0.0449, -0.0294,
         0.0964, -0.0128, -0.0103, -0.0805,  0.0061,  0.0761, -0.0338,  0.0756,
         0.1175, -0.0917, -0.0825,  0.0403, -0.0941, -0.0578,  0.0908, -0.0044,
        -0.0648, -0.0903,  0.0056,  0.1454,  0.0084, -0.1506, -0.0998,  0.0873,
         0.0533, -0.0426,  0.1029,  0.0465,  0.1735, -0.0191, -0.1042,  0.0077,
         0.0306, -0.0489, -0.0565, -0.0586,  0.0739,  0.0489,  0.0161,  0.0452,
        -0.0263,  0.1232,  0.0770, -0.0902, -0.0527, -0.0121, -0.0975,  0.0466]), Bias: 0.03862475976347923
tensor([ 0.0216,  0.0387, -0.0215, -0.1156, -0.1373, -0.0679,  0.0652, -0.0492,
         0.0730,  0.1079, -0.0418,  0.0563,  0.0632, -0.0128, -0.0491,  0.0625,
        -0.0450,  0.1240,  0.0364,  0.0828,  0.0153, -0.0617,  0.0450,  0.0669,
         0.0114,  0.0399, -0.1309, -0.0933, -0.1320,  0.1239,  0.1055,  0.0373,
         0.0740,  0.0615, -0.1164, -0.1229, -0.0137,  0.0417, -0.0652, -0.1068,
        -0.0960, -0.1129,  0.0149,  0.0673, -0.1006,  0.0814,  0.0712, -0.0869,
         0.0596,  0.0741,  0.0092, -0.0291,  0.0198, -0.1442, -0.0504,  0.0598,
        -0.0224,  0.0157,  0.1005, -0.0217,  0.1527,  0.0927,  0.0832, -0.0979,
         0.0785,  0.0694,  0.0112,  0.0732, -0.0051, -0.0534,  0.0295,  0.0047,
        -0.0888,  0.0441, -0.0252,  0.0322,  0.1114,  0.0347,  0.0265,  0.0758,
         0.0762, -0.1307,  0.0749,  0.0513, -0.0984, -0.0373,  0.0491,  0.0921,
        -0.1287, -0.0209,  0.1318, -0.0705,  0.1036,  0.0194,  0.0596, -0.0629,
        -0.0372,  0.0679,  0.0870,  0.0648, -0.0309,  0.0844,  0.0555,  0.0418,
         0.1190,  0.1038,  0.0380,  0.0978,  0.0823,  0.0043, -0.0215, -0.0489,
        -0.0551,  0.0262,  0.1011,  0.0398,  0.0044, -0.0720, -0.1699,  0.1644]), Bias: 0.06747840344905853
tensor([-0.0376,  0.1019,  0.0241, -0.1164, -0.0634, -0.0114,  0.0371,  0.0955,
        -0.0070,  0.0418, -0.1493,  0.0081,  0.0024, -0.0955, -0.0718,  0.0968,
         0.1365,  0.0138,  0.0809,  0.1249, -0.0156,  0.0725, -0.0182, -0.0386,
        -0.0536,  0.0152, -0.1067, -0.0546,  0.0893,  0.0709, -0.0642,  0.1107,
         0.0630,  0.0624, -0.0553, -0.0793,  0.0734, -0.0410,  0.0365,  0.0871,
         0.0298, -0.0729, -0.1110, -0.0543,  0.0602,  0.0215,  0.0237, -0.0925,
         0.0033, -0.0649, -0.0379,  0.0618, -0.1025,  0.0108,  0.0352,  0.0655,
        -0.0569, -0.0458,  0.0316,  0.0238,  0.0075, -0.0364, -0.0046, -0.0808,
         0.0200, -0.0643, -0.1240,  0.1045, -0.0791,  0.1457, -0.0068, -0.1012,
        -0.0783, -0.0856,  0.0994,  0.0429,  0.0878, -0.0885,  0.0575,  0.0099,
        -0.0910, -0.1319,  0.0755,  0.0858, -0.0188,  0.1506, -0.0721, -0.0726,
         0.0178, -0.0016,  0.0631, -0.1504, -0.0329,  0.0383, -0.1158, -0.0657,
         0.0494, -0.0766, -0.1074,  0.0428, -0.0203, -0.1077,  0.1105,  0.0140,
         0.1726, -0.0974,  0.0028, -0.0219,  0.0174,  0.0308,  0.0691,  0.0228,
         0.0810,  0.0345, -0.0663,  0.0485,  0.1175, -0.0543, -0.1032,  0.0709]), Bias: -0.03397945314645767
tensor([-0.0055,  0.0660, -0.0652, -0.1205,  0.0715, -0.0842,  0.0320, -0.0016,
        -0.0151,  0.1195, -0.0054, -0.0962,  0.0102,  0.0086, -0.0786, -0.0712,
        -0.0479,  0.1288,  0.0786,  0.1457,  0.0472,  0.0265, -0.0891,  0.0289,
        -0.0180,  0.0699, -0.0497,  0.0120, -0.1243,  0.0030, -0.0813, -0.0092,
        -0.0365,  0.1159, -0.1365,  0.0355,  0.0398, -0.0773,  0.0073,  0.0720,
        -0.1157, -0.0295,  0.0936, -0.0613, -0.0157,  0.1132, -0.0762, -0.0330,
         0.1201, -0.0518, -0.1229,  0.0783,  0.1168, -0.0164, -0.0311,  0.1743,
        -0.1079,  0.0560,  0.0310, -0.0319,  0.1420,  0.0102,  0.0779,  0.0382,
         0.1171,  0.1393,  0.0254, -0.0908, -0.0909,  0.0881,  0.0167,  0.1540,
        -0.0280, -0.0979,  0.0095,  0.0814,  0.1184, -0.1135,  0.0046, -0.1181,
        -0.0161, -0.1061, -0.0196,  0.0545, -0.0628, -0.0480,  0.0897, -0.0361,
        -0.0431, -0.0518,  0.0856, -0.0434,  0.0506, -0.0029, -0.0228, -0.1149,
        -0.0522,  0.0281, -0.0088,  0.1001, -0.0689,  0.1395,  0.0959,  0.0817,
         0.0617, -0.0389,  0.1965,  0.0532,  0.0811, -0.1040,  0.1382, -0.0581,
        -0.0913, -0.0229,  0.0955, -0.0891, -0.0371, -0.0923, -0.0601,  0.0871]), Bias: -0.06758692860603333
tensor([ 0.0330,  0.0952,  0.0074, -0.0007,  0.0178, -0.0789, -0.0103, -0.0840,
         0.0588,  0.0836, -0.0700,  0.0092,  0.0635, -0.1029, -0.1053,  0.0601,
         0.0575, -0.0229,  0.1168,  0.0357,  0.0125, -0.0111, -0.0711, -0.0007,
        -0.0325, -0.0433, -0.0758, -0.0946, -0.0287, -0.0775,  0.1563, -0.0711,
        -0.0350,  0.0648, -0.0420,  0.0219,  0.0995,  0.1468, -0.1937, -0.0700,
         0.0832, -0.0276,  0.0205, -0.0172, -0.1407, -0.0201, -0.0306,  0.0162,
         0.1026, -0.1074,  0.0509, -0.0251,  0.0038,  0.0649, -0.0518, -0.0947,
        -0.0644,  0.0988, -0.0437,  0.0147,  0.0214,  0.0478, -0.2108, -0.0737,
         0.1332, -0.0395,  0.0181, -0.0173,  0.0535,  0.0914,  0.1025,  0.0483,
        -0.0101,  0.0706,  0.0912, -0.0255, -0.0832,  0.0666, -0.0572,  0.1355,
         0.0075, -0.0020, -0.0191, -0.0914,  0.0844,  0.0997,  0.0169, -0.1335,
        -0.1371,  0.0944, -0.0271,  0.0483,  0.1015,  0.0669,  0.0726,  0.1283,
        -0.0911,  0.0089,  0.0933, -0.0146, -0.0860, -0.1342, -0.0957,  0.0392,
         0.0126,  0.1508,  0.0064,  0.0936,  0.0259,  0.0244, -0.1822,  0.0619,
         0.0203,  0.0737, -0.1237, -0.0959,  0.0402, -0.1345, -0.1550, -0.0748]), Bias: -0.02256585843861103
tensor([ 0.0049,  0.1681,  0.0902,  0.0019, -0.0326, -0.0502,  0.1075, -0.1932,
         0.0176,  0.0503,  0.0269,  0.0648, -0.1084,  0.0802, -0.2375, -0.0707,
        -0.2047,  0.1060,  0.0980, -0.0612, -0.0950, -0.0067, -0.1408,  0.0792,
         0.1052,  0.1008,  0.1153,  0.0489, -0.1539,  0.0854,  0.0822, -0.0978,
        -0.0692,  0.0026,  0.0909, -0.1311, -0.1056,  0.0128, -0.0595,  0.0777,
        -0.0900,  0.0967,  0.0236,  0.0107, -0.0691,  0.0926,  0.0682,  0.0475,
         0.0672, -0.0025,  0.0599,  0.0091,  0.1459,  0.0263, -0.0388,  0.0859,
         0.0880,  0.0630,  0.0552,  0.1192, -0.1532, -0.0240, -0.0585, -0.0352,
        -0.0090,  0.0153,  0.2131, -0.1324, -0.0654, -0.0324,  0.0180,  0.0098,
        -0.0139, -0.0688, -0.1927, -0.0200,  0.0482,  0.0515, -0.0514, -0.0341,
         0.0430,  0.1095, -0.0738, -0.0569, -0.0801, -0.2146,  0.0198, -0.0261,
         0.0225, -0.0931,  0.0556,  0.0282,  0.0460, -0.2516,  0.0839,  0.1118,
        -0.0918, -0.0260,  0.1255, -0.0298, -0.0604,  0.0328, -0.0755,  0.1546,
        -0.1325,  0.0308,  0.1206,  0.1679, -0.0721, -0.0174,  0.0052, -0.0458,
         0.0456, -0.0737,  0.1382, -0.0418, -0.0467, -0.1018, -0.0209, -0.0923]), Bias: 0.08170011639595032
tensor([-0.0500, -0.0912, -0.0429,  0.1398,  0.1775, -0.1162, -0.0199,  0.0784,
        -0.1019,  0.0249, -0.0889, -0.0661,  0.0649,  0.0483,  0.0990,  0.0819,
         0.0587,  0.0075, -0.0621,  0.0114,  0.0037,  0.1268,  0.0399,  0.0764,
        -0.0778, -0.0433, -0.0176, -0.0526,  0.1717, -0.0950,  0.0417,  0.1305,
        -0.0570,  0.0167,  0.1172,  0.1580,  0.0722,  0.1354,  0.0196, -0.1107,
         0.0652, -0.0603,  0.0532, -0.0504, -0.1196,  0.0325,  0.0119, -0.0613,
         0.0643, -0.0007, -0.0489, -0.0095,  0.1367,  0.1664,  0.1284, -0.1142,
        -0.1602,  0.0361,  0.0574,  0.1417,  0.0116,  0.0437, -0.0690, -0.1165,
        -0.0835,  0.0326, -0.0782,  0.1163,  0.0444,  0.0788,  0.0741, -0.0128,
        -0.0504, -0.0158,  0.0988,  0.0066,  0.0522, -0.0474, -0.0630,  0.0311,
        -0.0677,  0.0647,  0.0857, -0.0229,  0.0513,  0.0789, -0.1004, -0.1549,
         0.0368,  0.0929, -0.1139,  0.0092,  0.0402,  0.1856, -0.0058, -0.0248,
         0.0708, -0.0188, -0.0928, -0.0309,  0.1044,  0.0222, -0.1084, -0.0045,
        -0.1479, -0.0202, -0.0133, -0.1069, -0.0435,  0.1954, -0.0364,  0.0318,
        -0.1651,  0.1257, -0.1263, -0.0242, -0.0386,  0.1562, -0.0799, -0.0595]), Bias: -0.06526532769203186
tensor([-0.1370,  0.0455, -0.1338, -0.1069,  0.0764, -0.0922,  0.0492,  0.0399,
         0.1093, -0.0654, -0.0682, -0.1258,  0.0079, -0.1822,  0.0765,  0.0465,
        -0.0127,  0.0861, -0.0079,  0.1403,  0.1109, -0.0100, -0.1239, -0.0061,
        -0.0417, -0.0211,  0.0208, -0.0790,  0.1190, -0.0848,  0.0187,  0.0555,
         0.0460,  0.0810, -0.0521, -0.0557,  0.1112, -0.1508, -0.1097,  0.0670,
        -0.0014, -0.1003,  0.0435, -0.0589, -0.0236, -0.0282,  0.0898, -0.0587,
         0.0340, -0.0284,  0.0804,  0.0842,  0.0117,  0.0679, -0.1473, -0.0329,
         0.1427, -0.0143, -0.1244, -0.1254,  0.0568,  0.1464, -0.1208, -0.0595,
         0.1347, -0.0075,  0.0963,  0.0864,  0.0392, -0.0884, -0.0515, -0.0199,
         0.0701,  0.0065,  0.0489, -0.1520, -0.0641, -0.0080,  0.0760,  0.0078,
        -0.0130, -0.1396, -0.0730, -0.0360,  0.0287,  0.0315,  0.0413,  0.0379,
        -0.0663, -0.0457, -0.0089,  0.0202, -0.0389, -0.1059, -0.0448,  0.0844,
        -0.1176,  0.1218, -0.0264, -0.0452,  0.0232, -0.0890, -0.1085, -0.0207,
         0.0146,  0.1580, -0.0891, -0.1156,  0.1324,  0.0530, -0.0608,  0.0855,
         0.0710,  0.0147, -0.1241, -0.0811, -0.0196, -0.1083,  0.0762,  0.1241]), Bias: -0.03287521377205849
tensor([ 0.0804, -0.0515,  0.0378,  0.1461, -0.1077,  0.1039,  0.0960,  0.0735,
         0.0290, -0.0469,  0.0333,  0.0950, -0.0336, -0.0244, -0.0907, -0.0857,
         0.0009, -0.0825,  0.0775, -0.1202, -0.1551, -0.0374, -0.0333,  0.0328,
        -0.1248,  0.0365, -0.0643,  0.1079,  0.0630, -0.0645,  0.0512,  0.0335,
         0.0433, -0.0376,  0.0346,  0.0094, -0.0776,  0.1115, -0.0226,  0.0572,
         0.0009, -0.0410,  0.0269,  0.0353, -0.0754, -0.0493,  0.0601,  0.0587,
         0.0606, -0.0499,  0.1669,  0.0102, -0.1180, -0.0117, -0.1079,  0.0392,
        -0.0177,  0.1484, -0.0877,  0.0211, -0.1739, -0.0028, -0.1759,  0.0538,
         0.0147, -0.0920, -0.1028,  0.0891, -0.0558,  0.0289,  0.1026, -0.1115,
        -0.0175,  0.0208,  0.0569, -0.1537, -0.0223,  0.0650, -0.1142,  0.0058,
        -0.0861,  0.1463, -0.1060,  0.0348,  0.0358, -0.0226, -0.0299, -0.0964,
        -0.0678, -0.0035,  0.0385,  0.0523, -0.0020,  0.0616,  0.0371,  0.0662,
         0.0212,  0.0566, -0.0164, -0.0602, -0.0925, -0.0903,  0.0207,  0.0156,
        -0.0238,  0.0098, -0.0456, -0.0269, -0.1611, -0.0049, -0.0600, -0.0358,
         0.1442, -0.0704,  0.0447, -0.0360, -0.0019,  0.0761,  0.0648, -0.0976]), Bias: 0.028297800570726395
tensor([-0.0458, -0.0531,  0.0301, -0.1474,  0.0614, -0.0287,  0.0148,  0.0776,
        -0.0689,  0.1424,  0.0307,  0.0803,  0.0715, -0.0781,  0.0079,  0.0434,
         0.0588,  0.1085,  0.0999, -0.0866, -0.0025, -0.1100,  0.0249,  0.0499,
        -0.0250,  0.0721,  0.0366,  0.1016, -0.0795,  0.0888, -0.0077,  0.0749,
         0.0515, -0.0362,  0.0295, -0.1091, -0.0691, -0.0370,  0.0281,  0.0366,
        -0.0817,  0.0033,  0.0390,  0.0202,  0.0637,  0.0232,  0.1116, -0.1258,
        -0.1422, -0.0329,  0.0102, -0.1005,  0.0839,  0.0276,  0.1316,  0.1079,
         0.0989, -0.0184,  0.0588, -0.0953,  0.0708,  0.0109,  0.1115,  0.0076,
         0.0595,  0.0571,  0.0415, -0.1081, -0.0822,  0.0047, -0.1480, -0.0429,
        -0.0024,  0.0577, -0.0140,  0.0904,  0.0202,  0.0245, -0.0166, -0.0135,
         0.0003, -0.1011, -0.0091,  0.0310, -0.0475, -0.0498, -0.1093,  0.1542,
        -0.0600, -0.1205, -0.0683, -0.0397,  0.0038, -0.0869,  0.0117, -0.0690,
         0.1029,  0.0611, -0.0003, -0.0942, -0.1248,  0.1343,  0.0728, -0.0005,
         0.0835, -0.0876, -0.0576,  0.1400, -0.0285,  0.0091,  0.0978, -0.0261,
         0.1256, -0.0483,  0.0553, -0.1189, -0.0218, -0.1124,  0.0995, -0.0026]), Bias: -0.0013075954047963023
tensor([-0.0413, -0.1028,  0.0435,  0.0566,  0.0756, -0.0903,  0.0581, -0.0360,
        -0.0603, -0.0546,  0.0843, -0.0419,  0.0388,  0.0526,  0.0567, -0.1136,
        -0.0639, -0.0582,  0.0188, -0.0398,  0.0350,  0.1258, -0.0148, -0.0093,
         0.0182,  0.0378,  0.0275,  0.0701, -0.0061, -0.0260, -0.0909, -0.0492,
        -0.1042,  0.0082,  0.0171,  0.1004, -0.0664, -0.0368,  0.0109, -0.0224,
         0.0549,  0.0718,  0.0307,  0.0820,  0.0206,  0.0084, -0.1223,  0.0233,
        -0.0309,  0.0573,  0.0585, -0.0120,  0.0663, -0.0165,  0.0355,  0.0719,
        -0.1185,  0.0882,  0.1119,  0.0038, -0.0720, -0.1072,  0.1543, -0.0184,
        -0.0673,  0.1006,  0.0460,  0.1155,  0.1223, -0.0817,  0.0970,  0.1471,
        -0.1109, -0.1618, -0.0215, -0.1063,  0.0134,  0.0365,  0.0888,  0.0465,
        -0.1248, -0.0484, -0.0754, -0.0795,  0.0076, -0.1229,  0.0012,  0.0370,
         0.0102, -0.1194, -0.0070,  0.1038,  0.0087, -0.0252, -0.0683, -0.0524,
        -0.0825, -0.0824, -0.0153,  0.0708, -0.0783, -0.0217, -0.0609,  0.0076,
        -0.1005, -0.0084, -0.0627, -0.1056,  0.0486, -0.0905, -0.0104,  0.0783,
        -0.1105, -0.0560, -0.0143,  0.0701,  0.0998,  0.0013, -0.0152, -0.0136]), Bias: -0.07019250094890594
tensor([-9.5432e-02,  6.9949e-02, -5.3169e-02, -2.1275e-02, -8.6029e-02,
         6.2150e-02,  1.7884e-02, -1.1528e-01, -8.7189e-02, -5.7488e-02,
        -9.9133e-02, -5.7300e-02,  5.4865e-02, -9.9943e-02, -3.9584e-02,
        -3.0677e-02,  9.7678e-02,  4.6630e-02, -7.6665e-02, -5.3353e-02,
        -4.6984e-02, -1.5122e-01,  8.5753e-04,  2.8651e-02,  1.4722e-04,
         3.8030e-02, -9.3778e-03, -2.5971e-02,  1.4401e-02, -3.4991e-02,
        -3.4030e-02, -7.5084e-02, -6.5003e-02,  4.0293e-02, -2.5076e-02,
        -8.6005e-03,  4.6116e-02,  2.8645e-02, -3.1788e-02,  2.2250e-02,
        -6.0273e-02, -2.2693e-02, -7.0739e-03, -9.8462e-02, -1.0156e-01,
        -6.0573e-02,  7.2026e-02, -4.0859e-02,  4.9852e-02, -4.0602e-02,
         4.4164e-02, -9.5508e-02, -8.7134e-02,  8.6707e-02, -1.6586e-01,
         1.5961e-02,  1.2264e-01, -1.8472e-02, -1.1949e-01,  5.6866e-03,
        -1.2406e-01,  6.7960e-02, -9.1714e-02,  8.3237e-02,  2.8185e-02,
        -1.4317e-01, -3.6462e-02,  4.0031e-02,  4.8193e-02, -1.9419e-03,
         9.1513e-02, -1.3119e-01,  1.6139e-02,  1.3240e-01, -1.4588e-02,
        -3.5787e-02,  7.6087e-03,  6.9129e-02, -7.4837e-02,  1.5262e-01,
        -1.3139e-01,  1.5533e-01, -1.4016e-01,  9.4964e-03, -2.4869e-02,
         3.0676e-02,  1.4128e-02,  1.0323e-02, -4.3847e-02, -4.4823e-02,
        -1.8784e-02,  6.3510e-02, -6.7307e-02, -9.1484e-02,  2.4603e-02,
         1.2711e-01, -1.2489e-01,  2.6187e-02, -9.4760e-02, -9.0089e-02,
        -3.6723e-02, -1.2724e-01, -1.1413e-01, -6.0307e-02,  3.6194e-03,
         6.4597e-03, -1.5453e-01, -1.0599e-01, -9.4262e-02, -2.7922e-02,
         5.3428e-02,  4.2061e-02,  1.8714e-01, -1.3102e-01, -1.5970e-02,
         4.1215e-02, -7.7788e-02,  4.0281e-02,  4.5937e-03, -1.8762e-02]), Bias: 0.05482512712478638
tensor([-0.0920,  0.0224, -0.0142, -0.0352,  0.0998,  0.0048,  0.0622, -0.0626,
         0.1565, -0.0902, -0.0940, -0.0344,  0.0459, -0.0094, -0.0465,  0.0469,
        -0.0556, -0.1074, -0.0731,  0.0234,  0.1063,  0.0090, -0.0601, -0.0222,
         0.1268, -0.0718, -0.0200,  0.0541,  0.0433, -0.0355,  0.1332,  0.1225,
        -0.0606, -0.0022,  0.0422, -0.0726,  0.0609,  0.1133, -0.1115, -0.1591,
         0.0711, -0.0323,  0.0082, -0.0652, -0.0763, -0.1154, -0.0308, -0.0624,
         0.0715, -0.0820, -0.1613, -0.0576, -0.0857,  0.1242, -0.0136, -0.0550,
        -0.1606, -0.1420,  0.0377,  0.0142,  0.1005, -0.1024,  0.0981, -0.2603,
         0.0060,  0.0591,  0.1922, -0.0817,  0.0403, -0.1286, -0.0127,  0.0613,
         0.0621,  0.0139, -0.0486, -0.0086,  0.0923,  0.0211,  0.1926,  0.0765,
        -0.0053, -0.1754, -0.0404,  0.0507,  0.0222, -0.0830,  0.0123, -0.1268,
         0.0077,  0.1304, -0.0417,  0.0996, -0.0261,  0.1195,  0.1472, -0.0889,
         0.1239,  0.0611,  0.0291,  0.0929,  0.2424,  0.0103, -0.0930,  0.0411,
        -0.1234, -0.0588,  0.1131, -0.1402,  0.1472,  0.0377, -0.0287,  0.1726,
        -0.0779,  0.1325, -0.0201,  0.1777,  0.0105,  0.1155,  0.1052,  0.1076]), Bias: -0.059083301573991776
tensor([ 0.0450, -0.0511, -0.0518,  0.0527, -0.0409,  0.0250,  0.0006, -0.0189,
         0.0350,  0.1224, -0.1187, -0.0686, -0.0086,  0.1520,  0.0104, -0.0391,
        -0.0376, -0.1082, -0.0256,  0.0505,  0.0036,  0.0155, -0.0294,  0.0160,
         0.0486,  0.0372, -0.0303, -0.1046, -0.0016,  0.0646,  0.0223, -0.0512,
         0.1214, -0.0932,  0.0496,  0.1237, -0.0067,  0.1310, -0.0105, -0.1046,
         0.1374,  0.0086, -0.0672, -0.0053,  0.0984,  0.0951, -0.1502,  0.1168,
         0.0749,  0.0731, -0.1040,  0.0325, -0.0320,  0.1014,  0.0585,  0.0940,
        -0.1882, -0.0596, -0.0329,  0.0734,  0.0378, -0.1829,  0.0748, -0.1142,
        -0.0014,  0.0662, -0.0975,  0.0225, -0.0125,  0.1212,  0.0628,  0.1571,
        -0.0586, -0.0973,  0.0559,  0.1776,  0.0831, -0.0770,  0.0459, -0.0822,
        -0.0402, -0.0623,  0.0667, -0.0616,  0.0624,  0.0346, -0.0609, -0.0645,
        -0.0647,  0.0686,  0.1025, -0.0181,  0.0413,  0.0954, -0.0115, -0.0580,
        -0.0201, -0.1030,  0.0040,  0.0239,  0.0489, -0.0382,  0.1750,  0.0015,
        -0.0547, -0.0342,  0.1177,  0.0323, -0.0530, -0.0565,  0.0054, -0.0524,
        -0.1242,  0.0242,  0.0187,  0.0805,  0.1638, -0.0670, -0.0390, -0.1111]), Bias: 0.03188095986843109
tensor([-0.1152,  0.1275,  0.0195, -0.0411,  0.0188,  0.0129, -0.0037, -0.0669,
        -0.0490,  0.0893,  0.0680, -0.0020,  0.0534, -0.0857, -0.1842, -0.0214,
        -0.0544,  0.0313,  0.0626,  0.0883,  0.0287, -0.0382, -0.1653,  0.0643,
         0.0201,  0.0511,  0.1619, -0.0215, -0.0762, -0.0126,  0.0419,  0.0520,
        -0.0498, -0.0341,  0.1442, -0.0245, -0.0166,  0.0694, -0.0590, -0.0233,
        -0.0434, -0.0186,  0.0318, -0.0224, -0.1038, -0.0604,  0.0785, -0.0793,
        -0.0434, -0.0038, -0.0221, -0.1396,  0.1484, -0.0732,  0.0796,  0.0234,
        -0.0700,  0.1529,  0.0460,  0.1444, -0.0919,  0.0352,  0.0223, -0.0970,
        -0.0465, -0.0742, -0.0497, -0.1308,  0.0271,  0.0940, -0.0379,  0.0642,
        -0.0205,  0.0257, -0.0270,  0.1273, -0.0961,  0.0632, -0.0822,  0.0845,
        -0.0769,  0.0382,  0.0026,  0.0436,  0.0355, -0.0941, -0.0497, -0.0703,
        -0.0303,  0.0791, -0.0842,  0.0365, -0.0478, -0.1152,  0.0408,  0.1197,
         0.0406,  0.0200, -0.0097,  0.0289, -0.1272, -0.0326,  0.0771,  0.1223,
         0.0116, -0.0420,  0.0541,  0.0253, -0.0761,  0.0061,  0.0650,  0.0401,
         0.0774, -0.1024, -0.0601,  0.0698, -0.1503, -0.1178, -0.0355, -0.0676]), Bias: -0.022202085703611374
tensor([ 0.0650, -0.0416, -0.0514,  0.1174,  0.0811, -0.0727,  0.0456, -0.0720,
        -0.1060, -0.0444,  0.0091, -0.0954, -0.0347,  0.1030,  0.0722,  0.0349,
        -0.0021, -0.1373,  0.0357, -0.0566,  0.0090,  0.0727,  0.0739,  0.0616,
         0.0322,  0.0473, -0.0514, -0.0422,  0.0314,  0.0098, -0.1044, -0.1136,
         0.0509,  0.0310, -0.0232,  0.1151, -0.0682, -0.0455,  0.0509, -0.0582,
         0.1014,  0.1274,  0.0857,  0.0075,  0.1215, -0.0260, -0.1804, -0.0479,
         0.1302,  0.0733,  0.0659, -0.0416,  0.0651,  0.0280, -0.0762,  0.0440,
        -0.0946, -0.0561,  0.0883, -0.0196, -0.0562, -0.0386,  0.0771,  0.0129,
        -0.1121,  0.1475,  0.0144,  0.0060,  0.0059, -0.0226, -0.0032,  0.1423,
         0.0580, -0.1071, -0.1068, -0.0204,  0.1309,  0.0028, -0.0092, -0.0113,
        -0.0954, -0.0609, -0.0108, -0.0507,  0.0912, -0.0773,  0.1156,  0.0833,
         0.0653,  0.0365, -0.0275, -0.0090, -0.0423,  0.0839, -0.0199,  0.0259,
        -0.1077, -0.0228, -0.0944,  0.1023, -0.0876,  0.0025, -0.0542, -0.0750,
         0.0037, -0.0783, -0.0295, -0.0121, -0.0612, -0.0411,  0.0644, -0.0347,
        -0.1652,  0.0523,  0.0375, -0.0147,  0.1294,  0.0672, -0.0674, -0.0127]), Bias: -0.07939544320106506
tensor([ 9.1207e-03,  1.0768e-01, -1.3340e-03, -2.9182e-02, -1.3580e-01,
        -6.6963e-02,  6.3822e-02, -1.8057e-01,  7.8374e-02,  1.3522e-01,
         6.8219e-03, -9.5256e-02,  1.5925e-02, -1.8949e-02, -1.0237e-01,
        -4.1246e-02, -1.4205e-01,  2.0931e-01,  4.9813e-02,  1.1685e-01,
         3.6642e-02,  7.0679e-02, -1.0738e-01,  7.1713e-02, -5.7798e-02,
        -8.6274e-02,  1.3486e-01, -4.3338e-02, -1.8891e-01,  6.1512e-02,
         4.3666e-03, -1.2128e-01,  1.7536e-02,  2.5175e-02,  4.9912e-02,
        -9.5799e-02, -2.4648e-02, -7.5630e-02, -8.4572e-02,  9.1101e-02,
        -7.9631e-02,  6.2430e-02,  1.1062e-01, -3.7976e-02, -2.5354e-02,
         3.1525e-02,  7.1957e-03, -1.3421e-01,  4.4042e-02,  1.0678e-01,
        -8.7096e-02, -2.6138e-02, -7.7629e-05, -1.3852e-01, -1.1200e-01,
         3.8411e-02, -5.5752e-02, -2.2408e-02, -2.5194e-02, -2.3701e-03,
         6.3612e-02,  8.6408e-02, -5.9646e-03,  7.2896e-02,  6.4440e-02,
         8.6741e-02,  1.6104e-01, -2.1043e-01, -8.4162e-02,  5.4643e-02,
         2.9571e-03, -9.1960e-02,  1.5779e-01,  3.8449e-02, -2.6844e-01,
         8.9316e-02, -1.7799e-02,  1.7786e-02,  2.2026e-02,  5.0092e-03,
        -2.8377e-02, -8.7259e-02,  8.9722e-02, -6.4214e-02, -9.0262e-02,
        -8.4738e-02,  1.8061e-01,  1.2074e-01, -4.0171e-02, -1.9263e-01,
         1.0543e-01,  3.7886e-02,  1.3439e-01, -2.9868e-01, -1.2735e-01,
         1.5252e-01,  9.7711e-03, -3.0010e-02,  6.2760e-02,  6.3591e-02,
        -2.8619e-02,  1.1823e-01, -1.0881e-01,  5.7619e-03, -5.7947e-02,
        -4.4581e-02,  1.3060e-01,  1.8606e-01,  1.3828e-01, -4.5911e-02,
         8.2193e-02, -3.8729e-02,  9.3315e-02,  6.1094e-02,  1.1121e-01,
        -1.4240e-01, -9.8247e-02, -7.7288e-02, -1.2459e-01,  1.5594e-02]), Bias: -0.0006152290152385831
tensor([-0.0114,  0.1347,  0.0278, -0.0176,  0.0633, -0.0033,  0.1066, -0.1340,
         0.0763, -0.1622,  0.0060, -0.0150, -0.0077, -0.1680, -0.0636,  0.0427,
        -0.0531,  0.1420,  0.1012,  0.0282,  0.0100,  0.0018, -0.1573,  0.0046,
         0.0270,  0.0981,  0.0760,  0.0119,  0.1528, -0.0857,  0.0825,  0.0940,
         0.0076, -0.0082,  0.1070,  0.0335, -0.0368,  0.0476, -0.0105, -0.0389,
         0.0344, -0.1227,  0.1196,  0.0301, -0.1850, -0.0386,  0.1220, -0.0383,
         0.0239, -0.1630, -0.0260, -0.0584,  0.0464,  0.0843, -0.0837,  0.0560,
         0.0486,  0.0745, -0.0722,  0.0728,  0.0616,  0.1588, -0.1253, -0.0806,
         0.1041, -0.1122,  0.0570, -0.0565,  0.0753, -0.0613, -0.0172, -0.1190,
         0.0055,  0.1309,  0.0818, -0.0622,  0.0127, -0.1203,  0.1031,  0.1487,
        -0.1128, -0.0082, -0.0670,  0.0668,  0.0241, -0.0629, -0.0240, -0.0118,
        -0.0481,  0.0918, -0.1060,  0.0717,  0.0362, -0.0964,  0.0957,  0.0363,
         0.0100,  0.0459,  0.0751,  0.0166,  0.0186, -0.1047, -0.1132,  0.0851,
        -0.0794,  0.1393,  0.0396, -0.0469,  0.0806,  0.0710,  0.0598,  0.1301,
         0.0683, -0.0572, -0.1374,  0.1188,  0.0184, -0.1418, -0.0756,  0.0681]), Bias: -0.07753302156925201
tensor([-0.0103, -0.0024, -0.0541, -0.0757,  0.1469, -0.1466, -0.0289, -0.0407,
         0.1002, -0.0657, -0.0577, -0.1467, -0.0501, -0.1229,  0.0038, -0.0847,
        -0.0239,  0.1147,  0.0497,  0.0901, -0.0698, -0.0961, -0.1337, -0.0034,
        -0.0695,  0.1346, -0.0166,  0.0503,  0.1075,  0.0264,  0.1199,  0.1184,
         0.0049,  0.0707,  0.0275, -0.0471,  0.0648,  0.0165, -0.0116, -0.0859,
         0.0880, -0.0162,  0.0828, -0.1230, -0.1589, -0.0403,  0.1612,  0.0102,
         0.0585, -0.1665, -0.1345,  0.0401,  0.1485, -0.0028, -0.0043, -0.0804,
        -0.0213,  0.0750, -0.0583, -0.0268,  0.0938, -0.0048, -0.0931, -0.0775,
         0.0994, -0.0387,  0.0109, -0.0482, -0.0102, -0.0436, -0.0117,  0.0297,
         0.0343,  0.0426, -0.0751,  0.0781, -0.0915, -0.1206,  0.0163,  0.1521,
         0.0586, -0.0951, -0.0102,  0.0318,  0.0769, -0.0141,  0.0187, -0.0152,
         0.0303,  0.0172, -0.0105, -0.0025, -0.0690,  0.0692,  0.0951,  0.1239,
         0.0654,  0.0795, -0.0134,  0.0644,  0.1086, -0.0784,  0.0069,  0.0169,
        -0.0747,  0.1640,  0.0842, -0.0368, -0.0178,  0.1420, -0.0380,  0.0856,
        -0.0135, -0.0405,  0.0025, -0.0255, -0.0349, -0.1444, -0.1160,  0.0765]), Bias: -0.13104629516601562
tensor([ 0.0459,  0.0671, -0.1518,  0.0603, -0.0356, -0.0302, -0.0402,  0.0631,
        -0.0451,  0.1014, -0.1091, -0.0039,  0.1189, -0.0348,  0.0212,  0.0505,
         0.1003,  0.1106,  0.1248, -0.0174, -0.0946,  0.0750, -0.0530, -0.0567,
        -0.0961, -0.0028, -0.0853, -0.0028, -0.0379, -0.0044,  0.0765,  0.0580,
         0.1231,  0.0742, -0.1182,  0.0551,  0.1182,  0.0287,  0.0104,  0.0197,
         0.0209,  0.0174,  0.0436,  0.0486, -0.0422,  0.0447, -0.0171, -0.0654,
        -0.0040, -0.1204, -0.0245,  0.0993,  0.0961,  0.1154, -0.1541,  0.0138,
         0.1061,  0.0664, -0.0283, -0.1041,  0.1128, -0.0095, -0.1851, -0.0435,
         0.0483,  0.0111, -0.0567,  0.0933, -0.0690,  0.0758, -0.0366, -0.0604,
         0.0265,  0.1326,  0.0301,  0.0422,  0.0416, -0.0429,  0.0616, -0.0023,
         0.0282,  0.0445,  0.0847, -0.0226,  0.1323, -0.0220,  0.0298, -0.0571,
        -0.0783,  0.0005,  0.0897, -0.0364,  0.0557,  0.0197, -0.0120, -0.0054,
        -0.0783,  0.1216,  0.0280, -0.0289, -0.0679, -0.0648, -0.0734, -0.0442,
         0.0452,  0.0326,  0.1010, -0.0021,  0.0529,  0.0978, -0.1359,  0.0119,
        -0.0880,  0.0808, -0.1353, -0.0693, -0.0792, -0.1164, -0.0558,  0.0286]), Bias: 0.003665905212983489
tensor([-0.0260, -0.0046,  0.1332, -0.0850, -0.0972, -0.0467,  0.0605, -0.0669,
         0.0421, -0.1196,  0.1846, -0.0530,  0.0145, -0.0311, -0.0401, -0.0805,
        -0.0160,  0.1193,  0.0094,  0.0390, -0.0279, -0.0040,  0.0787,  0.0078,
         0.0797,  0.0286,  0.1464, -0.0337,  0.0249,  0.1860,  0.0678,  0.0319,
        -0.0784,  0.0385,  0.0149, -0.1431, -0.0310, -0.0429, -0.0771,  0.0950,
        -0.0423,  0.1093,  0.0042, -0.0631, -0.0932,  0.0284, -0.0350, -0.1323,
        -0.1165,  0.0074, -0.0181,  0.0042, -0.0229, -0.0976,  0.1068, -0.0117,
        -0.0635,  0.0076, -0.0267, -0.0083, -0.0829, -0.0074,  0.1742, -0.0965,
        -0.0511, -0.0179,  0.1033,  0.0397,  0.0107, -0.1748, -0.0335,  0.1201,
        -0.1345, -0.1169, -0.0365, -0.0057,  0.1225,  0.0207, -0.0335,  0.1468,
         0.0791,  0.0496,  0.0525, -0.0114, -0.1374, -0.1178, -0.0829,  0.1438,
         0.0618, -0.0837, -0.0683,  0.1345,  0.0320, -0.0450, -0.0289, -0.0644,
         0.1238, -0.1333,  0.0504,  0.0609,  0.0489,  0.1440, -0.0489, -0.0200,
        -0.0629, -0.0389, -0.0551, -0.0766,  0.0230, -0.0203,  0.1450, -0.0255,
         0.0659,  0.0641,  0.1857, -0.0458, -0.0472,  0.1223, -0.0416,  0.0112]), Bias: 0.07405836880207062
tensor([ 0.0231, -0.0434,  0.0606,  0.0076,  0.0875,  0.0440, -0.1388,  0.0477,
        -0.0173,  0.1197, -0.0429, -0.1084, -0.0466,  0.1080, -0.0608, -0.0632,
        -0.0553, -0.1454,  0.0716,  0.0525,  0.0735,  0.1416, -0.0192, -0.0191,
         0.1097, -0.1395,  0.0380,  0.0186, -0.0574,  0.0551, -0.0756, -0.0090,
        -0.0059,  0.0244, -0.0243,  0.0641,  0.0217, -0.0166, -0.0831, -0.1239,
         0.1260,  0.0967,  0.0622,  0.0302,  0.0629, -0.1070, -0.1306,  0.0478,
        -0.0698,  0.0267, -0.0922, -0.0147, -0.0372,  0.0209,  0.0595, -0.0350,
        -0.2002, -0.0732,  0.1195,  0.0448,  0.1344, -0.1356,  0.1335, -0.1902,
        -0.0625,  0.0438,  0.0384, -0.0183, -0.0129,  0.0757, -0.1047,  0.1316,
         0.0633, -0.1762,  0.0081,  0.1300,  0.1252, -0.0589,  0.1135, -0.1070,
         0.1369, -0.1003,  0.0718,  0.0235, -0.0418,  0.1071,  0.0278, -0.0456,
        -0.1120,  0.0136,  0.0229, -0.1224,  0.0356,  0.0573, -0.0497, -0.0701,
         0.1585, -0.0777,  0.1024,  0.0602,  0.1354,  0.0969,  0.1456,  0.0168,
         0.0180, -0.0047,  0.0006,  0.1568,  0.1552, -0.0552,  0.0443, -0.0944,
        -0.1424,  0.0847,  0.0187,  0.0754,  0.0931,  0.0152, -0.1522, -0.0451]), Bias: 0.06421752274036407
tensor([ 0.0186, -0.0638, -0.0352, -0.0173, -0.1189,  0.1201,  0.0632,  0.0681,
         0.0419,  0.0662,  0.0489,  0.1093,  0.0031, -0.0430, -0.0192, -0.0220,
        -0.0527, -0.0143,  0.1439, -0.0120, -0.1097, -0.0188,  0.0128,  0.1224,
         0.0187,  0.0414,  0.0295,  0.0776,  0.0362, -0.0211, -0.1289, -0.0388,
         0.0233, -0.0816, -0.0340, -0.0487,  0.0025, -0.0790, -0.0552,  0.2004,
        -0.0118, -0.0031, -0.0947,  0.0628,  0.0981, -0.0066,  0.0319, -0.0606,
        -0.0535, -0.0508,  0.0961, -0.0664, -0.0573,  0.0022,  0.0409,  0.0856,
         0.0388,  0.0344, -0.0243, -0.0533, -0.0061,  0.0312, -0.0213,  0.1935,
        -0.0569, -0.1303, -0.0979,  0.1143,  0.0420,  0.1330,  0.0021, -0.0995,
        -0.0491, -0.0246, -0.0262, -0.0520,  0.0379, -0.0698, -0.1614, -0.0465,
        -0.0902,  0.1356,  0.1014,  0.0686, -0.0220,  0.0966, -0.0368, -0.0067,
        -0.0315, -0.0713, -0.0152, -0.0793, -0.0731,  0.0070, -0.0700,  0.0644,
        -0.0294, -0.0484, -0.0755, -0.0856, -0.0820,  0.0224,  0.0953, -0.0050,
         0.1512, -0.0427,  0.0389,  0.1485,  0.0002, -0.1423,  0.0616, -0.0985,
         0.1589, -0.0812, -0.0023,  0.0054, -0.0786, -0.0334, -0.0933, -0.0328]), Bias: 0.02098086290061474
tensor([-0.0901,  0.1158,  0.0171, -0.0850, -0.0513,  0.0976,  0.0319,  0.0022,
         0.0307,  0.0846, -0.0721, -0.0524, -0.0457,  0.1182, -0.1165, -0.1052,
         0.0114,  0.0081, -0.0685,  0.0406, -0.0596,  0.0180,  0.0047, -0.0088,
         0.0717,  0.0409,  0.0748, -0.0244, -0.0323, -0.0337, -0.0899,  0.0520,
        -0.0785,  0.0542,  0.1042, -0.0888, -0.0904,  0.0115,  0.0228, -0.0456,
        -0.0590,  0.1215,  0.0206,  0.0163,  0.0709, -0.1180,  0.1022, -0.0277,
        -0.1204, -0.0021,  0.0345, -0.0246,  0.0423, -0.0031, -0.0572,  0.0112,
         0.0034, -0.1278, -0.1013, -0.1016,  0.0874, -0.0144, -0.0614, -0.0091,
        -0.0113,  0.1127,  0.0753, -0.1532,  0.0539,  0.0233, -0.0681,  0.0227,
         0.1698,  0.0762, -0.1343,  0.0269, -0.0952,  0.0847,  0.0419, -0.1536,
         0.0341, -0.1147,  0.0272,  0.0029,  0.0969,  0.0013,  0.0733,  0.1043,
        -0.0947, -0.1801, -0.1212,  0.1203, -0.0217, -0.2286, -0.0685,  0.1529,
        -0.0748, -0.0301,  0.0849, -0.0649,  0.0040, -0.0401,  0.0648,  0.1099,
         0.0113, -0.0470, -0.0685,  0.1364,  0.0063, -0.0528, -0.0583, -0.0659,
        -0.0070,  0.0355, -0.0084,  0.0722, -0.0963, -0.0662,  0.0183, -0.0083]), Bias: 0.023584380745887756
tensor([ 0.0145,  0.1134,  0.0303, -0.1725, -0.1617, -0.0506,  0.0047, -0.1156,
        -0.0258, -0.0585,  0.0915,  0.0139,  0.0137,  0.0066,  0.0739,  0.0459,
        -0.0661,  0.0849, -0.0514, -0.0129,  0.1258, -0.0488, -0.0253, -0.0047,
         0.0588, -0.1435, -0.0671, -0.0574,  0.0278,  0.0507, -0.0305, -0.1058,
         0.0157, -0.0062, -0.1161, -0.0672,  0.0664, -0.1502,  0.0350,  0.1109,
        -0.0950, -0.0416, -0.0868,  0.0873,  0.0480,  0.0745,  0.0603, -0.0903,
         0.0207, -0.0624, -0.0603, -0.0036, -0.1266, -0.1661, -0.0360,  0.0160,
         0.0957,  0.0071,  0.0622, -0.1563,  0.0676, -0.0098,  0.1139, -0.0572,
         0.0698,  0.0248,  0.0290, -0.0715, -0.1485, -0.0808, -0.0261, -0.0606,
         0.0244, -0.0868,  0.0250, -0.0615,  0.1395,  0.0565, -0.0581, -0.0022,
         0.0150, -0.1278,  0.1004,  0.1257, -0.0617,  0.0555,  0.0367,  0.0653,
         0.0623, -0.0676,  0.0808, -0.0198,  0.0475,  0.0308, -0.0088,  0.0629,
        -0.0550,  0.0736,  0.0131, -0.0417,  0.0842,  0.0398,  0.0264, -0.0351,
         0.1645,  0.0227,  0.0785,  0.0389,  0.0679, -0.0479,  0.1103,  0.0650,
         0.0817, -0.0938,  0.1267, -0.0373,  0.0100,  0.0360,  0.0870,  0.1415]), Bias: -0.058157678693532944
tensor([-0.1071,  0.0170, -0.0760, -0.0128,  0.0086,  0.0745,  0.0690, -0.1547,
         0.0146, -0.0777, -0.0348, -0.0815,  0.0118, -0.0737,  0.0383,  0.0423,
         0.0255,  0.0204, -0.1597,  0.0185,  0.0005, -0.0238, -0.0674,  0.0284,
         0.1439,  0.1302,  0.0558,  0.1112,  0.0229, -0.0884,  0.0297, -0.0145,
        -0.0203, -0.0735,  0.1677, -0.0213, -0.0555,  0.1129, -0.0997, -0.0509,
         0.0479,  0.0316, -0.0387,  0.0048, -0.0118, -0.0490,  0.1363, -0.0698,
         0.0163, -0.1242,  0.0139,  0.0217,  0.0792,  0.1172,  0.1116,  0.0256,
         0.0916,  0.0666,  0.0999,  0.0760, -0.0423,  0.0636,  0.0218, -0.1108,
        -0.0457, -0.0730,  0.0293, -0.0696,  0.1487, -0.1178,  0.0171, -0.0917,
         0.0509,  0.0409,  0.0057, -0.0545,  0.0233, -0.0519,  0.0173,  0.0740,
        -0.0486,  0.0320, -0.1677,  0.0324, -0.0507,  0.0363, -0.0260,  0.0427,
        -0.0213,  0.0980, -0.1845, -0.0034,  0.0312,  0.0592,  0.1485,  0.0714,
         0.0854,  0.0837,  0.0993, -0.0735,  0.0112, -0.0125, -0.0861, -0.0289,
        -0.0907,  0.0005, -0.0823, -0.1185,  0.1141,  0.0910,  0.1114,  0.1485,
        -0.0483,  0.0173,  0.0154,  0.1716, -0.0605,  0.0509,  0.1860, -0.0079]), Bias: -0.04757433012127876
tensor([ 5.4526e-03,  1.1880e-01, -2.3246e-02, -9.0452e-02, -1.3313e-01,
        -9.4816e-02,  5.2911e-02, -1.9444e-02,  1.8504e-02, -8.9136e-02,
        -6.9110e-02,  3.0477e-02, -2.0811e-02, -2.0419e-02, -2.3016e-02,
         5.2053e-02, -1.3705e-01, -2.1628e-02,  1.8564e-01,  1.2849e-01,
         2.2672e-02, -2.4880e-02, -5.6639e-02,  1.2980e-01, -1.4602e-01,
         5.3700e-02, -9.6298e-03, -9.9624e-02, -2.0415e-02,  6.7672e-02,
        -1.0595e-02, -6.0000e-02, -7.1229e-02,  9.5509e-02, -7.7821e-02,
        -5.8425e-02, -1.5486e-03,  8.0845e-02, -5.7476e-02,  1.3740e-01,
         8.1586e-02,  1.4987e-04,  8.6532e-02, -7.6072e-02,  7.3185e-02,
         1.2842e-01, -1.0079e-01,  3.8240e-02,  1.6686e-01, -8.3725e-02,
        -1.5808e-02,  4.3262e-02, -4.4806e-02, -8.5413e-02, -1.5988e-01,
        -3.3635e-03, -1.7410e-02,  6.3920e-02,  4.1672e-02, -6.7441e-02,
        -5.5704e-03, -1.5090e-02,  1.8134e-02, -5.7593e-02,  1.3899e-01,
        -7.9812e-02,  2.1899e-02,  3.4962e-02, -4.2642e-02,  1.6905e-01,
        -9.4529e-02, -4.7172e-02,  2.2041e-02, -1.0565e-01, -8.0904e-02,
         1.1877e-01, -3.0226e-02, -3.0255e-02, -7.5907e-02,  2.2022e-02,
        -5.4012e-02,  4.7815e-02,  2.1580e-02,  7.6334e-02, -7.3960e-02,
        -1.2455e-01,  7.1770e-03,  9.8168e-03,  8.3724e-02, -7.1907e-02,
         1.0183e-01, -3.7394e-02,  6.8048e-02, -4.2938e-02, -9.0839e-02,
         2.7709e-02, -1.3203e-01, -8.3194e-02,  3.0524e-02,  9.1669e-02,
        -6.4522e-02, -1.0384e-01, -4.4123e-02,  1.3679e-01,  1.7110e-01,
        -8.7365e-02,  1.8981e-01,  1.3221e-01, -4.4692e-02, -1.6049e-01,
        -2.8010e-02,  2.3082e-03,  1.1576e-01,  4.3015e-02,  1.7340e-03,
        -3.4487e-02, -5.2339e-02, -1.1475e-01, -4.9740e-02,  6.6009e-02]), Bias: -0.0489179864525795
tensor([-8.4353e-02,  6.8558e-02, -8.5955e-02,  6.8420e-02, -7.3334e-02,
        -7.9833e-03, -2.4031e-02, -8.2940e-03,  8.2475e-02, -6.4479e-02,
         6.4785e-02, -1.1429e-01, -3.4758e-02,  6.1090e-02, -6.2522e-02,
        -8.2028e-02, -1.3554e-01,  1.0402e-01,  7.4524e-02,  1.2073e-02,
        -8.8941e-02,  2.7449e-02, -1.2155e-01,  8.7244e-02, -1.1946e-01,
         8.9797e-02,  5.4406e-02, -9.1178e-02, -1.6976e-01, -1.4581e-04,
         2.6954e-03, -1.3350e-01, -1.0339e-01,  5.4513e-02, -2.8475e-02,
         2.5137e-02, -2.0763e-02, -4.6096e-02,  1.0690e-02, -6.2091e-02,
        -9.8069e-02,  6.2671e-02,  1.2102e-01, -1.1318e-01, -9.5868e-02,
        -5.5877e-02, -6.1029e-02,  1.2010e-01,  8.9421e-02, -1.0955e-02,
        -9.6462e-02, -7.7657e-02,  1.0425e-01, -4.8572e-02, -3.3897e-02,
         5.3829e-02,  3.2582e-02,  1.0081e-01,  8.0964e-02,  5.3356e-02,
        -4.4972e-02, -4.3549e-02, -5.5811e-02, -6.6605e-03,  8.1049e-03,
        -1.8855e-02, -4.9269e-03,  3.5860e-02, -5.5098e-02,  1.3910e-01,
        -8.7525e-02,  1.7580e-02, -6.5408e-02, -5.6296e-02, -7.4159e-02,
         1.4537e-01, -6.0878e-03,  8.6406e-02,  5.8108e-02, -4.8976e-02,
        -6.5113e-02,  4.3913e-02, -6.1892e-02,  9.0529e-02, -5.1873e-02,
        -7.0891e-02,  5.0798e-02,  7.9817e-02,  5.4870e-02,  1.1311e-02,
         4.3863e-02,  2.9869e-02, -1.9015e-02, -1.6074e-01, -1.9733e-03,
        -9.2864e-03, -8.7998e-02,  4.3191e-02,  1.1007e-01,  3.1099e-02,
        -1.3541e-01,  8.6082e-02,  1.7272e-02,  3.5006e-02,  2.5505e-02,
        -3.2312e-02,  1.3679e-01,  1.4704e-01, -4.5247e-02,  7.6989e-02,
        -4.7122e-02,  7.1906e-02, -1.0719e-01,  7.8546e-02,  5.0187e-02,
        -4.0877e-02, -1.3501e-01, -4.6901e-02, -4.9910e-03, -5.9993e-02]), Bias: -0.06916241347789764
tensor([ 0.1180, -0.1269, -0.1033,  0.0058,  0.1362, -0.0741, -0.0395,  0.1351,
         0.0534, -0.0207, -0.1479,  0.0526,  0.1390, -0.0298,  0.2255,  0.0990,
         0.1554, -0.1543,  0.0943,  0.0406, -0.0120, -0.0785,  0.1595,  0.0663,
        -0.0667, -0.0245, -0.2443,  0.0823,  0.1513, -0.0785, -0.1323,  0.0531,
         0.1210,  0.0288, -0.1682,  0.0535,  0.1371,  0.0230,  0.1572,  0.0427,
         0.1324, -0.0563, -0.1349,  0.0287,  0.0192, -0.0219, -0.1078, -0.0514,
         0.0434, -0.0607,  0.0932,  0.0679, -0.1872,  0.1155,  0.0619,  0.0306,
         0.0140,  0.0087, -0.0128, -0.0074,  0.0701,  0.0309,  0.0879,  0.0196,
        -0.0184, -0.0889, -0.2082,  0.1453,  0.0060,  0.0860,  0.0330,  0.0128,
        -0.0281, -0.0654,  0.2005,  0.0078, -0.0800, -0.0724,  0.0153, -0.1257,
        -0.0439, -0.0937,  0.1132,  0.0673,  0.0716,  0.1978, -0.0585, -0.0203,
         0.0545, -0.0892,  0.1201, -0.0835, -0.1484,  0.2353, -0.0711,  0.0233,
        -0.0109, -0.0121, -0.2056, -0.0781,  0.0062,  0.0500,  0.0077, -0.0782,
         0.1559, -0.0084, -0.0240, -0.1754, -0.0958,  0.0247, -0.1007, -0.0502,
         0.0819,  0.0084, -0.0089,  0.0457,  0.1228,  0.0057,  0.0884, -0.0281]), Bias: 0.09059002995491028
tensor([-0.0593, -0.0571,  0.1254, -0.0341, -0.0413, -0.0298, -0.0145, -0.1313,
        -0.0221,  0.0013,  0.0176, -0.0597, -0.1156,  0.0293,  0.0454, -0.0405,
        -0.0052,  0.0597, -0.0405, -0.0544,  0.1103,  0.0826, -0.1155, -0.0792,
         0.1360,  0.1250,  0.1060, -0.0485, -0.0199,  0.1999, -0.0347, -0.0340,
         0.0143, -0.0068,  0.0440, -0.0913, -0.0374, -0.0816, -0.0069,  0.0797,
         0.0469,  0.0136,  0.0720,  0.0234, -0.0829,  0.0956, -0.0057, -0.0629,
        -0.0193,  0.0817, -0.1276, -0.1188,  0.0190,  0.0511,  0.0993,  0.1590,
         0.0452, -0.0637,  0.0150, -0.0568, -0.0571,  0.0357,  0.1579,  0.0499,
        -0.0519,  0.0317,  0.1746,  0.0951,  0.0268,  0.0209, -0.0196, -0.0094,
        -0.0237, -0.1017, -0.0039, -0.0519, -0.0111, -0.0305,  0.1156,  0.0622,
        -0.0370,  0.0134,  0.0334, -0.0388, -0.0068, -0.0919, -0.0549,  0.0655,
         0.0981, -0.0276, -0.0178,  0.0192, -0.0207, -0.0467,  0.0761, -0.1513,
         0.0918, -0.0141,  0.0018, -0.0814,  0.0463,  0.1775, -0.0536, -0.0848,
         0.0067,  0.0093, -0.0404, -0.1203,  0.0218, -0.0121,  0.1513, -0.0357,
         0.0333, -0.0203, -0.0046, -0.0175, -0.0114,  0.0251, -0.0115,  0.0740]), Bias: -0.08256469666957855
tensor([-0.0620,  0.0838,  0.1043,  0.0510,  0.0829, -0.1242,  0.1747, -0.0433,
        -0.1256, -0.1351,  0.0998, -0.0818, -0.0297,  0.0275, -0.0678, -0.0238,
        -0.0057,  0.1071, -0.0227, -0.0575,  0.0401, -0.0659, -0.0373, -0.0329,
         0.0411,  0.0770, -0.0495,  0.0388,  0.1254,  0.0630, -0.0256, -0.0170,
        -0.0438,  0.0733,  0.0780,  0.0759, -0.0114,  0.0358, -0.0506, -0.0083,
        -0.0442,  0.0156,  0.0755, -0.0280, -0.0578,  0.0903,  0.0599, -0.0125,
